/**
 Generated by Multiple Back-Propagation Version 2.2.2
 Multiple Back-Propagation can be freely obtained at http://dit.ipg.pt/MBP
*/

#include <math.h>
/**
 inputs  - should be an array of 256 element(s), containing the network input(s).
 outputs - should be an array of 1 element(s), that will contain the network output(s).
 Note : The array inputs will also be changed.Its values will be rescaled between -1 and 1.
*/
void nn_256_7_1(double * inputs, double * outputs) {
	double mainWeights[] = {0.312831698872005, 0.494233719197323, -0.732122065586244, -0.917625829260589, 0.277934640166008, 0.553653540728394, -0.147191904737680, -0.152634507272478, 0.277161265110929, -1.437758257876786, 0.223579526818949, 1.201803064902852, 0.597993878762286, 0.181786084231993, 0.959788504613671, -0.278997490142761, 0.902059728249268, 0.254508230981636, -0.613194866574041, -0.269228661037373, 1.093279607926433, -0.394642111790612, -0.244426710988963, -0.561604380429933, -0.260233963456780, -0.332673809554517, 0.001668614930950, 0.086785930815074, 0.443712752048061, 0.688756169619934, 0.431020436610876, -0.872820023938778, 0.391267450698732, -0.046737379774057, 0.249822193438086, 0.009698138595172, -0.334005213319829, -0.122339401736537, 0.653464001505975, 0.712497691909566, 0.308279876550289, -0.492110888263756, 0.493646945959139, 1.127493129266251, 0.209140698434234, -0.128442696518007, -0.329202519558585, -0.063649640718663, -1.167599791365005, 0.564537865958583, 0.792115345747873, -0.291309504059349, -1.510397666719339, 0.670014735546366, -0.363470744043804, -0.485858138008536, -0.123164995814440, 0.123068397095606, -0.374585451164231, 0.072663410647422, 0.090709930324919, -0.875383153442640, -1.135230114701269, -1.100065100910975, -0.567842813601748, 0.308760216824496, -0.411260719529506, -1.033841616657948, 0.134277599534271, -0.424286681164265, -0.110776301046406, -1.825236258596057, -0.798575876361650, 1.092667054908708, 1.276832814807908, 0.108011517682321, -1.603946446019720, 0.751487630887812, 0.677184114092883, -0.448843423517377, 0.933665728737136, 0.086594338572901, -0.885256577205693, 0.550446736579163, -0.199724998646202, -0.802323153461265, 0.077244399452715, -0.821000751420139, -0.417714896634631, -0.305864191230363, -1.042316002474866, 0.734520933129570, -0.703586295100551, 0.398715593080734, 0.764350887002552, 0.376529297610318, -0.361592028263769, 0.801826479654980, -0.059200323214388, 0.779428272216265, -0.196686553469424, 1.110504234863947, 0.641766069494375, -0.402894155822233, -0.145957640988635, 0.754454229213563, 1.442369653777172, -0.829502937919145, 0.175331217459342, 1.035272782172714, 0.206472749851756, -0.624204061612871, -1.005625448052778, 0.538020737903480, -1.169287610388344, 0.016980430507145, -1.472842387540510, 0.451260022192329, -0.761692024165478, 0.658055026854602, -0.319475818785797, 0.273513498851461, 0.620811968729298, 1.902546022392367, -0.698520158145816, 0.066119199313312, -0.108517660733638, 0.193715972832736, 0.869364678334897, -0.523262201645365, 0.306989478859974, -0.586694937190730, -0.612656496865662, -0.312714888754682, -0.625138035660606, 0.942183049169707, -0.861277746822026, -0.433842302528414, -0.948390168366178, 0.014645334302988, -0.278946617008971, -1.171033650494993, -0.071006259558070, -0.140781111558582, -0.480394501467045, 0.857681234026616, 0.672418241813178, 0.925933776866180, -1.300591225068264, 0.320001509472729, 0.195085588655968, 0.308848964093904, 0.552815170059190, -0.538281781556525, 0.706981053308155, -0.116327546255129, 1.674558769274374, 0.734456943769985, -0.074275863691619, 0.008197973440737, 0.446195015351845, 0.684998703986568, -0.517376508592519, -0.243101872339657, -0.284728420499440, -0.523563030766102, -0.573250617226521, -0.553662292242500, -0.377943181003141, 0.132930195938174, 0.530617861827223, 1.548775490450518, -0.117775416496051, -1.203966724689522, 0.460868831848484, -0.028242809054961, 0.798265999218086, -0.867262001693182, 0.698786839956233, 0.439553459243185, -0.711890821899214, -1.399798503107582, 0.842301662695786, 0.295401409989625, -0.669328121045507, 1.313471682234970, -0.188451203409332, 0.578688582831686, -0.415603459433378, -0.659741176416841, 0.405118004204303, 0.277060850097249, -0.013924773176334, 0.340515510637382, 0.311267052201790, -0.243365132423806, -0.183523888559015, -0.694190440450400, 0.422494993398929, 0.637627524254919, 0.335560727623086, 0.474699323652651, 0.330020185290583, -0.503589734809469, -0.624566093319802, -0.897882516977009, 0.615599070076938, -0.926520527661757, 0.555884120536917, 0.022811717011273, -0.512213687473397, -0.616052483521797, -0.893202426466260, -0.930058281816728, 0.069047031120762, -0.100578172960958, 1.111818020108049, -0.853203272824587, -0.895591636638707, -0.003477823608293, 1.495416677587127, 1.383444498053106, -0.066977293187678, -0.098364035613457, 0.762611315463540, 0.465329990349192, 0.416515170586071, -0.775787714166969, -0.217486970198187, -0.985886178461042, 0.076224355771326, 0.413621361924336, -0.118345638710578, -0.279767547001624, 0.449352892953184, -0.459801501821405, 0.666284761410731, 0.122427932357181, -0.295613204301154, -0.506321946486697, 0.481411815097567, 0.330248995416268, -0.491051849709544, 0.711772736060301, 0.504310597331668, -0.447147561056593, -0.000547290166547, 0.127291851377992, 0.030305555407537, 0.916960946133287, -0.605258730069814, -1.129779350688482, 0.884430423738836, 0.249931431809497, -0.302170463165558, 0.902459655890701, 0.699632501716004, -0.934686489505959, 0.074926840979136, 0.206705764896447, -0.082979069333581, -0.247222669076674, -0.335957304809673, 0.189086098912371, 0.524823598741595, 0.710454992256555, 1.132141649427440, 0.524137701377934, -0.174725662777619, -0.033966158646478, -0.302348503271255, -0.537083426136311, -0.621528871702677, -0.440735238163681, 0.507185764814307, -0.916327411423190, -0.568327034327633, 0.829918946120770, -0.268066632833848, -0.419470595380989, 0.266933086241028, 2.147068831682141, 0.905656980983936, -0.470243063436959, 1.563281594418512, 1.385500812893166, 0.691392635631083, 0.514607376654219, 0.719495472612119, 0.454905571129763, 0.693475991038491, -0.391035637775886, 0.683396223462871, 0.110271040693708, 0.634866445196110, -0.525681721869498, 0.459595512271686, -0.000719864981695, 1.538813667785345, 0.832663411535629, -0.790943690852205, -0.119742170527442, -0.878041597342687, 0.508895578322207, 0.168923496206152, 0.483839593828881, -0.938158952884672, -0.407219917275373, 1.248397331089973, -0.349182634954177, -0.328124738951710, 0.007485606776240, 0.181722278865132, 1.138024490125777, -0.330467602313470, 0.000707312250255, 0.062527721100181, 0.593434035712395, -0.977774620268946, 0.741790378390718, 1.279549784106737, 0.181849839906088, 0.556753668991301, 0.413539449946699, -0.065758765261819, -0.119840878024386, 0.144996746628228, 0.475478246060600, 0.911288272227375, -0.281655430018158, -0.567996710691586, 0.059855657394902, -1.254863628674246, -0.463841050778125, 0.984058084979303, -1.333430243994375, 1.776818298793970, -0.394185750749073, -0.676885819218491, -0.581779484714840, -0.025924525502718, 0.165964265540999, -0.109244109475371, -0.587705251625749, 0.038448939489477, -0.348072184561041, -0.294905007505723, -0.656080963300898, -0.229163948210846, -0.271200529943530, -0.124591503571003, 0.248826680092565, -0.189460341725158, -0.679797052632876, -0.734993438653694, -0.063328282641336, 0.463417012263185, -0.140505399710629, -0.568721247769790, 0.259071890029478, -0.778224306870741, -0.583867019560943, 0.535845626663690, 0.554668262121142, 1.281358088556801, 0.634280940682795, -0.287869218034651, 0.215865845245385, 0.519830298675574, 0.899075354591777, -0.480401316070690, -0.196485009626990, 0.059219746706791, -0.248204481335280, 0.751591404255753, -0.975973239955882, -0.088201518069772, -0.001310527736587, -0.414901827218298, -0.063901906882790, -1.408281659790131, 0.153814467126132, 0.405106962779894, 0.014693266258018, 0.935692164333598, 0.458207013218683, -0.271928875480715, -0.132647551250478, -0.467006352879625, 0.989752094316965, 0.359993026394316, -1.836061997494793, -1.112781491251066, -0.397397763633487, 0.406641735452217, 0.916822548799965, 0.545818025721553, 1.003824313622205, 0.293118055253636, -0.141520219653906, 0.523793110646992, 0.701206062913577, -0.707850626187832, -0.531779086758377, -0.618795287372612, 0.515987222773272, 0.628278266139955, -1.172797432631516, 0.039454272123805, -0.110372741995305, 0.464977714581294, 0.215293139105976, 0.420948496206976, -0.315764328475035, -0.792338950212098, -0.228968074695312, -0.878564999533922, -0.588287711799200, -0.112174804003082, -1.060907332292979, -0.625043114262829, 0.380446654622068, -0.525495905219523, 0.162054943075309, 1.649336927040639, -0.538932918336710, 0.011210243910067, -0.934955839450315, 0.806237726975282, -0.707091417824477, 0.439975660955169, -0.551081368278389, 0.596167338121236, -0.214077104082469, 0.600245948724489, -0.927020638059629, 0.705239397170121, -0.689376412307405, 0.646989551760125, -1.001265914392856, -0.244671327278920, 0.802422847888145, -0.714356107668825, -0.161771970130156, 0.349801915947105, 0.137506919194903, -0.585016535042190, 0.805500711445338, -0.344891710013128, 0.275656919681759, 0.942918845917884, -0.861541069937419, 1.152888582041302, -0.046475813758871, -0.193808685717389, -0.067742256874513, -0.372529208635756, -0.884272218136170, -0.304292874626136, 0.351548829035654, -0.548477029505902, 0.533658396757542, -0.025808906532883, -0.862904965723668, -0.100588106697102, 1.100961530051458, -0.315969360309584, 0.470154347403591, 0.399351981993665, -0.198536335137202, -0.795101069672281, 0.934292247461016, 0.046393470383040, -0.534243103841499, 0.078505529167392, -0.092319977679860, 0.298427836355948, 0.441431336851749, -0.599796470494209, 0.244089777957708, -0.403623019022770, 0.882908707169077, 0.804099918931089, -0.127640240613370, 0.742556262435802, -0.999474700194850, 0.131636569926865, 0.683824045174525, -0.420426303143085, -0.451830862252395, -0.451526767615983, 0.196723310579394, -0.525604209710875, -0.736946053666009, 0.582019334963502, -0.082734154801067, -0.502676961250423, -0.406818825556574, 0.505441365563010, -1.017126829168124, -0.748777981798631, 0.354527422599678, -0.788039323298589, 0.110098650876090, 0.413359454606449, -0.873859546898776, 0.072622314901547, -0.800408762460611, -0.787866996520820, 0.432813966429784, 0.159892823498353, 0.101647097682079, 0.800307708466658, -0.694000280839880, -0.196887967820818, 0.548312996564433, -1.001905210777637, 0.381302558573411, -0.620284619071097, 0.565980407244023, -0.500564642905802, -0.784756659512938, -0.500201585483766, -0.520405804342888, -0.063937579745601, 0.318996350783060, 0.879335013795098, 0.697535414692532, -0.097166255032696, -0.699180121406511, -0.652200582908111, -0.909660298647903, -0.250757700190841, 0.936475798043973, 0.860344905520486, -1.121816036984843, -0.303044869684869, -1.690292188485028, 0.226377479066362, 0.576290781576788, -0.227731264854003, 0.547352720931454, -1.516718394966631, 0.764136145825502, -0.490950699660315, -0.230787983514083, 0.932405721291326, 0.482576127152856, 0.165974883493104, 0.462243962212285, -0.397778035839120, -0.655495366529111, 0.835093969322727, -1.506821562248762, 0.004629152139941, 0.244949032925960, 0.394384557770810, 1.452144941243288, 0.107775657764533, 0.573436087891369, -0.916994832137585, -0.308093365952008, 0.299032701292098, -0.046346915596413, 0.779361930320130, -1.098223552145970, -0.642514949534200, -0.353075644553921, -0.176315199350855, 0.952982837644661, -0.758043767947646, 0.400734446101825, 0.892244935953232, -0.352582402633277, 0.501644860988660, -1.228728886875799, 0.143266819754753, 0.361210372989188, 1.097040801424020, -0.074922910254232, -0.064659614215429, 0.959115744581931, -0.346179310862664, -1.096860949676809, 0.236033365131251, 0.791247157918968, 0.376811361520437, 0.307056418382182, -0.065980911687354, -0.348838033488407, -1.408029648495405, 0.208515530214866, 0.599713243871294, 0.726242756662826, 0.222832921444172, -0.857098624085372, -0.315599227099933, -0.422490726368705, -1.160044732230283, 0.473682434685377, -0.579007317072501, -0.627685056208449, -0.975221068901465, 0.258692517002301, -0.911562883927092, -1.316624103569522, 0.112744464526265, -0.313744870746406, -0.670755414453500, -1.161668252465113, -0.009862660524982, 0.889654392413073, 0.187940739020442, -0.036932731009055, 0.461405408838286, 0.214319205941252, 1.055638604483929, -0.212076233246912, 0.081086779507752, 0.558407124613113, -0.672422678135038, 0.939994412140161, -0.563563728443171, -0.275415125458797, -1.047547610029213, -0.910308385138531, 0.142585174795943, -0.641346842105461, 0.151567805038066, 0.579778827156329, -0.893922623406817, 0.294532126708475, 1.256983748961645, -0.037355448340160, -0.608914211070814, -0.950590745291084, 0.626580753493835, 0.428104781265941, -0.684594209123800, -0.078576607354540, -0.056073230560781, -0.508009327684659, 0.564919146814535, -0.898760446211054, -1.023188690321479, -1.004353913694797, -0.757742620322073, -0.487338236989014, 0.972253180736825, 0.874254293662629, -0.539164114505842, 0.330951486051032, 0.482296165756756, -0.483346819335540, 0.488289348464028, 0.037639823370278, -0.194417422947690, -0.607350763815045, 0.562476600426306, 0.377956693089807, -0.540084269897271, 0.677189008122585, -0.768569902176077, 0.787557064873381, 0.504922629823622, -1.074794861306287, -0.328926829317029, -1.694769201362982, 0.879432180465048, -0.383399156364515, 1.292942389547272, 0.837148117217552, 0.559895691711132, -0.519068298342705, 0.242356325068027, 0.773242956511999, 0.156354550781044, -0.779975927264387, -0.604824404717862, -0.706174850927526, 1.340231048673599, 0.215830724478032, 1.631160225952936, -0.013252330104487, -0.516534021712477, 0.975366014167264, -0.871093715176475, -0.464652382025327, 0.616138746241631, 0.040777078442316, 0.632093755766090, -0.644109549034427, 0.304541247579551, -0.679022033773099, 0.051177807207636, -0.309917975166119, -0.848705015898386, 0.574034399906392, -0.454286614347362, 0.467997813145120, 0.129684101297598, -0.609452203734185, 0.515924941741008, -0.219501621111646, 0.562874192154540, 0.787283222238144, -0.561644429994048, -0.552672885850661, 0.625100617098132, 0.305373025213280, -0.132949198335528, -0.358427019401191, 1.194384704808580, 1.356642884400782, -1.011106883706120, 0.395735510196916, 0.632075292236279, -0.396836752901667, -0.339066141620013, -0.575462523307628, 0.816660716404226, -0.793339324533960, 0.509641806764738, 0.091840148709699, -0.093812651010989, 0.609944117779621, 0.264070325691343, 0.707191750279156, 0.119797904860670, -0.614750510648318, 0.588643102766735, -1.044315868014168, -0.198868526658611, 0.579688570365027, 0.444948602956185, -0.717475142338843, -0.819003230763381, -0.623794482001276, 0.932813453568866, -0.509824728440112, 0.129454842825606, -0.237140748811398, 0.387396565982490, 0.980073332050332, 0.369959603127340, 0.266208809703785, 0.356704739577778, 0.346841690199653, 0.819389305558414, 0.357178106948584, 0.388079840694920, -0.450471272493377, 0.495592806663156, -0.623857183482866, -0.550873998410457, 0.219130744799314, 0.994436849028908, 1.277679812987824, 0.697352548763123, -0.687400667894978, 0.511784156185314, -0.369491469333435, 0.778611083744807, 0.509640089076551, 1.047804584643807, -0.480713797996391, -0.705793380191918, 1.044753947409006, -0.341027765823160, 0.011831945012231, -0.383572497572616, -0.958992232704128, -0.923651798730923, -0.195846384747446, 0.093341383305925, 0.033893324994036, 0.295727226974371, -0.897768254667233, -1.122783519861669, -1.319118376079985, 0.858229284205688, 0.676423511264310, 0.135854308989232, -0.433750251953086, -0.409294913595754, 0.320872735608658, 0.524941793630910, -0.491956627143005, -0.657880167822505, -0.264673810706034, -0.104822969442113, -0.388183809699562, -0.306904195496993, 0.327891048238065, -0.945473255158843, -0.595940321171248, -0.697934058276916, -1.206627626860557, 0.541424344970538, -0.826917220316106, -1.687975108015039, 0.405801130868961, -0.137492059078994, 0.620526481922427, 0.482580080903961, 0.462527050267422, 0.739756428237284, -0.574973969717757, 0.233250812592809, -0.313986307227691, -1.355117127827055, 0.171771160957324, 0.548260468322947, 0.970309920316642, -0.701088603547326, -0.699235446654153, -0.219917480242740, -0.180519914135029, -0.725446504354611, -1.157229507484733, 0.857880497723623, 1.151646419655962, 0.568429798219358, 0.617341286978724, -0.765339334736984, -0.299126996644391, 1.214879504703038, 0.493456889556466, -0.844046551700433, 0.460054987611070, 0.484145259894576, -0.037692323004984, -0.269709568474499, -0.223326929311554, 0.672255011922847, -0.450156971360340, -0.288418928299401, 0.845456901517509, 0.178474872267686, 0.225947549547352, 0.560675199703707, -0.471847515501643, -0.422957769093095, -0.476437104063963, -0.386171206101822, 0.464508412750646, -0.638154420566648, -0.052731934544607, 1.198500930969821, 0.052662964363646, 0.237198357482536, -0.283210312768232, -1.093194511523127, 0.439128347419765, -0.393397054082653, 1.021197074013645, -1.240556601817771, -0.696599799910511, -0.800441450864113, -0.687979283336024, -0.952579242462869, 0.337601073716802, 0.437377558118162, 0.497648448346263, -0.604347297552828, 0.089880979347092, -0.792657062069979, 0.365956972471984, -0.963490846308237, -1.037342676118543, -0.711787588607229, 0.705839978859923, 0.500880495550799, -0.627222461860378, -0.418318073118282, -0.133143839617390, -0.465469277681036, -0.311313001485096, 0.061274272377905, -0.522066297253005, 0.782031038194202, 1.287564363353677, 0.445366636165664, 0.908145318860395, -0.708107216541500, 0.439849234814653, 1.038394898352951, 0.403712613705459, -0.090415889268292, 0.275873560126773, 0.356680200550692, 0.785409892646693, -0.202981423866353, 0.596734912276081, -0.263114671614498, 0.183230092571488, 1.603439129497797, 0.704890572354713, -0.555206446945695, -0.486273162062854, -0.901166628855498, 0.410951216838751, -0.254099802224801, 0.127908463329291, -1.085348815839549, -0.179579274943845, -0.389174919948573, 0.472327056380440, 0.853151251251298, 0.034275438150982, 1.172695120503947, -0.700770023009029, -0.481162863521355, 0.008896228680574, -0.494813390996320, -0.495303369326198, -0.007618878947242, 0.574929198407841, 0.887678199663477, 1.642974708377892, 0.459243138609656, 0.091519292047144, 0.324409206992350, 0.064588797210088, 1.179470818632389, -0.598358093948542, 0.074857805353490, -1.194550532775217, -0.737411980840214, 0.197542052349011, -0.026774570245372, -0.776699582114709, 0.344721596311228, 0.323210275258800, -1.016631505163919, 0.254748417091050, 0.491155547924142, 1.268091173735396, 0.356401317991418, 0.288172377897462, -0.262056712562045, -0.735456475961332, -0.564922356083364, 0.687713702380859, 0.094093047858275, -0.192941514169738, -0.387567838786065, 0.331355628445010, 0.385855655718925, 0.159317339865275, 0.106563664116029, 0.539998290554894, -0.021102472548239, -0.428737669610760, 0.065533387785592, 0.591191631644632, 0.178063645123971, 0.846999855773795, 1.098722025831823, 0.814556883020719, 0.517429888577265, -0.079304946392147, -0.975759591408266, -0.079438310933251, 0.871915514324146, -0.284919752904053, 0.265782047720327, 0.016163898169019, 0.848058635077885, -0.519630193341001, -0.045243398958262, -0.575189190534798, 0.172972250171295, 0.936335869825035, -0.818787539367332, -0.437266132173443, 0.662824834478292, -0.247658927102682, -0.160677626761763, -0.174283999673525, -0.345734749656161, -0.389166585218972, -0.528920801566279, -0.190993675897445, -0.179539159857809, 0.093797816994960, 1.926143174118611, -0.085405021720014, 0.304407945230149, 0.134766061940823, -0.332827652372114, 0.500840170497837, 0.802250600503180, 0.134082920510919, -0.832947695440501, -0.160227223219006, -0.339536360916059, -0.701395471293024, -0.364285886386432, -0.031268930608208, -0.093302128884699, -0.165224677678839, 0.113919298882745, 0.064062009894190, 0.648136125830933, 0.059762204846962, 1.007569275008160, -1.053290672206854, -1.077218312407502, -0.947547928107921, -0.496650695876318, 0.132625458299646, 0.611495848306520, 0.625723507769017, 0.836718280620480, -0.512291079914036, 0.785661982076148, -0.279625414829481, -0.888738034003115, -0.079645310711264, -0.699596023110204, 0.832094017826683, -0.399943922968451, 0.933399539414550, 1.461231929815102, 0.408849827329633, -0.020132521371632, -0.113926850860230, 0.250053711557292, 1.128559525333509, 1.094317757701441, 0.048055399910135, -0.498290582027267, 0.311153033600881, 0.237357210378893, -0.662143934142566, -0.147020046647359, 1.055724552427594, 0.824442224139838, -0.527295160631950, -0.447353172003107, -1.032081993977721, -0.702049518842857, 0.543313049758570, -0.532470129253703, 0.292748496449252, -0.931959004872347, -0.677551680087767, -0.089915890929858, -0.823865504976521, -0.745385696527553, -0.010652814191007, 1.241306990011838, 1.182160613378140, -0.086389617121756, 1.106762471276730, 0.692603898801079, 0.859061087233262, 0.256102943029747, 0.154646749272050, -0.867680212063183, 0.162892848493894, 0.201382660680592, 0.610802071217896, 0.813677827089311, 0.192950547146121, 0.772196383077138, 0.997799261663318, -0.262097847270401, 0.106238978991995, 0.224553628725123, -0.651745027754904, 0.724231490434077, -1.020407694712933, -0.293960307851000, 0.383045845838446, -0.359587724704865, 0.508331220750161, 0.129369665807295, -0.535666176264422, 0.770641146661618, -0.224239595982386, -0.277515264790110, 0.997093854405870, -0.609331940793075, 0.522157868355286, 0.598401593353773, -0.273232831475187, 0.301252213595421, 0.308141582124365, 0.006320089555494, 0.623028126945801, 0.949399818111783, 0.806680333788152, 0.645972812966611, 0.631032605473130, 0.002957141357381, -0.633835744700788, 0.930952826094205, -0.470731436910450, -0.032277738223920, -0.706578931568365, 0.274733975211603, -0.630732234355609, 0.378807333454480, 0.086268198949239, 0.986088482979891, 0.322400614500244, -0.738631869552110, -0.086770681080684, -0.328431372314657, -0.948133159989984, -0.694070366255286, 0.236989541758647, 0.318416589729979, -0.152536340905537, -0.109432874781968, -0.583797125327877, 0.261421617738998, 0.505549961129550, 0.914664926064782, 0.737900503456231, 0.318179592327677, 0.916745488844780, 0.477070311238369, -0.996039152463807, -1.112882317311833, -0.950934494267316, -0.561688388991546, 0.515088080256852, -0.061454715537133, -0.987343113711133, 0.128081548559701, -1.174191316085989, -0.385719069446867, 0.085895979885869, 0.782567918765464, 0.976342385302455, -0.391022734972744, -0.658479740755368, 0.056149424803651, 0.409282824397856, 0.852600550522492, -0.188722854995043, 0.608135062729446, -0.482247255140849, -0.072042234615156, 0.030841880041113, -0.555595841792287, 0.736122518705486, 0.149405764526074, 0.968605499831868, -0.302679755678080, -0.209027473463034, 0.333970997422568, -0.555059111521535, -0.250344289035080, -1.041589627893828, 0.386422886893568, 0.461874261231047, 0.205012466222610, 0.113599893186188, -0.988787413391579, -0.907929260102376, -0.568011172749218, 0.919583429941948, -0.518116469527839, 0.029004772879979, -0.440994773822369, 0.707780185312951, 1.075771361949438, -0.437469317034237, -0.440646174854904, -0.999190154589423, -0.649709563828675, -0.807777234270838, 0.208418932627444, 0.493580992977430, 0.021454124418144, -0.029092735054344, -0.286005996871919, 0.669298684583369, 0.640543705494647, 0.202485758471998, 0.346990522721558, -0.498346502229008, -1.073777561336345, -0.743211500562516, 0.375463227158311, -0.217395736645607, -1.156182661196119, 0.244755578045902, 0.547509327157881, -0.542374450679680, 0.715106248043625, -0.521964507942649, 0.263179535016108, -0.059191669739492, 0.261354670667499, -0.214430206488427, -0.477185069513360, -0.713899744255263, -0.677831218186861, 0.459739852935339, 0.211445149765511, -0.828274881130906, -0.245972540295231, -0.916100823567767, -0.224644228626193, -0.400377108360176, -0.438793274506064, 0.595896132223408, -0.104402117734841, -0.538603669776532, -0.743700127704283, -0.170402928077372, 0.076895555339617, -1.237815238839448, -0.113637123727702, -0.569882026713079, 0.536224274494093, 0.354045783020004, 0.266770463415862, 0.528248822173165, -0.933582149049044, 0.817013481598040, -0.535266424925990, 0.919106719680520, -0.963986647146957, -0.155706508259699, 0.790927480473587, 0.599815912904155, 0.082449016715392, 0.195242682363444, 0.074568471372613, 1.017421630702510, 0.601075301493582, 0.707776100531391, -0.587466054459767, 0.313004539674943, -0.285317470438433, -0.845011232534248, 0.053750548420922, -0.712586304168858, 0.417472424307152, -0.132114719502485, 0.568488404958844, -0.726504505604198, -0.627251784002522, -0.151944347005330, -0.262703712244566, -0.175135757426137, -0.083774765520343, 0.381166172407321, 0.830404523359287, 0.164345054811849, -1.063188026213087, 0.196999144734094, -1.334239798381339, 0.873581880633160, -0.497346953832830, -0.485287062827660, -0.529946218733830, -1.455287940089228, -0.430008089929828, -0.251894900705516, -0.372636090985675, 0.509436446129125, -0.335703664639639, -0.576695065891093, 0.919089547671385, -0.336947216668056, 0.059889197262641, 0.482151799861098, 0.865982555108417, 0.785547721699985, 0.219237587501386, -0.802863917186675, -0.087438427771670, 0.140718602419217, 0.662088647641245, 0.000937070649589, -0.571109743962292, 0.328026314482624, 0.316626135369257, -0.499357199706423, -0.586457025750971, 0.577274777587754, -0.052886131101649, 0.864314458826400, 0.062922696859050, -0.110161844535874, -0.181057927492981, -0.524848792639586, -1.874174018278849, -0.629239639865905, 0.074089730153863, 0.057945181317667, -1.285103686102829, 0.317165220537429, 1.088857879189083, 0.651129214450573, -0.270527792485720, 0.538420891836380, 0.867131809926563, -0.241518122605342, 1.123356870554724, 0.358117269371247, -0.153931937604236, 0.413749633940323, 0.955211291155369, 1.592712124629476, -1.087607176055216, 0.363076504743906, 0.543573777199588, 0.574150036722761, -1.223098209109633, -0.486516492604447, 0.232415620509083, 0.291937224420204, -0.006110764567124, 0.628230625907321, 0.314257267544221, -0.057964991671445, -0.454663224869815, 0.781256763730490, -0.909549823844043, -0.051596311934349, -0.459101554462267, -0.697121205588143, 0.006724860608334, -0.301934342234477, -0.347084857423349, -0.107215506269332, 0.798211017051618, 0.731814725299536, 0.865228697184042, -0.411714352140720, 0.537592541855640, 0.352974272243077, 1.097475687606311, -0.746990802547494, 1.096079968480349, 0.649684758848327, 0.069844145212386, -0.473992177679539, 1.293735268132348, -0.019670908933537, -0.932498872566168, 0.491048905880355, -0.809999331985746, 0.434439634462968, -0.205979198188630, -1.387829556500034, 0.678820960715091, 0.427620560712628, 0.154628361446130, -0.525143249203887, 1.092132394418191, 0.008535645206346, 1.022396938706145, 0.746602362235345, -0.959615112489881, -0.004581796609745, -0.697038337040056, -0.357773952633117, -0.394325850307322, -0.037716634279048, -0.959324715448260, 0.219413873019590, -0.544336943110043, 0.345662944015902, -0.577909345455095, -0.195457787785084, -0.130134866252158, 1.030731902023855, 0.392700305523603, 0.809292529207663, 0.421541753496839, -0.240501575937848, -0.636604084710549, -1.041013358514774, 0.235704932211615, -0.196264159574220, 0.549089420727936, -0.512912596272824, 0.746193829400335, 0.280424337272963, 0.813835341702274, 0.047130438242019, -0.129673772541962, -1.451463930925090, -0.621343282890064, 0.834046304773517, 0.803431508322696, 0.718060220556485, 0.465476351256622, 0.837403266421016, 0.350159022616919, -0.327950733945872, 0.464755459042017, -0.773108803352646, 0.221645080081356, -0.829166932197101, 0.650513568617706, -0.188891160712349, 0.157184736372004, -1.143372625103979, -0.039442645814595, 1.232211257727660, -0.116262972092135, 0.290553464055459, 0.497575406730460, 0.903766556636116, 0.030119191448941, 0.705484808367185, 0.473820346564118, -1.112230337805567, -0.487506343955229, 0.079356105562982, -0.302297247628989, 0.711719028229499, -1.007440961306947, 0.271011745276594, 1.145244830225116, -0.972648191973477, -1.474861197356181, 0.089037076518585, -1.122625161046822, -1.024772696770901, 0.821851959018936, 0.483810171525915, 0.592999094879609, -0.597095405252124, 0.148950491219714, 0.751149155830383, -0.000517044992863, -0.238701928724798, -0.801055274743944, -0.936590195794908, 0.219988188374385, -1.198500153358487, -1.183158255945174, 0.672100539274278, -0.706554654649570, 0.269357688381989, 1.012725941546772, -0.245276777094574, 0.311525405439968, 0.155453722879518, -1.225853654734883, -0.579005381763252, -0.609123118970911, 0.401577318521630, 0.354819127635861, -1.254401394833202, -0.407032530086061, 0.759077825452482, -1.168707409036957, 0.414764895927545, -0.409006671704510, -0.980073036925705, -0.825025193962124, 0.808995653030735, -0.915305128446131, -1.128425835031911, -0.648878179606533, -1.084554213421208, -0.828610095303210, 0.110434539359757, 0.601263775287160, -0.772508292880345, 0.358823337607833, 0.422518612594358, -1.089648936507237, 0.646748307643556, -0.973225049862486, -0.892562324807779, -0.528413159466313, -0.065967214754336, -1.197937840815355, 0.387052397143825, 0.964997983437045, -0.183762923803891, -1.234936377972321, 0.118779892295184, 0.536087300191053, -0.619497820810013, 0.990286007884757, 0.806947091561229, 0.163869251925281, -1.214396351899484, -0.744963262289986, -0.169795195367360, 0.254647100281709, 0.380887239645485, -0.135738813488618, 0.750839225940362, -1.448964304648244, -0.908990348235530, -0.575687232900560, -0.376325538153424, 0.772658123209764, -0.084138394789818, -0.511025089629305, 0.289440683787545, -1.127021903791655, 0.975258482488682, 0.034672595563591, -1.054045320957329, 0.165658624664322, -0.891336195285712, 0.810047301287956, 0.419228518888439, 0.584712362609509, -0.833921891694552, -0.593411821774157, 0.268994570192804, -0.392658257153028, 0.069560606967347, 0.841255913879605, 0.220622870771716, -0.230011110710579, 1.073107957689554, 0.373992335362013, 0.743773893067030, 0.808387641611267, -0.602759704521082, 0.216718954023452, -0.543293654262389, 0.191565467349373, -1.888744756904208, -1.169426276994895, -0.005704452569227, -0.760001482224241, 0.305070780014490, 0.946930301253967, -0.417511478023666, 0.566272289224193, 0.248986495866180, -0.865894247780703, -0.885846023174052, -0.344620685258644, -0.382158451914121, 0.939415082434505, 0.676430798131754, -0.821013072828694, -0.046021516570056, -0.190486487167216, 0.304484566388397, -0.093883908373095, -0.664846685600514, 0.647187466447909, -0.246509791522977, -0.034980614455502, -0.752163129620754, -0.595332460097930, 0.121197054114018, -0.645708005858216, 0.478582665834892, -0.021618150811546, -0.278212391668540, 0.297218434215144, 0.194578896397986, 0.905028487703042, -0.757564237497062, 0.423774924418126, 0.578990204178502, 0.110903426938947, -0.066684763070317, -0.172684970587491, -0.793182187643326, -0.003598725788491, -0.314922526702266, -0.241432863807442, 0.377386211924497, 0.869508785307012, -0.597091312946502, 0.109009265439006, 0.526260033902121, -0.739909465194068, -1.086136906381490, -0.264641255212095, 0.192853643093419, -0.380652730122644, -0.321499621817186, -0.223431320856001, 1.546147308640735, -0.205398492534723, 0.570973912649116, -0.114802904877021, 0.565137252136943, 1.073098108929606, -0.923218294503428, 0.669331781401049, 0.182656503095895, -0.521208532911681, -0.123909088261999, -0.299682497423112, -0.142555620205559, 0.549127906196790, 0.245982898074832, 0.438575680257949, 0.039449042979042, -0.742633181783302, -0.767397920941921, 0.160867179031856, -0.387370715866146, -0.002234143187779, 0.413613837089551, 0.642225169524648, 0.693806229179706, -0.190402833008851, 0.273315598522230, 1.378571625363129, -0.788287564639198, -0.219360997295311, 0.592124469167615, -0.603022046349450, 1.001231435868515, -0.511676944549492, -0.318840266211264, -0.246025983701953, 0.890879233654866, -0.678320982004504, -0.542117611159110, 0.884555113764379, 1.096913050757469, 0.661716567225071, -0.989130662706071, 0.562396524347942, -0.707135456775400, -0.566188640728735, 0.303622822923294, 0.172259657780717, 0.140057987069460, -0.647047127675381, -1.108696741078082, -0.447611668285643, -0.356636427206056, 0.413631461628028, -0.266158714340782, -0.798344592327786, 0.596334601732982, -0.126457328403738, 0.202803137969151, -0.293933738676719, 0.524094398594834, -0.098215218078827, 0.909746881448767, 0.006580173536280, 0.895146742677156, -0.982829949855996, -0.235005228794308, 0.504527141637128, 0.320209169808555, -0.897929879107669, -0.544502477044126, 0.611261684246840, 0.075283829138482, 0.604437234542327, -0.721592278456091, -1.138133362839366, -0.731097648703660, -1.077917755203859, -0.046942837462772, 0.937754106522822, 1.056313152973084, 0.479643719027583, -0.629069688442293, -0.004453491068348, -0.173986072712933, 0.216378271727681, 0.595720676756616, 0.525626267001129, -0.036154342193462, 0.553163684796185, 0.422410103852896, -0.332530788487417, 0.418030371130931, 0.426462328555891, -0.492680662614976, 0.169912335150069, -0.153739235373671, -0.647979954701763, -0.449894558447036, 0.397810845208649, 0.721832311861930, -0.745884154261947, 0.896627943619476, 0.287862909027457, -1.445564801051873, 0.062288251093011, 0.033494739971288, -0.024059386037563, -0.213292056679284, -0.112964582530079, 0.506924719798034, -0.640266043041612, -0.109144909794413, -0.473065629082348, -0.808463951263782, -0.848584025162550, 0.573682833027389, 0.730958312296532, 0.142872195787043, 1.062067160349218, 0.632973795374687, 0.264756011399186, 0.556273110758749, 0.390281112411523, 0.535871118473832, 0.412860896768642, -0.603794617932537, 0.617338839565326, -1.281296691424420, 0.623883698403425, 0.406392393698421, 1.176299376372372, -1.006472230989973, -1.184630673308036, -0.350127500769662, -0.038291785506391, 0.277634705024426, 1.624646717257249, -0.728913952860740, 0.287651478428665, -0.324977528179995, 0.190016147733632, -0.792309568438273, -0.613834478809028, -0.613504618692301, -0.653305701071814, -0.587503090878169, -0.315848962577815, -0.903407323220928, -0.852478529713111, 0.551425035960130, 0.964743405555539, 0.841267293756765, -0.416263844965307, 0.071036875099709, 1.251244904765865, -0.461724526429206, 0.098875491120795, -0.648991459723355, -0.929928497699457, -0.636156786561588, -0.592655472622457, 0.275805714959599, -0.681871043977261, -0.608186304593677, -1.109164029237511, -0.450627306945284, 0.798665060341544, 0.706493119660637, -0.439725128039246, 0.959549258411035, 0.596709765727137, -0.592707506621928, -0.949039350279345, -0.403184674315489, -0.952567342036294, 0.022933947165266, 0.735739544853537, 0.563059708321120, -0.068290037156913, -1.183619019366111, 0.663060498364228, 0.325589625296580, -0.799922202373562, 0.694950763572920, -0.294546797550251, -0.090838787608028, 0.388106512276734, 0.059325279643743, 0.176832943979621, -0.357326524856336, -0.875039451479937, -0.897395381386410, 0.887967333211801, -0.466844114176281, -0.659834103767752, -0.929245839156160, 0.520547835219818, -0.854579770455858, -0.067527633644511, -0.760130924444712, 0.643390756665421, 0.870698253200735, 0.205147087926701, 0.263279204922694, 0.068723076547701, -1.128079899218093, 0.255844631923282, -0.988113522754360, -0.657518990681103, 0.954149932331279, 0.652160810971534, -0.207528872594573, 1.989131676124502, 1.362178668674131, -1.078459268933028, -1.519036669608725, -1.845994086020140, 1.523156797052406, 1.981475063536119};
	double * mw = mainWeights;
	double spaceWeights[] = {-0.777998335862663, 0.317738228363511, -0.516576783691271, 0.311916895947430, -0.360058225166296, -0.698266999817762, 1.350612946300048, 0.163825057841332, -2.202550701604243, -0.477345199040302, 0.957979795839350, 0.231510642121813, -0.260455339641595, -0.085642110532886, -0.345039517246218, -1.014873946151576, -0.914173072282392, 0.056787733398065, -0.752580744539482, -0.412363371002189, -1.016216737889853, 0.299638387295275, -0.482016400134556, -0.281927562271367, -0.944002872612930, -0.231286123663284, -1.017365643559866, -0.315675156542002, 1.015747432037064, -0.801970314938164, -0.170577260546778, -1.339080520518277, -1.107096876362476, 0.428093158628717, 0.071567762829243, 0.568461025982443, -0.162970173339064, -0.266060916837692, -1.585397659538903, 0.390912780194707, 1.191505136993179, -0.546384815638573, 0.122212066920121, 0.496339765311784, 0.277244932470100, -0.333951279767469, 0.870023844199475, -1.155333738161850, -1.130038749436034, -0.872669847796571, 0.382036257461469, 0.346204237394061, -1.171453341758183, 0.532771929268478, 0.324622727785969, 0.775045553668305, -0.437677905515171, -0.111016517713659, 0.312444072898189, -0.063731283378780, 0.005216374084355, 0.366553647019762, 0.598171239944176, 0.619116366785338, 0.279738596890371, 0.735750952564156, 0.959788166657808, -0.354163508238764, 1.176922280509607, 1.055017454818508, 1.113086798135562, 0.075015527070650, -0.635085910693759, 0.353881619202249, -0.017629157752907, -0.969595885596479, 0.379426092171229, -0.029229849669654, 0.087026250535306, -0.071401371465439, 0.029132403184437, 0.406282958962428, 0.179119429161370, -0.551577685253874, 1.482681197554097, 0.729843727884094, 1.599178610179403, -0.590296603433076, 0.322220357878657, -0.874391180796119, 0.080700694505500, 0.482188536381387, 0.400479408020639, 0.047968619519351, -1.029252221062526, -0.908004952875030, -0.430931665201167, 0.426119990127720, -0.729497300073585, 0.551693696805468, 0.997936999030410, 0.551524601894569, 2.226125966550497, 0.781284622486617, 0.820988423011686, 0.392405390936620, -0.264416438486528, -1.086184864134380, -0.483712924540437, 0.420057662191143, 0.153688236055520, -0.192350455732199, -0.453605602417657, 0.365440385021493, -0.432856240717462, 0.455468617582932, -0.099090789270430, -0.363167159332775, -0.117297699766923, -0.193704679904140, 0.149267888600956, 0.647179182608523, -0.136475769672473, 0.464130188384195, 0.346575978198107, 0.270823220258760, 0.492884508211330, 0.702358324906411, -0.647534147125858, -0.658006337279115, -0.251000052931568, -0.596681582307185, -0.577726931266079, -1.319946847919368, 0.424923547408288, 0.265709337285304, 0.038498690514205, 0.089740015858526, 0.745395276079035, -0.684232883755594, -0.488987184051623, -0.229347003008279, -0.955803367438478, 0.142629544488091, 0.620685219185095, 0.322939322204188, -0.883859470247821, 0.604205224173844, 0.571414281501966, 0.473092851881481, 0.471737997227153, -0.854956567186399, -0.528420927470261, -0.549926066430965, -0.245141978349771, -0.874833822088682, -0.316244532915098, -0.706553123117251, 0.215241774243147, -0.464690506798682, -0.083225548676552, 0.335092226914906, 0.765608167233752, 0.267883509590952, 0.364573658603841, 0.833212494008863, 0.758170060965261, -0.555284987813950, -0.525815034873438, 1.179779840825524, -0.716043950475727, -0.045210000680951, 0.915315544812886, -0.509553004574504, 1.110313018041577, 0.114607836723195, 0.669002538632344, 0.436657961628266, 0.975279101891422, -0.056250703910512, -0.349308424946357, 0.865126850368257, 0.478891274725037, 0.109141725226303, -1.040046785830334, 0.296507208494813, 1.382257066845029, 0.155211022184695, -0.303537227452533, -0.218865989854978, 1.061010129453133, -0.121476307272075, 0.067036345830513, 0.897808107503313, 0.287294095980170, -1.265337280442321, -0.548498403360822, 0.771020907346956, -0.351334456273361, 0.580501350621858, 0.911882287239340, 0.071297721797258, -0.334158244829036, 1.025663179328778, -0.254080732782318, 0.943631339300800, 0.083048456867354, -0.175700734010464, 0.278921455540852, -0.095602866693379, 0.754183810781863, -0.490219035978365, -0.584657727814779, 0.029312979452042, -1.419642115193727, 0.964242922017822, -0.686058621616883, 0.982295251378875, -1.221123242927851, 0.844614787809597, -0.441350358630533, -0.709404363561886, 0.250596229741930, 0.397203942238996, -0.183307352509608, -0.801741645773644, -0.825863243511862, -0.347622771763156, 0.447800788983614, -0.038614211802008, 0.144507743751414, -0.781652002481067, -0.536879912258606, -0.739992446110516, -0.950798251998270, 0.636689853253456, 0.372139414703814, -1.102182654993499, -0.604931111937447, -0.324076068944304, 0.809028125683031, -0.111522231185573, -0.414185686252333, 0.596352195944655, 0.706484545254888, -0.335736060235750, -1.087898192237808, -0.943474299131065, -0.220157305698019, 0.439549585056557, 1.045196809948888, 0.895234182795747, 0.048724376995494, -0.839706031736923, -0.860764809746032, 0.817211516577643, 0.236549383982967, -0.724319522625362, 0.613428821745497, -0.296450019772058, 0.325617759530104, -1.128991492786477, -0.742597910467985, -0.751174885235304, 0.306953010834176, -0.778426288176815, -0.541694434041799, 0.438920902347402, -0.623346587376471, -1.115274718110610, 0.436949448604207, 0.538590053362523, -0.410292593221658, -1.092610808581795, -0.805368768540218, 0.255925596844265, -0.493625963411289, -0.201397447955307, 0.094364096793476, 0.412517791717639, 0.686952400810050, -0.945953433004590, 0.212755665040469, 0.918654237304353, -0.307202387381766, -0.292769744595568, -0.202575535625503, 0.688129175367605, 0.075047918239507, -0.529837468191906, 0.994421894043836, -1.075611656221016, -0.920624744982629, -0.041523877256168, -0.917343999285552, 0.643556431360777, 0.516750738733453, 0.803465521070005, -0.937579833467868, 0.684120035860664, -0.868227421422052, 0.378645038821635, -0.372462632884506, 0.314456101427637, -0.264742090282271, 0.565624243871904, -0.502824196262783, -0.635935775802381, -0.742915286058645, -1.115797781999691, 0.462616558299986, -0.096966902585644, 0.788195351584774, 0.139480993440478, 1.084846501229485, 0.247334123918649, -0.245690273885180, 0.323488969369714, 0.849616511439747, 0.039238419815875, 0.295656244983156, -0.951365342920228, -1.114901595994128, -0.061247427173393, 0.518576468748540, 0.316560443425907, -0.028991996370838, 0.928411289907936, 0.666855879458212, -0.362204999303393, 0.666812766813902, -0.234799459864279, 0.773980731043428, 0.557116346399060, 0.388362722885380, -0.105667692808331, 0.796956496941628, 0.608022873334324, 0.843280673332737, 0.610843836026349, -1.084824844719029, -0.648206106088490, -0.192029471028156, -0.289434905142766, -0.703739071862019, 0.474507243278093, -0.440530515481162, 0.425359600228714, -0.702630002083861, -0.032420187834803, -0.720523046514767, 0.195549728368515, -0.926808050214287, -0.760822278466402, 0.479377966324551, 0.161830028080125, -0.015700161443775, 0.246171939552267, -0.749598433136878, 0.761526582573963, 0.402241388722637, -1.134838849014544, -0.525078998836177, -0.891029652959776, -0.820685226959445, -0.402785099240649, -0.212903127798786, 1.023672606027775, -0.101243222544931, 0.757422725683669, 0.184666326856325, -0.493122264012337, 0.848163191236054, -0.366388246119290, -0.567868757539636, -0.965238218086083, 0.429634695400540, -0.796623768616603, -0.864479033136842, 0.238590296528035, 0.940904860820605, 0.404598849663088, -0.962123253339579, -0.820797034048569, -0.747827715894413, -0.658036530636966, -0.103522848944589, -1.135709626982946, 0.311825604256127, -0.707936240070438, 0.499592948062643, 0.749368018392696, 0.037593272391307, 0.210541586825246, -0.292039529164028, -0.412845191633356, 0.682034883591657, 0.379814950900038, 0.259215070902133, 0.621003226318834, -0.925741002594481, -0.413704066340186, -0.672157603491093, -0.687514489336675, -0.363897025537786, -0.331119815066427, -0.603205965441912, -0.635528637903145, -0.520071596420642, 1.115769568188188, 0.366775384620787, 0.427441036077369, -0.276417432757917, -0.053837461355532, -0.775380853336680, 0.232689358296395, -0.815642006930707, -0.492281837124730, 0.349979395194227, -0.945032902076732, 0.748693265996441, 0.489090672645792, 0.294922682777456, -0.913459070090646, 0.227197242462095, 1.027347914306682, -0.835111254091754, -0.462632960325425, 0.530938527106572, -0.877839351013217, 1.061462579565626, -0.102205865843349, -0.297200102963776, -0.474791424352383, -0.987558324280827, 0.221106394621655, 0.348853368432642, 0.736949694836380, -0.796490076701848, 0.639738091590200, 0.188025029874370, 0.449690891086318, -0.224751542220371, -0.913216434304160, 0.617956388658034, 0.605227710427554, -0.743424560322007, 0.004590766306642, 0.241680895105044, -0.374974851389052, -0.171723684907853, 0.876739918292404, -0.264270571415702, 0.775175727868136, 0.410733986525654, 0.082834025091875, 0.181344440263171, 0.089756774576996, -0.229383605437549, -0.825028298058056, 1.035046399222711, 0.046123367582351, -0.780247643649896, -1.045035598967287, 0.562563228104197, -0.648700923704643, 0.635960128028923, 0.511467508676331, -0.624535029914417, 0.440490341955923, -0.475517948357805, -0.947247267426758, -0.548587055830549, 0.864238074246633, -0.024636621352532, 0.204192730204478, -0.015965502906966, 0.923192015488725, 0.873756432235296, -0.594820945661772, -0.210596077194758, 0.043448878948540, -0.713187206923583, 0.107896728254366, -0.947694929272047, -0.706911389961107, 0.477972604780013, -0.054091569853407, 0.733798087792599, 0.153971688120598, 0.078696352409771, -0.009991164207557, -0.765882923401640, -0.096913647109071, -0.680728517955606, 0.553172138194522, -0.976751121286899, 0.755405180695788, 0.282181667511649, 0.071453943372821, -0.841786178249421, 0.084732554738348, -0.694698458110202, -0.149040684447270, -0.505437837332207, -0.482611240447834, -0.483557686622041, -0.530631281257312, 0.273269740679118, 0.201279825310603, -0.295172395714424, 0.611875878167844, 0.599214545593535, 0.001784288219803, 1.003803620677059, 0.714366076806663, 0.880386768356088, -0.697151130313017, -0.583755982636018, 0.395279915258742, -0.100849373911869, 0.897924665825500, 0.856433004579196, 0.138157471525436, 1.835670607685497, -1.214566456613045, -0.367057856597698, 0.499979713553988, 0.386603653252946, -0.373243397939065, -0.490970817895300, -0.660696601979625, 0.360248157940142, -0.750108205738373, -1.253556380413654, -1.152819450742325, 0.678413810240275, 0.834174774658355, 0.377701547292907, 0.011503065732066, 1.048927461490778, -0.643708220390805, 0.753421858985584, -0.257416669933554, 0.862685246975990, -0.466519280172350, 0.453293736696651, -0.102736495903746, -0.490176591332163, -0.440180881257881, -1.053555086014411, -0.216432285939531, -0.659673111874988, 0.153965849808504, 1.005195976073900, 0.528711694479316, -1.705799574571302, -0.274841441310395, 0.049931887995366, 0.896380375579862, 0.663269219963424, -0.312932206879935, -0.252502545604076, -0.528357958101941, -0.201819342327968, -1.043064075832437, 0.368868581749321, 0.686689271621336, -0.237202838091921, 0.318279635303265, -0.989077385129719, 1.081045508784705, 0.802108063779121, -0.180131247126582, 1.007280705246963, -1.084376585639616, -0.045431379098539, -0.324481688678401, 0.652233231868381, 0.374718015776578, -0.875685824767404, 0.230852599996035, 0.882279202861378, 0.522111437263679, 1.350852207392034, 0.395758862809744, 0.537169787604159, 0.429635364942727, -0.003207698414514, 0.799196586843203, -0.677534799610269, -0.919092190823870, -0.512408469562354, -0.325616801524536, 0.330119162516719, -0.648564085183724, 0.943627175749401, 0.034709458029344, 0.334919861628471, 0.132705344421653, 0.797006120047245, 1.137969149582701, 0.822344204453971, 0.378953944405934, -0.351633438115951, -0.137639024406174, -0.185294062749226, 0.009383076155202, -0.934298406120546, 0.906847749851777, -0.050719061388417, 0.369531933416851, -0.295754158477753, -0.461620964948824, -0.380506640004128, 0.145756322440929, -0.063282725964388, 0.575906271617742, -0.056577343707993, -0.475528818341596, -0.018760007448593, -1.584651977608880, -0.962984867827630, 0.267339962589714, -1.349683828106925, -0.172798653038640, -0.401968625520458, 0.597929943246127, -0.202957032856917, -0.924133329526519, -0.201110204405508, -0.896836696252894, -0.023892710288867, -0.765115236752196, 0.120712260617688, -0.782304431693322, -1.385684830261559, -1.373826917743041, -1.280190053222727, -1.012504432945918, -0.751708162707065, -0.272026171270838, -0.421466007478535, 0.792517289424221, -0.796887902993889, 0.692151143685250, 0.640382496680235, 0.010261601408635, -0.514961758239267, 1.185568949062335, 0.418425371378266, 0.356521606644155, -0.277048452196584, 0.165356301239914, -0.806195203559119, 0.076776389961004, 0.872111831925782, 0.645450429013623, -0.199492995567275, -0.461990755739247, 0.095644441213436, -0.830650357178171, 0.824372601081321, -0.145358355411129, 0.684374371531172, 0.508939953673434, 0.616948590493653, -0.538800106972815, -0.660303797794504, 1.015649867783526, 0.760823476666576, -0.602898392871971, 1.332942954277361, -0.105604388888488, 0.563288698279279, -0.742328051948029, 1.573294619358650, -0.119036577085374, 0.246657948195473, -0.100055314869950, 0.514837940584258, -0.243855183231735, -0.384358786899134, 0.028711908560805, 0.667342865319921, 0.979055384291758, 0.322903459711785, -0.487222330172386, 0.257139525912336, 0.117351359303054, 0.688533710663385, -0.335242712796306, 0.661102120500991, 0.948381768013433, 0.489091880472261, -0.196415199907361, 1.806069881140967, 0.460454104706834, 0.723208915441122, -0.309631698424986, -0.322232275128985, -0.490251676039282, -0.385618795621445, 0.199904410611273, -0.685700781242167, 0.254564488743341, -0.417682449668275, 1.442150809304740, -0.097819356408800, -0.323121870806031, -0.770612901071785, -0.707605448281623, 0.530558612294019, 0.594352111276780, -0.815193762557364, 0.922685917024248, 0.264762305881874, 0.856705662097952, -0.420354133788387, -1.235365767739734, -0.422381066040583, 0.358517765996129, -0.206917875559140, -0.933005905515945, 0.431101710686102, -0.716936511352722, 1.229657623574211, 0.458813489396742, 0.199780003735514, -0.370049653041664, -0.487564287874835, -0.882696384895313, -0.539255517624565, -0.308486624919299, 0.275186046326633, 0.785877029362898, 0.767755591816161, 0.495437163068499, -0.414348703367988, -0.444180585188396, -1.266426273710591, 0.039425059836843, 0.678189280848728, -0.233176816687443, 0.216820023210029, 0.177689844124162, -0.052516985212346, -0.296524205823376, 0.157145006207788, 1.652070577830675, -0.524721580802192, 0.075908935898339, 0.507953536970090, 0.178163987547574, -0.248071982286030, -0.688314104382344, 0.071330459194292, 0.813602973371756, -0.581358592443101, -1.249225642263940, 0.256433630974560, -0.157414665627086, 1.210278937421310, -0.567042207206175, -1.038844582951654, 0.119467205913457, -0.670116249128766, 0.459760145113277, -0.648563411205247, 0.872344319558498, 0.886567367828534, 0.199222976488829, -0.859586191271483, 0.533705840345693, -0.893450462255918, 0.193599738615230, -0.614518136372291, 0.237911565909568, 0.066035151210477, 0.954464814419804, -0.064713683285179, 0.611946467575336, -0.649785952986043, 0.054750901818869, 0.222158775466387, 1.022494946623861, -0.487881412930936, -0.035062425349238, 0.479302328772734, 0.544755337532239, 0.554508071328498, -0.308700060690427, -0.906950216472426, 0.465385154713108, -0.698128149242119, -0.485973639493683, -0.307228562324776, -0.123150985154964, -0.776801743479190, -0.117773493703490, -0.536074488488829, -0.604240702440321, -0.456068143874892, -0.305828989899138, -0.343457159013349, 0.972702825815523, -0.711202780257252, -0.674227362746246, 0.355971919790678, 0.585901606763761, -0.545027783027718, 0.604122372251980, 0.340083132252584, -0.860041489067073, -1.113826327311838, -0.549409222109836, -1.790045057631829, -0.558626150504023, -0.169598221849667, -0.598910015288980, 0.877064909310165, 0.763808307555595, -0.613483949170223, -0.420234737991078, 0.052404658483742, 1.135296151614922, -1.994780946802081, 0.634389718328297, -0.842849879337801, -0.162128096448203, -0.727144552890583, 0.858919822963312, -0.554210022943109, -0.049443984705655, -0.530956731653500, -0.304914466387506, -0.895114033102723, -0.583890267758725, 0.211479000418632, 0.724554603858722, 0.274855273902778, -0.385193842745156, -0.356519719698760, 0.100390872855721, -0.401914186284759, 0.945035702089375, 0.275477866699173, 0.307364119718875, 0.480737842364634, -0.115938003256047, -1.035674833601397, 0.158561574879856, -0.086261600195707, 0.191988024140744, 0.448246181186080, -0.100491048254303, -0.328351226868996, 0.542637738284542, 0.060522262900847, -0.488780923684021, 0.835535576059558, -1.008519513876972, -0.109348940739898, 0.885735815294713, 0.365070823883034, -0.686604646548553, 1.248894971751107, -1.173859288119366, 0.079288939723394, 0.813388337953443, 0.461486770660825, -0.091353749183795, 0.266469548485578, -0.138209238613331, -1.100821664941225, 0.916762699670961, 1.250296246924174, 0.862101607262621, 0.171983593075166, 0.239002210098487, -0.557745252109940, -0.190971464109525, -0.466377513855686, 0.429240422051085, -0.403891145302990, -0.394636294972258, -0.002243607504447, 0.664679679132901, -1.034978589512477, -1.409370324032413, -0.665191878640872, -1.046807686342446, -0.071676001039296, -0.681955430742534, 0.729234687196665, 0.994103409965589, 0.736582898947885, 0.264199756922222, -0.347963209700674, 0.897574356174544, 0.190828955200608, -0.369472153044116, -0.736923778300045, 0.582598860010678, -0.260594216753303, -0.946039216606006, -0.042641405805237, -0.320834979590841, -0.643950492460411, -1.008727294577650, 0.774142290604323, -0.720788131230910, 0.573152298178831, 0.880637789593353, -0.219370320650326, 0.561065968115734, 0.981180240990862, 0.876445454121098, 0.308943969538273, 0.893997135343392, -0.516027578854732, 1.085264796174600, 0.253811522913238, -0.687285792912584, 0.680284664375752, -0.891969620449988, -0.836255903356920, -0.588630443279044, -1.203285896309255, -0.262100480905205, -0.338849625709582, -0.007779565833185, -0.886581661907571, 0.289941246375656, 0.112014523906334, -0.777450269037093, -0.193842615291525, 0.455396068511999, -0.211022977080685, 0.062258622416516, -0.095919534667793, -0.385028082280037, -0.230345704084839, -0.712757981659805, 0.434297490343871, 0.037130372697537, 0.671995818194065, -0.581655971774685, -1.153661318661178, 0.798401957446678, 0.512148535244944, 0.675312008629826, 1.158288038794176, -0.493826876194103, 0.821604576570255, -0.211586572227824, 0.324213106920089, -1.067033381255178, -0.079895829998192, -0.546969902534105, -1.132760834551058, 0.722809412115947, -0.613269700470347, -0.728647978490397, 0.828498454327158, 0.282772056211097, -0.698898073600448, -0.176010521752858, -0.441228390165150, -0.299531296909239, -0.369379315155512, 0.068605900019699, 0.262553661111732, -0.237566183333908, 0.800007054419516, -1.099066551642477, 0.699457130139733, -0.478269190300596, -0.670391012430736, 0.971312107756844, 0.800983188731363, -0.494935448949319, -0.243311032592413, -0.852961573836381, 0.579157144466764, -0.241965171782174, 0.370969613968720, 0.285273721316905, 1.198942256232952, 0.433666094358692, 0.293814909839122, 0.979905455046642, 0.214004993661888, 0.350832486537115, 0.892483067100235, -0.042295311057256, -0.007880237803065, -1.082043725298415, 0.278025707765426, -0.409119004736121, 1.135958942570385, 0.680827710929749, -1.255339533839366, 0.637250173605541, -0.564840569948172, -1.022894503449888, -1.119552984046098, 0.577149034205159, -0.492681787756596, -0.608787902680217, -0.259531499254732, 0.252632134887710, -0.635833090204030, 0.299835660071765, -0.112464570289639, 0.192976642984448, -0.419657620963355, -0.283114791477261, 0.628331842879019, -0.515770606032239, 1.173438200603517, -0.979169992073490, -0.289246123648231, -0.525293456931759, -0.514600880238808, 0.349184536726633, 0.598711143452802, -0.700784942826399, 0.969282248742781, 0.222494321864990, -0.005662054977583, 0.197416832106480, 0.583696128970333, -0.403242524183145, -0.515015399696753, 0.052507691947999, -1.331414852886077, -0.820323421501373, -0.224945420833572, -0.846935963558662, -1.236488173400397, -0.664945242663778, 0.629050716331618, 0.147237389827918, -0.490908450409960, 0.773602757303662, -0.024175439756913, 0.378481852788663, -0.691532569409082, 0.655448139436100, 0.332760034554465, -0.397140716550534, 1.171036127927550, 0.082797041847251, -2.219289673322684, -1.701722776261918, -0.534347367799918, 0.510440999247499, 0.750839314837253, 0.849507499988747, 0.075277971029733, 0.602938060992909, 0.298847806457982, -0.656626106796838, -0.312769401294250, 1.546335175657764, 1.172197690496166, -0.032042005679293, 0.662393937326199, -0.855369773518718, 0.721073546361209, 0.088097495845146, -0.278886329117574, -0.476157056657316, 0.199981704332653, -0.581131067107536, -0.310908658766617, 0.014379449143439, -0.756402945599774, 0.298213504576905, -0.093815677173333, -0.202270559322344, -0.107762279054409, -0.713048459313148, -0.070016071542362, 0.641963044196479, 0.581427882207107, -1.084071869035328, -0.554574563487336, 0.241631354009048, 0.614600916611925, -0.068556179140980, 0.465536541423989, -0.721614663453611, 0.181708957310450, -1.438253494006921, -0.687359420551212, -1.052509995313125, -0.434226239285167, -0.800768837265140, -0.533708860567992, -0.537138633632718, 0.419707391578777, -0.183943381862019, 1.311069499045072, -0.482776527362810, -0.723891059662877, 0.486940406637038, -1.083471179785319, 0.713382901367900, -0.529756900083829, 0.870301586510958, -0.421106819452921, -0.626623133289758, 0.196401608601862, -1.086078874156315, -1.147350720710503, -0.925598834942600, 0.065196971980930, 0.061239643238862, 0.594459740823970, -0.715355697759365, -0.011140442876460, -0.054874147016781, -0.556695848627562, -0.245736083851600, 0.677580823587558, 0.763453938817586, -0.834212854070920, -0.235143968146684, -0.344681656854907, 0.195171705415583, -1.400411685620401, 0.138884570207493, -0.088517046576044, 0.671699119614655, 0.938941564465842, -1.116976955699007, -0.171508502099453, -0.346685440515708, -1.021672208587123, -0.645298708312688, -0.602093274336195, 0.833880077209946, -1.402298457593360, -0.616517332192114, -1.010161588299587, -0.563052430788750, 0.445661383591031, -1.366421983714192, -0.633587584025784, 0.698335767570220, 0.569925089225459, 0.217620725580474, -0.746054236347871, -0.282833230272516, 0.516887783298290, -0.097254899995578, 0.685033994651425, 0.318712223092737, 0.895192176730682, -0.286403677653432, -0.550610640274159, -0.250163496496280, -0.310495682648845, 0.250285284211300, 0.825443460932218, 0.644482618422490, 0.150605059210493, 1.314851120464042, -0.090069627779462, -0.594864176749856, 0.801209922712860, -0.689666999380022, -0.053375745399497, 0.254602257667181, 0.840304428438741, -0.291398809857969, -0.487286409462784, -1.251270802658801, -0.492195743146672, 1.102536719169432, -0.065384990040512, 0.064075740504712, 1.019193376984853, 1.128500454417257, 0.638478632313762, 0.350621503750676, -1.046026210120810, 0.017342037768130, 0.331356257376304, -0.502579500741338, -0.176115828620379, 0.567070087320779, -0.597740901300796, 0.992950016179792, -0.514283214947184, -0.492202497912826, -0.073973526755871, 1.089079965152832, 0.288597071345994, -0.199747666827941, 1.384543813784816, 0.341963911470497, 0.799616574737043, 0.586119914368853, 0.063735660694742, 0.404377092678350, -0.072451018229182, 0.319042621043134, -1.026049034822510, 0.048915387484363, -0.077553960027110, 0.129899452895186, -0.742444951683802, 0.485721604115755, 0.375318195602859, -0.878532179169236, 0.025499581107075, -0.188472483805994, -0.367079625598457, 0.003593688511853, -0.310124451986040, 0.659234526371512, -0.512901983142817, 0.049068361372459, 0.060296608351656, -0.522712663660122, 1.177988559106442, -0.082316755471673, -0.220200477294103, -0.415591536867195, 0.443025688898643, 1.276071270350290, 0.663347776887671, 0.772424648299063, -0.132928635207109, 0.226168735744281, -0.478645581571854, -0.879062776736187, -0.831192203900384, 0.262277374874902, 0.168131305609580, -0.345575738596548, 0.779827316332897, 0.116185038718142, 0.060955817590153, -0.039595638805973, 0.792998917647338, 1.205180295906443, 0.493952410053520, 0.491046216590335, 0.498636447058872, 0.844483349388723, -0.419301914006309, 0.543336166872835, 0.447006369708493, 0.015091977014207, 0.673436914386791, 0.435854861495459, 1.141709261564474, -0.115586791080309, 1.714194137755193, -0.837666908269608, 0.473613822559834, 0.826307766674453, -0.530647312805696, 1.105674042348011, -0.277472365454012, -0.361269643558530, -0.671440244536211, 0.629316052041358, -0.016678093326620, 0.016978321431019, 0.860716690255794, 1.096035748709955, -0.763861229208774, 0.075912483483958, -0.623887134880700, -0.322660815686093, -1.438430771243264, 0.772763849665780, 0.340239696695125, -0.003449649427202, 0.612503833016684, -0.803666264682216, -0.086725440072210, 0.215102618645425, 0.821015829833442, -0.232687193527219, -0.589848125186173, -0.463338618881741, 0.607130053015780, -1.568299838717996, 0.514588468311079, 1.572096799917464, -0.458910559938178, -0.024176719367627, 0.032775661022484, 0.051157939755264, 0.609974541719318, 0.718329395981796, 0.779123422383993, 0.204527424574115, 0.522275237245050, -1.419022676854509, -0.533181739598578, -1.401653622600752, -0.948591524445776, -0.507168556940464, 0.196408583261120, -0.937595814772192, 0.932288510397411, -0.404676258422523, -1.248501573261518, 0.278410244049211, -0.190375417176420, 0.357988024239269, 0.689421292921471, -0.951228837696119, 0.267914546674296, -0.663626299833705, -0.521081035023323, -0.359453175410269, -0.787700912106345, 0.324737753943597, -0.305596161514881, 0.021317215556118, 0.809356899596962, 0.800476690034419, -0.147816823701275, 0.153313610988336, 0.377849128247290, 0.903751397885890, -0.644305524583728, -0.970313795621209, 0.045853299586035, -0.296373757995153, -0.129814145477985, 0.183329000701331, -0.441559446569331, -0.026840973372548, -0.784108245621778, -1.000706048381968, 0.482494367589084, 0.222350686751105, 0.144533730185800, 0.459491693714656, -0.414931733179783, 0.723661200933019, -0.513487435213394, 0.741462065498172, -0.742581874221199, 0.547268043496798, 0.774698150280219, -0.410230180585217, -1.001321698005078, -0.061542436911486, 0.779395549086744, -0.103051873044301, -0.210746081008687, -0.273826708359335, 0.096160357996949, -0.446047891856502, -1.236616941825497, 0.568680725778987, 0.248163099109099, 0.346053577149186, 1.345447569165282, 0.165551558347135, 0.383202134452578, -0.023336834316001, -0.121018982426991, 0.624088463122365, 1.553617394158822, 0.860448548397726, 0.071332211089771, 0.772665556067333, -0.237548280736306, 0.169328187226478, -0.713525434563659, 0.286005043660265, 0.005668870212475, 0.871942187420269, -0.610501491478879, -0.068562267301286, 0.369326630190929, 0.262811240114423, 0.264178529749962, 2.220921891060735, 0.987662352940774, 0.807815073098255, -0.213291632298473, -0.696784652010877, -0.587704107179391, 0.242403935423266, 0.138408211317650, -0.017147124781316, 0.397206043551443, -0.501581652993404, -0.036924035690104, 0.679856142864488, -0.303492008018728, 0.066809275625452, 0.812352923797750, 0.828786988851057, 0.522887131057459, 1.047337285097740, 0.233954166830046, -0.708042663782153, -0.702231535711102, 0.674939454322902, -0.636000393697772, 0.259203387171807, 0.626764120838825, 0.628784639378454, 0.273441793129436, 0.156999760831390, -0.565335488159068, 1.591520380591281, -0.084699895666252, 0.160862765146409, -0.753224729174459, -0.737807558428885, -1.024327087274828, -0.585901677080893, -0.885196420343930, -0.194267640190670, -0.274604617942107, -0.067096345670218, -0.348566765860755, -0.524478708342844, -0.032730589241399, -0.141021884061363, -0.066461101884255, -0.539126190553106, -0.083291216759139, 0.046502079344347, -0.947597356450651, -0.989965692966218, 0.877486480632397, 0.249137936285507, 0.073423347142271, -0.342948846545073, 0.462570764578252, -0.986816738557233, 0.515034687938967, -0.780165161995793, 0.291471313231231, -1.167024449926223, -0.691986214866575, -0.181548289043734, 0.139641454576811, 0.537373779336751, -0.119474203540711, 0.798972926762616, -0.023722849706953, -1.245081830668303, 0.593698144795862, 0.463287606818883, 0.720889790382424, 0.261776363138612, 0.760016670270111, -0.591246575877582, 0.906279357142593, -0.503895588792185, 0.644693463802028, -0.853950605390772, 0.611618890924387, 1.144220480079471, -0.080105567992681, 0.881300076823140, -0.075359586424462, -0.821549245283958, -0.396363683940837, -0.321088160755685, -0.319909172340736, 0.125727935896276, 0.047310349608416, 0.585753487778738, 0.713563898252947, -1.081471826807922, -0.255813914734493, -0.474083577358865, 0.352783218393653, 0.065085047044877, -0.881838070823150, 0.263583722687403, -0.340377838898635, -0.006298988840606, 0.459726374722018, 0.087845009514424, 0.099459349608772, 0.316022882731769, 0.773827624592623, 0.212850202871061, -1.026839608348780, -0.939099840361461, 0.761123069780851, 0.228888580495969, 0.881070333446305, -0.753397657834701, 0.585155638071586, 0.291273635409909, -0.401289374402382, 0.500688283252483, 0.203664246563722, 0.735657236007235, 0.371627582426088, 0.232951721920580, -1.176005504878592, -0.161638896020761, -0.114477384676293, -0.388414226194891, -0.368936780864301, 0.688617539504418, -0.620857189771390, 0.505977302437057, 0.387351774460396, -1.033347849282199, -1.318233775430868, -0.098851596659791, -0.545597905033991, -0.398033805720269, -0.830747960352361, -0.480853018940051, 0.360205801638898, 0.848048129870380, -0.081376310367336, -0.203399899266244, 0.092730779997254, 0.117556672178060, -0.589783013005762, 0.078835673987577, -0.966164292778280, 0.527155890173654, 0.101525332140235, -0.420108623725150, -1.639832942964197, -0.688140873494705, 0.002809907411424, 0.577548164413938, -0.315136334052436, 0.723225432358884, 0.706379215128133, -0.873232051196609, 0.085286411424342, -0.095322004848168, 0.301214407216306, -0.908930364019321, 0.585254744552464, 0.868218745490175, 0.276765854340951, 0.575469756149903, -1.299665255509371, 0.190528356480017, 0.160918399886719, -0.033914153326063, -0.301488861153705, 0.476212951122127, 0.216561555240485, -0.863269965450804, 0.679096127259424, -1.287166848763237, -0.231458991346478, -0.947607221148921, -0.115656418176475, 0.998119259057119, 0.689568042514425, 2.026151751671816, -0.246359387113857, 0.248765152142615, -0.582896659503506, 0.767029542511815, 0.536631035224716, 0.426280335157440, 0.143321517354531, 0.003992490475415, 1.380577489216622, 0.327110415032596, 0.673821775265853, 1.523996452711519, 0.512098837104723, 0.577423451654939, 0.679229198662917, -0.391438660998181, -0.015095594840757, -0.095882148977283, 0.473433952051719, 0.768696319147130, 1.155617913209797, -1.032352666354691, -1.211526755106735, 1.304561845900554, 0.584564076848794, -0.014693667492972, -0.135759924047440, 0.158561242468668, 1.354552131889522, -0.086614383532053, -0.487274604557017, -0.595569238417827, -0.717905989240274, -0.724465509786044, -0.393846298418605, 0.130470220837491, 0.693710792082656, -0.504823395251564, 0.120262590943350, 1.090977570256678, -1.284993541755399, -1.306026882345656, -1.000907109779972, 0.188981118143762, 0.330926733346153, -0.929059618257709, -0.957676091622719, -0.386088053672402, 0.624256972241714, 0.070772940096352, 0.263621251990729, -0.603520177311418, -0.204392818990906, 0.523791705859925, -0.563758752815958, -1.080044330346664, -0.522764466406054, -0.072078261591028, -0.666639976616657, -0.284840900272175, 0.583291534709341, 0.507239024592994, 1.001333841975518, -1.117522200904491, 0.652147391624076, 0.358053374694743, -1.362147595459895, 0.684978649279802, -1.254622864322433, 0.759952829064520, 0.094144713203194, -0.596850383637934, 0.329162950446370, -0.143285346208736, 1.465650723246555, -0.126171602553608, 0.532089165106896, 0.309771180041092, -0.521628075171648, -0.369146331816462, -0.179848183234701, -0.594526139544391, 0.503556606672408, 1.050425425329921, -0.618125372722514, 0.735019925303493, 0.570731336214495, 0.265528401955960, 1.451363102956125, 0.319078351299789, -0.538617591498396, 0.916210685628231, 0.135694200709808, -0.097012373506205, -0.273747551959007, 0.286662378587603, -0.002839824853048, -0.807337301022566, 0.721315911394445, 0.268759946461626, -1.097825243285633, 0.495840156770518, 0.391650929519506, 0.873589987569872, 0.719179688106229, 0.207603285018141, -0.806800203373818, 0.606644340932210, -0.201477232417601, 0.483753940480917, 0.738892915801161, 0.787490245012436, 0.625380329457804, 0.042606108848797, -0.314859932339462, -0.170609353048149, -0.868341738045867, -0.192825640578782, 0.748772475334888, -0.097051684992521, 1.074422673960068, -0.251419368961899, 0.163286665241578, 0.471001602129091, 0.735992767604845, 0.222921128464372, 0.568338843330352, 0.502834325101731, 0.419737780412735, 0.796617640784594, -0.583232097306234, 0.910334192643743, -0.744779827641793, 0.620419045738649, -0.201547063326271, 0.892417237401662, 2.232575568707247, 0.525322038597584, 0.908004507206733, -0.555317456505387, 0.219317613145668, 0.106740843595602, -0.660989443072218, -0.968359276509349, 0.094963430170172, 0.420978394182305, -0.750592393223766, 0.827308883681602, -0.595673499127775, -1.316768304977669, -0.240713370621031, 0.345512410807160, 0.330625029309751, 0.539329947349639, -0.406772162159112, -0.729141320567769, 0.537545738555042, 0.583682566417909, -0.162286433860506, 0.297210450456665, 1.106819395068571, 0.111151910401482, -1.069256339559874, -0.671256479816213, 0.142684019302211, -0.426009235750961, -0.685113188022946, 0.788838427415951, 0.164775634823125, -0.151824396372706, 0.205862397352634, 0.368056187174730, -1.555192843866466, 0.875870440804089, 0.654401608575233, -0.117215920878507, -0.281364751245847, -1.092260449037131, 0.329647115154241, 0.871052420460239, 0.600723847969055, -0.266553825207503, -0.821846405315117, -1.334878155422689, -1.478838851665449, 0.685820595359118, 0.212646197516412, 0.959247651370963, -0.029808411762914, -0.511492933357938, 2.035942273954815, 0.110997421175276, -0.569984621903137, 0.888267436040970, -0.757604313990206, 0.773681380857639, 0.354177735714019, 0.242246286429794, -0.425155743749495, -1.124546645527307, -1.004664692990805, 0.212360433971560, -0.278262847933197, -0.684201680379285, 0.772372626842921, -0.083961365319627, 0.654460675958434, -0.811758298207264, -0.847492744732488, 0.055714118642212, -0.848945474390448, -0.383487102298389, -1.101920854101517, -0.214586892744780, 0.777954528672864, -1.382595393737522, -0.010166530616010, 0.947787404005602, 0.364667694851484, 0.455790310003964, -0.660905160964708, -1.563142054214911, -0.677863283928973, 0.697919877533716, -0.378469186986878, 0.214411233764335, -0.363477073968159, -0.346167220446137, -0.248010156955781, -0.082634468932536, 0.843297108569859, 0.659148422391693, -0.718171775019067, -0.224722578775960, -0.591378525962495, -0.993063933743901, -0.118610643068842, 0.682623316862383, 0.031805843068675, -1.013616124458080, -0.608432358984674, -1.128039880105954, 0.216061299413985, 0.268283545270237, 0.388341505569917, -0.539036389711355, 0.179256069933557, -0.677764713132602, 0.513276728256419, 0.352390226753773, 0.817763831845029, -0.681570057185635, -0.315097526034997, -0.430527434467620, 0.241038012666276, -0.678181183067055, -0.157157844335192, -0.184748818845607, 0.669773812705962, -0.339148675780109, 0.083417442373716, -0.324749983087922, 0.004526394130763, -0.437937582286407, -0.308383118714264, 0.463424160340665, -0.365835107870864, -0.239566721393248, 0.063902207304554, 0.815616147687875, 0.572271774881290, -0.122021812553691, -0.452857249900599, -0.524661685961252, 0.064397790981712, -0.779438195784651, 1.032856316948304, 1.032789322843154, -0.880312491293470, 0.540350835638819, 0.374396918795203, -0.482127549983418, 0.736378325494011, -0.045965482793631, 0.729258502346787, -1.399517355355719, 0.024117501801535, -1.681736276626013, 0.007382465990490, -1.098588058002188, -0.820644783646435, -0.134371839758771, 0.336579830833859, 0.912411728404542, 0.179974197545595, 0.003682814887872, -0.961428613135724, 0.196233759777757, -0.757332530345874, 0.947944655828017, -1.038870108258651, -0.373536617089734, -1.891917661395181, -0.772244473051364, -0.220826062950881, 0.571349815376459, -1.767073188538544, -1.698780781090585, -0.703763764762465, -0.139733894783887, -0.064832084318959, -0.981871983173885, -0.240799488764013, -0.413307163483485, 0.133135931664927, -0.769907274470527, 0.580874011014579, -0.206510083783487, 0.225089178239542, -0.624016215515448, -0.375185015541707, -0.344304393235285, -0.748374487844849, -0.537831208529163, -0.307471073483458, -1.539430927197005, 0.347170187528030, 0.203967833798287, -0.339555862417987, 0.360153049036490, -0.025124073757520, -0.825122697076144, -0.762246593192309, 0.607645989211831, -0.100523632468014, 0.201567147302344, -0.551209124033627, 0.197993383258037, 0.049806469491891, -0.275733515981669, -0.647900817108032, -1.162886264509089, 0.660626021284709, -0.348008490203876, -0.007943711359377, -0.530958733335738, -0.359862970855158, -0.970509032512822, 0.937145452572428, -0.738039047200000, 0.319698495701403, 1.230350584082644, 0.503402448593572, 0.668579796430348, -0.415472023903962, -0.355644917265381, 0.308865918284166, -0.623453557482710, -0.371839117257917, -1.092978496524938, -0.602315228220752, -0.606217494583099, -0.085918082496575, -0.170660164818951, -0.336826105303403, 0.556356602666032, 1.939130424953598, 0.766560810039800, 0.688133344228731, -0.134527553066106, 0.263043294787947, -0.250749000102253, 0.076387502480769, -0.757929676267155, 0.006105917431161, 0.172006494489088, -0.822336962401225, -0.077457611161746, -0.837989902871059, -0.883000935152937, 0.589092600481131, 0.582154565071154, -0.571540114735785, 0.761539168406073, 0.713950337074128, -0.744665067871840, 1.149804086520979, 0.372573178443023, -0.468297075402791, 0.438958322480677, 0.302212633560416, -0.653748970051254, -0.413389853972983, -0.497391478334588, -0.069391657937064, -0.099999860248783, -0.399685514638693, 0.480724699092852, 0.181018634498017, 0.858326678717231, 0.924631378085997, 0.928806293896226, 0.179056388816272, -1.251533917906370, -0.286685611525970, -0.028117369887880, -0.306533519369034, 0.343059486535075, -1.192919438538959, -0.670153920407489, -0.913001581590119, 0.433726120386300, -0.456859262033046, -0.225017581609314, 0.979698057352566, 0.526786277419890, -0.103938055261078, 0.667179988860122, 0.102594186251276, -0.004912760454820, 0.084916662890008, 0.324790287264877, -0.156203767995731, 0.363900096597304, -0.373849928479448, -0.493822571584506, -1.184125230199296, -0.693761402579412, 1.182849706268468, 0.569230903997172, 0.528785675747825, 0.689473108916322, -0.026770401989644, -0.499172508580900, 0.289845592028632, 0.573057716595790, -0.244489584556386, -0.793230609138689, 0.735259381577790, 0.091299901625281, 0.773666270596564, -1.173038900306403, -0.623421810279267, 0.048626014774375, -0.130856084067523, 0.935954093154641, -0.622233029463989, -0.588763541358754, 0.280078328195209, -0.516734411998430, 0.563011141389414, -0.436736155451184, -0.883395906100147, 0.365786371490267, -0.536849258178454, -0.571776571492415, -0.533770801073920, 0.618033392005595, -0.668504682327701, 0.462333860885360, 0.733045194045498, -0.364012648311474, -1.033882062208742, 0.317328266762585, -0.590560254598007, 0.923769569247357, -0.357354649393933, -0.738568797729468, 0.777790989504355, -0.611903986908616, -0.611153889411437, 0.361234905771246, 0.699344266116997, -0.256053649047562, 0.384580284995932, 0.626032356269864, -0.861584646155864, -0.192555683124566, 0.333831773709909, 0.306434359424486, 0.618372795481069, 0.833092794138001, -0.505832956279116, 0.543638436599664, 0.201298575541292, 0.747563654632912};
	double * sw = spaceWeights;
	double mk[8];
	double *m = mk;
	double hiddenLayer1outputs[7];
	int c;

	inputs[0] = inputs[0] / 0.000000000000000; /* WARNING: During the training this variable remain always constant */
	inputs[1] = inputs[1] / 0.000000000000000; /* WARNING: During the training this variable remain always constant */
	inputs[2] = -1.0 + (inputs[2] - 0.000000000000000) / 0.500000000000000;
	inputs[3] = -1.0 + (inputs[3] - 0.000000000000000) / 0.500000000000000;
	inputs[4] = -1.0 + (inputs[4] - 0.000000000000000) / 0.500000000000000;
	inputs[5] = -1.0 + (inputs[5] - 0.000000000000000) / 0.500000000000000;
	inputs[6] = -1.0 + (inputs[6] - 0.000000000000000) / 0.500000000000000;
	inputs[7] = -1.0 + (inputs[7] - 0.000000000000000) / 0.500000000000000;
	inputs[8] = -1.0 + (inputs[8] - 0.000000000000000) / 0.500000000000000;
	inputs[9] = -1.0 + (inputs[9] - 0.000000000000000) / 0.500000000000000;
	inputs[10] = -1.0 + (inputs[10] - 0.000000000000000) / 0.500000000000000;
	inputs[11] = -1.0 + (inputs[11] - 0.000000000000000) / 0.500000000000000;
	inputs[12] = -1.0 + (inputs[12] - 0.000000000000000) / 0.500000000000000;
	inputs[13] = -1.0 + (inputs[13] - 0.000000000000000) / 0.500000000000000;
	inputs[14] = -1.0 + (inputs[14] - 0.000000000000000) / 0.500000000000000;
	inputs[15] = -1.0 + (inputs[15] - 0.000000000000000) / 0.500000000000000;
	inputs[16] = -1.0 + (inputs[16] - 0.000000000000000) / 0.500000000000000;
	inputs[17] = -1.0 + (inputs[17] - 0.000000000000000) / 0.500000000000000;
	inputs[18] = -1.0 + (inputs[18] - 0.000000000000000) / 0.500000000000000;
	inputs[19] = -1.0 + (inputs[19] - 0.000000000000000) / 0.500000000000000;
	inputs[20] = -1.0 + (inputs[20] - 0.000000000000000) / 0.500000000000000;
	inputs[21] = -1.0 + (inputs[21] - 0.000000000000000) / 0.500000000000000;
	inputs[22] = -1.0 + (inputs[22] - 0.000000000000000) / 0.500000000000000;
	inputs[23] = -1.0 + (inputs[23] - 0.000000000000000) / 0.500000000000000;
	inputs[24] = -1.0 + (inputs[24] - 0.000000000000000) / 0.500000000000000;
	inputs[25] = -1.0 + (inputs[25] - 0.000000000000000) / 0.500000000000000;
	inputs[26] = -1.0 + (inputs[26] - 0.000000000000000) / 0.500000000000000;
	inputs[27] = -1.0 + (inputs[27] - 0.000000000000000) / 0.500000000000000;
	inputs[28] = -1.0 + (inputs[28] - 0.000000000000000) / 0.500000000000000;
	inputs[29] = -1.0 + (inputs[29] - 0.000000000000000) / 0.500000000000000;
	inputs[30] = -1.0 + (inputs[30] - 0.000000000000000) / 0.500000000000000;
	inputs[31] = -1.0 + (inputs[31] - 0.000000000000000) / 0.500000000000000;
	inputs[32] = inputs[32] / 0.000000000000000; /* WARNING: During the training this variable remain always constant */
	inputs[33] = -1.0 + (inputs[33] - 0.000000000000000) / 0.500000000000000;
	inputs[34] = -1.0 + (inputs[34] - 0.000000000000000) / 0.500000000000000;
	inputs[35] = -1.0 + (inputs[35] - 0.000000000000000) / 0.500000000000000;
	inputs[36] = -1.0 + (inputs[36] - 0.000000000000000) / 0.500000000000000;
	inputs[37] = -1.0 + (inputs[37] - 0.000000000000000) / 0.500000000000000;
	inputs[38] = -1.0 + (inputs[38] - 0.000000000000000) / 0.500000000000000;
	inputs[39] = -1.0 + (inputs[39] - 0.000000000000000) / 0.500000000000000;
	inputs[40] = -1.0 + (inputs[40] - 0.000000000000000) / 0.500000000000000;
	inputs[41] = -1.0 + (inputs[41] - 0.000000000000000) / 0.500000000000000;
	inputs[42] = -1.0 + (inputs[42] - 0.000000000000000) / 0.500000000000000;
	inputs[43] = -1.0 + (inputs[43] - 0.000000000000000) / 0.500000000000000;
	inputs[44] = -1.0 + (inputs[44] - 0.000000000000000) / 0.500000000000000;
	inputs[45] = -1.0 + (inputs[45] - 0.000000000000000) / 0.500000000000000;
	inputs[46] = -1.0 + (inputs[46] - 0.000000000000000) / 0.500000000000000;
	inputs[47] = -1.0 + (inputs[47] - 0.000000000000000) / 0.500000000000000;
	inputs[48] = -1.0 + (inputs[48] - 0.000000000000000) / 0.500000000000000;
	inputs[49] = -1.0 + (inputs[49] - 0.000000000000000) / 0.500000000000000;
	inputs[50] = -1.0 + (inputs[50] - 0.000000000000000) / 0.500000000000000;
	inputs[51] = -1.0 + (inputs[51] - 0.000000000000000) / 0.500000000000000;
	inputs[52] = -1.0 + (inputs[52] - 0.000000000000000) / 0.500000000000000;
	inputs[53] = -1.0 + (inputs[53] - 0.000000000000000) / 0.500000000000000;
	inputs[54] = -1.0 + (inputs[54] - 0.000000000000000) / 0.500000000000000;
	inputs[55] = -1.0 + (inputs[55] - 0.000000000000000) / 0.500000000000000;
	inputs[56] = -1.0 + (inputs[56] - 0.000000000000000) / 0.500000000000000;
	inputs[57] = -1.0 + (inputs[57] - 0.000000000000000) / 0.500000000000000;
	inputs[58] = -1.0 + (inputs[58] - 0.000000000000000) / 0.500000000000000;
	inputs[59] = -1.0 + (inputs[59] - 0.000000000000000) / 0.500000000000000;
	inputs[60] = -1.0 + (inputs[60] - 0.000000000000000) / 0.500000000000000;
	inputs[61] = -1.0 + (inputs[61] - 0.000000000000000) / 0.500000000000000;
	inputs[62] = -1.0 + (inputs[62] - 0.000000000000000) / 0.500000000000000;
	inputs[63] = -1.0 + (inputs[63] - 0.000000000000000) / 0.500000000000000;
	inputs[64] = -1.0 + (inputs[64] - 0.000000000000000) / 0.500000000000000;
	inputs[65] = -1.0 + (inputs[65] - 0.000000000000000) / 0.500000000000000;
	inputs[66] = -1.0 + (inputs[66] - 0.000000000000000) / 0.500000000000000;
	inputs[67] = -1.0 + (inputs[67] - 0.000000000000000) / 0.500000000000000;
	inputs[68] = -1.0 + (inputs[68] - 0.000000000000000) / 0.500000000000000;
	inputs[69] = -1.0 + (inputs[69] - 0.000000000000000) / 0.500000000000000;
	inputs[70] = -1.0 + (inputs[70] - 0.000000000000000) / 0.500000000000000;
	inputs[71] = -1.0 + (inputs[71] - 0.000000000000000) / 0.500000000000000;
	inputs[72] = -1.0 + (inputs[72] - 0.000000000000000) / 0.500000000000000;
	inputs[73] = -1.0 + (inputs[73] - 0.000000000000000) / 0.500000000000000;
	inputs[74] = -1.0 + (inputs[74] - 0.000000000000000) / 0.500000000000000;
	inputs[75] = -1.0 + (inputs[75] - 0.000000000000000) / 0.500000000000000;
	inputs[76] = -1.0 + (inputs[76] - 0.000000000000000) / 0.500000000000000;
	inputs[77] = -1.0 + (inputs[77] - 0.000000000000000) / 0.500000000000000;
	inputs[78] = -1.0 + (inputs[78] - 0.000000000000000) / 0.500000000000000;
	inputs[79] = -1.0 + (inputs[79] - 0.000000000000000) / 0.500000000000000;
	inputs[80] = -1.0 + (inputs[80] - 0.000000000000000) / 0.500000000000000;
	inputs[81] = -1.0 + (inputs[81] - 0.000000000000000) / 0.500000000000000;
	inputs[82] = -1.0 + (inputs[82] - 0.000000000000000) / 0.500000000000000;
	inputs[83] = -1.0 + (inputs[83] - 0.000000000000000) / 0.500000000000000;
	inputs[84] = -1.0 + (inputs[84] - 0.000000000000000) / 0.500000000000000;
	inputs[85] = -1.0 + (inputs[85] - 0.000000000000000) / 0.500000000000000;
	inputs[86] = -1.0 + (inputs[86] - 0.000000000000000) / 0.500000000000000;
	inputs[87] = -1.0 + (inputs[87] - 0.000000000000000) / 0.500000000000000;
	inputs[88] = -1.0 + (inputs[88] - 0.000000000000000) / 0.500000000000000;
	inputs[89] = -1.0 + (inputs[89] - 0.000000000000000) / 0.500000000000000;
	inputs[90] = -1.0 + (inputs[90] - 0.000000000000000) / 0.500000000000000;
	inputs[91] = -1.0 + (inputs[91] - 0.000000000000000) / 0.500000000000000;
	inputs[92] = -1.0 + (inputs[92] - 0.000000000000000) / 0.500000000000000;
	inputs[93] = -1.0 + (inputs[93] - 0.000000000000000) / 0.500000000000000;
	inputs[94] = -1.0 + (inputs[94] - 0.000000000000000) / 0.500000000000000;
	inputs[95] = -1.0 + (inputs[95] - 0.000000000000000) / 0.500000000000000;
	inputs[96] = -1.0 + (inputs[96] - 0.000000000000000) / 0.500000000000000;
	inputs[97] = -1.0 + (inputs[97] - 0.000000000000000) / 0.500000000000000;
	inputs[98] = -1.0 + (inputs[98] - 0.000000000000000) / 0.500000000000000;
	inputs[99] = -1.0 + (inputs[99] - 0.000000000000000) / 0.500000000000000;
	inputs[100] = -1.0 + (inputs[100] - 0.000000000000000) / 0.500000000000000;
	inputs[101] = -1.0 + (inputs[101] - 0.000000000000000) / 0.500000000000000;
	inputs[102] = -1.0 + (inputs[102] - 0.000000000000000) / 0.500000000000000;
	inputs[103] = -1.0 + (inputs[103] - 0.000000000000000) / 0.500000000000000;
	inputs[104] = -1.0 + (inputs[104] - 0.000000000000000) / 0.500000000000000;
	inputs[105] = -1.0 + (inputs[105] - 0.000000000000000) / 0.500000000000000;
	inputs[106] = -1.0 + (inputs[106] - 0.000000000000000) / 0.500000000000000;
	inputs[107] = -1.0 + (inputs[107] - 0.000000000000000) / 0.500000000000000;
	inputs[108] = -1.0 + (inputs[108] - 0.000000000000000) / 0.500000000000000;
	inputs[109] = -1.0 + (inputs[109] - 0.000000000000000) / 0.500000000000000;
	inputs[110] = -1.0 + (inputs[110] - 0.000000000000000) / 0.500000000000000;
	inputs[111] = -1.0 + (inputs[111] - 0.000000000000000) / 0.500000000000000;
	inputs[112] = -1.0 + (inputs[112] - 0.000000000000000) / 0.500000000000000;
	inputs[113] = -1.0 + (inputs[113] - 0.000000000000000) / 0.500000000000000;
	inputs[114] = -1.0 + (inputs[114] - 0.000000000000000) / 0.500000000000000;
	inputs[115] = -1.0 + (inputs[115] - 0.000000000000000) / 0.500000000000000;
	inputs[116] = -1.0 + (inputs[116] - 0.000000000000000) / 0.500000000000000;
	inputs[117] = -1.0 + (inputs[117] - 0.000000000000000) / 0.500000000000000;
	inputs[118] = -1.0 + (inputs[118] - 0.000000000000000) / 0.500000000000000;
	inputs[119] = -1.0 + (inputs[119] - 0.000000000000000) / 0.500000000000000;
	inputs[120] = -1.0 + (inputs[120] - 0.000000000000000) / 0.500000000000000;
	inputs[121] = -1.0 + (inputs[121] - 0.000000000000000) / 0.500000000000000;
	inputs[122] = -1.0 + (inputs[122] - 0.000000000000000) / 0.500000000000000;
	inputs[123] = -1.0 + (inputs[123] - 0.000000000000000) / 0.500000000000000;
	inputs[124] = -1.0 + (inputs[124] - 0.000000000000000) / 0.500000000000000;
	inputs[125] = -1.0 + (inputs[125] - 0.000000000000000) / 0.500000000000000;
	inputs[126] = -1.0 + (inputs[126] - 0.000000000000000) / 0.500000000000000;
	inputs[127] = -1.0 + (inputs[127] - 0.000000000000000) / 0.500000000000000;
	inputs[128] = -1.0 + (inputs[128] - 0.000000000000000) / 0.500000000000000;
	inputs[129] = -1.0 + (inputs[129] - 0.000000000000000) / 0.500000000000000;
	inputs[130] = -1.0 + (inputs[130] - 0.000000000000000) / 0.500000000000000;
	inputs[131] = -1.0 + (inputs[131] - 0.000000000000000) / 0.500000000000000;
	inputs[132] = -1.0 + (inputs[132] - 0.000000000000000) / 0.500000000000000;
	inputs[133] = -1.0 + (inputs[133] - 0.000000000000000) / 0.500000000000000;
	inputs[134] = -1.0 + (inputs[134] - 0.000000000000000) / 0.500000000000000;
	inputs[135] = -1.0 + (inputs[135] - 0.000000000000000) / 0.500000000000000;
	inputs[136] = -1.0 + (inputs[136] - 0.000000000000000) / 0.500000000000000;
	inputs[137] = -1.0 + (inputs[137] - 0.000000000000000) / 0.500000000000000;
	inputs[138] = -1.0 + (inputs[138] - 0.000000000000000) / 0.500000000000000;
	inputs[139] = -1.0 + (inputs[139] - 0.000000000000000) / 0.500000000000000;
	inputs[140] = -1.0 + (inputs[140] - 0.000000000000000) / 0.500000000000000;
	inputs[141] = -1.0 + (inputs[141] - 0.000000000000000) / 0.500000000000000;
	inputs[142] = -1.0 + (inputs[142] - 0.000000000000000) / 0.500000000000000;
	inputs[143] = -1.0 + (inputs[143] - 0.000000000000000) / 0.500000000000000;
	inputs[144] = -1.0 + (inputs[144] - 0.000000000000000) / 0.500000000000000;
	inputs[145] = -1.0 + (inputs[145] - 0.000000000000000) / 0.500000000000000;
	inputs[146] = -1.0 + (inputs[146] - 0.000000000000000) / 0.500000000000000;
	inputs[147] = -1.0 + (inputs[147] - 0.000000000000000) / 0.500000000000000;
	inputs[148] = -1.0 + (inputs[148] - 0.000000000000000) / 0.500000000000000;
	inputs[149] = -1.0 + (inputs[149] - 0.000000000000000) / 0.500000000000000;
	inputs[150] = -1.0 + (inputs[150] - 0.000000000000000) / 0.500000000000000;
	inputs[151] = -1.0 + (inputs[151] - 0.000000000000000) / 0.500000000000000;
	inputs[152] = -1.0 + (inputs[152] - 0.000000000000000) / 0.500000000000000;
	inputs[153] = -1.0 + (inputs[153] - 0.000000000000000) / 0.500000000000000;
	inputs[154] = -1.0 + (inputs[154] - 0.000000000000000) / 0.500000000000000;
	inputs[155] = -1.0 + (inputs[155] - 0.000000000000000) / 0.500000000000000;
	inputs[156] = -1.0 + (inputs[156] - 0.000000000000000) / 0.500000000000000;
	inputs[157] = -1.0 + (inputs[157] - 0.000000000000000) / 0.500000000000000;
	inputs[158] = -1.0 + (inputs[158] - 0.000000000000000) / 0.500000000000000;
	inputs[159] = -1.0 + (inputs[159] - 0.000000000000000) / 0.500000000000000;
	inputs[160] = -1.0 + (inputs[160] - 0.000000000000000) / 0.500000000000000;
	inputs[161] = -1.0 + (inputs[161] - 0.000000000000000) / 0.500000000000000;
	inputs[162] = -1.0 + (inputs[162] - 0.000000000000000) / 0.500000000000000;
	inputs[163] = -1.0 + (inputs[163] - 0.000000000000000) / 0.500000000000000;
	inputs[164] = -1.0 + (inputs[164] - 0.000000000000000) / 0.500000000000000;
	inputs[165] = -1.0 + (inputs[165] - 0.000000000000000) / 0.500000000000000;
	inputs[166] = -1.0 + (inputs[166] - 0.000000000000000) / 0.500000000000000;
	inputs[167] = -1.0 + (inputs[167] - 0.000000000000000) / 0.500000000000000;
	inputs[168] = -1.0 + (inputs[168] - 0.000000000000000) / 0.500000000000000;
	inputs[169] = -1.0 + (inputs[169] - 0.000000000000000) / 0.500000000000000;
	inputs[170] = -1.0 + (inputs[170] - 0.000000000000000) / 0.500000000000000;
	inputs[171] = -1.0 + (inputs[171] - 0.000000000000000) / 0.500000000000000;
	inputs[172] = -1.0 + (inputs[172] - 0.000000000000000) / 0.500000000000000;
	inputs[173] = -1.0 + (inputs[173] - 0.000000000000000) / 0.500000000000000;
	inputs[174] = -1.0 + (inputs[174] - 0.000000000000000) / 0.500000000000000;
	inputs[175] = -1.0 + (inputs[175] - 0.000000000000000) / 0.500000000000000;
	inputs[176] = -1.0 + (inputs[176] - 0.000000000000000) / 0.500000000000000;
	inputs[177] = -1.0 + (inputs[177] - 0.000000000000000) / 0.500000000000000;
	inputs[178] = -1.0 + (inputs[178] - 0.000000000000000) / 0.500000000000000;
	inputs[179] = -1.0 + (inputs[179] - 0.000000000000000) / 0.500000000000000;
	inputs[180] = -1.0 + (inputs[180] - 0.000000000000000) / 0.500000000000000;
	inputs[181] = -1.0 + (inputs[181] - 0.000000000000000) / 0.500000000000000;
	inputs[182] = -1.0 + (inputs[182] - 0.000000000000000) / 0.500000000000000;
	inputs[183] = -1.0 + (inputs[183] - 0.000000000000000) / 0.500000000000000;
	inputs[184] = -1.0 + (inputs[184] - 0.000000000000000) / 0.500000000000000;
	inputs[185] = -1.0 + (inputs[185] - 0.000000000000000) / 0.500000000000000;
	inputs[186] = -1.0 + (inputs[186] - 0.000000000000000) / 0.500000000000000;
	inputs[187] = -1.0 + (inputs[187] - 0.000000000000000) / 0.500000000000000;
	inputs[188] = -1.0 + (inputs[188] - 0.000000000000000) / 0.500000000000000;
	inputs[189] = -1.0 + (inputs[189] - 0.000000000000000) / 0.500000000000000;
	inputs[190] = -1.0 + (inputs[190] - 0.000000000000000) / 0.500000000000000;
	inputs[191] = -1.0 + (inputs[191] - 0.000000000000000) / 0.500000000000000;
	inputs[192] = -1.0 + (inputs[192] - 0.000000000000000) / 0.500000000000000;
	inputs[193] = -1.0 + (inputs[193] - 0.000000000000000) / 0.500000000000000;
	inputs[194] = -1.0 + (inputs[194] - 0.000000000000000) / 0.500000000000000;
	inputs[195] = -1.0 + (inputs[195] - 0.000000000000000) / 0.500000000000000;
	inputs[196] = -1.0 + (inputs[196] - 0.000000000000000) / 0.500000000000000;
	inputs[197] = -1.0 + (inputs[197] - 0.000000000000000) / 0.500000000000000;
	inputs[198] = -1.0 + (inputs[198] - 0.000000000000000) / 0.500000000000000;
	inputs[199] = -1.0 + (inputs[199] - 0.000000000000000) / 0.500000000000000;
	inputs[200] = -1.0 + (inputs[200] - 0.000000000000000) / 0.500000000000000;
	inputs[201] = -1.0 + (inputs[201] - 0.000000000000000) / 0.500000000000000;
	inputs[202] = -1.0 + (inputs[202] - 0.000000000000000) / 0.500000000000000;
	inputs[203] = -1.0 + (inputs[203] - 0.000000000000000) / 0.500000000000000;
	inputs[204] = -1.0 + (inputs[204] - 0.000000000000000) / 0.500000000000000;
	inputs[205] = -1.0 + (inputs[205] - 0.000000000000000) / 0.500000000000000;
	inputs[206] = -1.0 + (inputs[206] - 0.000000000000000) / 0.500000000000000;
	inputs[207] = -1.0 + (inputs[207] - 0.000000000000000) / 0.500000000000000;
	inputs[208] = -1.0 + (inputs[208] - 0.000000000000000) / 0.500000000000000;
	inputs[209] = -1.0 + (inputs[209] - 0.000000000000000) / 0.500000000000000;
	inputs[210] = -1.0 + (inputs[210] - 0.000000000000000) / 0.500000000000000;
	inputs[211] = -1.0 + (inputs[211] - 0.000000000000000) / 0.500000000000000;
	inputs[212] = -1.0 + (inputs[212] - 0.000000000000000) / 0.500000000000000;
	inputs[213] = -1.0 + (inputs[213] - 0.000000000000000) / 0.500000000000000;
	inputs[214] = -1.0 + (inputs[214] - 0.000000000000000) / 0.500000000000000;
	inputs[215] = -1.0 + (inputs[215] - 0.000000000000000) / 0.500000000000000;
	inputs[216] = -1.0 + (inputs[216] - 0.000000000000000) / 0.500000000000000;
	inputs[217] = -1.0 + (inputs[217] - 0.000000000000000) / 0.500000000000000;
	inputs[218] = -1.0 + (inputs[218] - 0.000000000000000) / 0.500000000000000;
	inputs[219] = -1.0 + (inputs[219] - 0.000000000000000) / 0.500000000000000;
	inputs[220] = -1.0 + (inputs[220] - 0.000000000000000) / 0.500000000000000;
	inputs[221] = -1.0 + (inputs[221] - 0.000000000000000) / 0.500000000000000;
	inputs[222] = -1.0 + (inputs[222] - 0.000000000000000) / 0.500000000000000;
	inputs[223] = -1.0 + (inputs[223] - 0.000000000000000) / 0.500000000000000;
	inputs[224] = -1.0 + (inputs[224] - 0.000000000000000) / 0.500000000000000;
	inputs[225] = -1.0 + (inputs[225] - 0.000000000000000) / 0.500000000000000;
	inputs[226] = -1.0 + (inputs[226] - 0.000000000000000) / 0.500000000000000;
	inputs[227] = -1.0 + (inputs[227] - 0.000000000000000) / 0.500000000000000;
	inputs[228] = -1.0 + (inputs[228] - 0.000000000000000) / 0.500000000000000;
	inputs[229] = -1.0 + (inputs[229] - 0.000000000000000) / 0.500000000000000;
	inputs[230] = -1.0 + (inputs[230] - 0.000000000000000) / 0.500000000000000;
	inputs[231] = -1.0 + (inputs[231] - 0.000000000000000) / 0.500000000000000;
	inputs[232] = -1.0 + (inputs[232] - 0.000000000000000) / 0.500000000000000;
	inputs[233] = -1.0 + (inputs[233] - 0.000000000000000) / 0.500000000000000;
	inputs[234] = -1.0 + (inputs[234] - 0.000000000000000) / 0.500000000000000;
	inputs[235] = -1.0 + (inputs[235] - 0.000000000000000) / 0.500000000000000;
	inputs[236] = -1.0 + (inputs[236] - 0.000000000000000) / 0.500000000000000;
	inputs[237] = -1.0 + (inputs[237] - 0.000000000000000) / 0.500000000000000;
	inputs[238] = -1.0 + (inputs[238] - 0.000000000000000) / 0.500000000000000;
	inputs[239] = -1.0 + (inputs[239] - 0.000000000000000) / 0.500000000000000;
	inputs[240] = -1.0 + (inputs[240] - 0.000000000000000) / 0.500000000000000;
	inputs[241] = -1.0 + (inputs[241] - 0.000000000000000) / 0.500000000000000;
	inputs[242] = -1.0 + (inputs[242] - 0.000000000000000) / 0.500000000000000;
	inputs[243] = -1.0 + (inputs[243] - 0.000000000000000) / 0.500000000000000;
	inputs[244] = -1.0 + (inputs[244] - 0.000000000000000) / 0.500000000000000;
	inputs[245] = -1.0 + (inputs[245] - 0.000000000000000) / 0.500000000000000;
	inputs[246] = -1.0 + (inputs[246] - 0.000000000000000) / 0.500000000000000;
	inputs[247] = -1.0 + (inputs[247] - 0.000000000000000) / 0.500000000000000;
	inputs[248] = -1.0 + (inputs[248] - 0.000000000000000) / 0.500000000000000;
	inputs[249] = -1.0 + (inputs[249] - 0.000000000000000) / 0.500000000000000;
	inputs[250] = -1.0 + (inputs[250] - 0.000000000000000) / 0.500000000000000;
	inputs[251] = -1.0 + (inputs[251] - 0.000000000000000) / 0.500000000000000;
	inputs[252] = -1.0 + (inputs[252] - 0.000000000000000) / 0.500000000000000;
	inputs[253] = -1.0 + (inputs[253] - 0.000000000000000) / 0.500000000000000;
	inputs[254] = -1.0 + (inputs[254] - 0.000000000000000) / 0.500000000000000;
	inputs[255] = -1.0 + (inputs[255] - 0.000000000000000) / 0.500000000000000;
	mk[0] = *sw++;
	for(c = 0; c < 256; c++) mk[0] += *sw++ * inputs[c];
	mk[0] = 1.0 / (1.0 + exp(-mk[0]));
	mk[1] = *sw++;
	for(c = 0; c < 256; c++) mk[1] += *sw++ * inputs[c];
	mk[1] = 1.0 / (1.0 + exp(-mk[1]));
	mk[2] = *sw++;
	for(c = 0; c < 256; c++) mk[2] += *sw++ * inputs[c];
	mk[2] = 1.0 / (1.0 + exp(-mk[2]));
	mk[3] = *sw++;
	for(c = 0; c < 256; c++) mk[3] += *sw++ * inputs[c];
	mk[3] = 1.0 / (1.0 + exp(-mk[3]));
	mk[4] = *sw++;
	for(c = 0; c < 256; c++) mk[4] += *sw++ * inputs[c];
	mk[4] = 1.0 / (1.0 + exp(-mk[4]));
	mk[5] = *sw++;
	for(c = 0; c < 256; c++) mk[5] += *sw++ * inputs[c];
	mk[5] = 1.0 / (1.0 + exp(-mk[5]));
	mk[6] = *sw++;
	for(c = 0; c < 256; c++) mk[6] += *sw++ * inputs[c];
	mk[6] = 1.0 / (1.0 + exp(-mk[6]));
	mk[7] = *sw++;
	for(c = 0; c < 256; c++) mk[7] += *sw++ * inputs[c];
	mk[7] = 1.0 / (1.0 + exp(-mk[7]));
	hiddenLayer1outputs[0] = *mw++;
	for(c = 0; c < 256; c++) hiddenLayer1outputs[0] += *mw++ * inputs[c];
	hiddenLayer1outputs[0] = 1.0 / (1.0 + exp(-hiddenLayer1outputs[0]));
	hiddenLayer1outputs[0] *= *m++;
	hiddenLayer1outputs[1] = *mw++;
	for(c = 0; c < 256; c++) hiddenLayer1outputs[1] += *mw++ * inputs[c];
	hiddenLayer1outputs[1] = 1.0 / (1.0 + exp(-hiddenLayer1outputs[1]));
	hiddenLayer1outputs[1] *= *m++;
	hiddenLayer1outputs[2] = *mw++;
	for(c = 0; c < 256; c++) hiddenLayer1outputs[2] += *mw++ * inputs[c];
	hiddenLayer1outputs[2] = 1.0 / (1.0 + exp(-hiddenLayer1outputs[2]));
	hiddenLayer1outputs[2] *= *m++;
	hiddenLayer1outputs[3] = *mw++;
	for(c = 0; c < 256; c++) hiddenLayer1outputs[3] += *mw++ * inputs[c];
	hiddenLayer1outputs[3] = 1.0 / (1.0 + exp(-hiddenLayer1outputs[3]));
	hiddenLayer1outputs[3] *= *m++;
	hiddenLayer1outputs[4] = *mw++;
	for(c = 0; c < 256; c++) hiddenLayer1outputs[4] += *mw++ * inputs[c];
	hiddenLayer1outputs[4] = 1.0 / (1.0 + exp(-hiddenLayer1outputs[4]));
	hiddenLayer1outputs[4] *= *m++;
	hiddenLayer1outputs[5] = *mw++;
	for(c = 0; c < 256; c++) hiddenLayer1outputs[5] += *mw++ * inputs[c];
	hiddenLayer1outputs[5] = 1.0 / (1.0 + exp(-hiddenLayer1outputs[5]));
	hiddenLayer1outputs[5] *= *m++;
	hiddenLayer1outputs[6] = *mw++;
	for(c = 0; c < 256; c++) hiddenLayer1outputs[6] += *mw++ * inputs[c];
	hiddenLayer1outputs[6] = 1.0 / (1.0 + exp(-hiddenLayer1outputs[6]));
	hiddenLayer1outputs[6] *= *m++;
	outputs[0] = *mw++;
	for(c = 0; c < 7; c++) outputs[0] += *mw++ * hiddenLayer1outputs[c];
	outputs[0] = 1.0 / (1.0 + exp(-outputs[0]));
	outputs[0] *= *m++;
	outputs[0] = 0.000000000000000 + (outputs[0] - 0.000000) * 0.900000000000000;
}
