/**
 Generated by Multiple Back-Propagation Version 2.2.2
 Multiple Back-Propagation can be freely obtained at http://dit.ipg.pt/MBP
*/

#include <math.h>
/**
 inputs  - should be an array of 256 element(s), containing the network input(s).
 outputs - should be an array of 1 element(s), that will contain the network output(s).
 Note : The array inputs will also be changed.Its values will be rescaled between -1 and 1.
*/
#include <iostream>
using namespace std;

void nn_256_5_3_1(double * inputs, double * outputs) {
	double mainWeights[] = {0.281021913851556, 1.009498735043111, 0.520225991124347, 0.536874140272796, -0.955707269926220, 0.627763882756098, -0.344011487672271, -0.896270660477670, -0.869970469433627, 0.665528697130638, -0.288556754847388, 0.408132661857418, 0.371479995007822, 0.555239997738074, 0.227048031703624, -0.342098994451343, -0.926979217591390, 0.813249762946219, 0.586131014407428, -0.010506113616571, 0.265009289798516, -0.911456146425338, -0.673033012099218, 0.281716469470720, -0.683400514465147, -0.625443064707832, -0.606950138837430, -0.768225737989141, 0.329270910305424, -0.023857473968149, -0.308249760339484, -0.745086507570488, 0.264897664040066, -0.255676593793345, -0.983111123386791, -0.898990252300279, -0.914708872027628, 0.068772460349942, -0.074790740960973, 0.145348312860065, -0.988869644946537, -0.937303787414027, -0.311329482082626, 0.778760179493786, -0.359336207644133, 0.656853681935215, -0.169464094359191, 0.760131554126319, -0.533563863459607, 0.327150943055946, -0.155053713542518, 0.209498740329291, -0.554182462763240, -1.331458868314883, -0.858980635474731, -0.289151038310685, 0.152445857207058, 0.134623966544467, -0.738998041828878, 0.944649777979847, -0.424078518489017, -0.855252357992779, 0.247510780517194, -0.290766674855806, -0.501923412922616, -0.078440069630101, -0.820101416147793, 0.086844580147190, -0.264831421489943, 0.426262681961083, 0.661471199286501, 0.000859637756018, 0.810445122322865, -0.052739427618725, 0.208615416648517, -0.401278248748911, 0.832938779141488, -0.955180517113555, 0.656612132367411, -0.947761824637618, 0.404199788243503, -0.315874073353294, -0.785251205826839, -0.847814713990423, -0.377733323138892, -0.822057390514256, 0.000847748145812, 0.512569501692893, 0.107366897171522, -0.025184282611970, -0.335362183223402, 0.116748522527688, 0.843241295694439, -0.357982571940777, -0.412749848650714, 0.032020671033566, -0.042820084420831, 0.858295081906504, 0.590341246971469, 0.590670032398059, -0.042499337643169, -0.344069332748745, 0.056079028074050, -1.170112415058161, 0.331766074558943, 0.507626070402608, 0.327815188234916, 0.191102858226884, -0.628812660783423, 0.128839981420104, 0.572348204007035, -0.002051229065230, 0.735952012184380, -0.205162286323518, 0.526256074439118, -0.043168591188052, -0.567210529896820, 0.546944821656976, -0.670100403305863, 0.150603688471452, -0.410899082399838, -0.190543139703973, 0.091243127617242, -0.727817745450931, 0.264236087865598, -0.978419953447818, -0.098460328174137, 1.022481138810387, -0.960011485367426, -0.620640609699300, 0.941553427437134, 0.268457286885130, -0.868997043866862, -0.980003081438041, 0.628407137378225, -0.172151834950727, -0.816053239929111, -0.897344546646912, -0.161645468777325, -0.335436637456250, -0.776303010537553, 0.908778573777280, 0.655345369882162, 0.510744548339392, -0.088508155470050, -0.211578456452337, -0.837567080372030, 0.731461349280160, 0.680751294869063, -0.081944636003497, -0.765904160829540, 0.089302245309081, -0.737767216893208, -0.436754371025803, -0.412073751367499, 0.464795195715209, -0.523164073288614, -0.325917513176128, -0.208236095945783, 0.728390556610776, 0.710390303387710, 0.416516609921186, -0.514951195800715, -0.610967632784433, -0.160420803707960, 0.025254451673827, -0.214546997131103, 0.551625141967236, 0.032246000474148, 0.444453423039776, -0.738684991663265, 0.404237794180400, 0.218497776168634, -0.803731564004367, -0.907346832057507, -0.269888465789384, 0.099071606998471, 0.434440751715449, 0.259560452124952, 0.344736563098961, -0.434001743478662, -0.567996394739752, 0.757743160962727, -0.575047687946575, 0.692270863700026, -0.487288775098021, -0.523936009714401, -0.125598391873827, -0.613444903139556, -0.047089033789645, 0.690233523784418, -0.604687252522424, -0.464763926866735, -1.156293486994807, -0.234122715343001, 0.519697449458975, -0.457979305531453, 0.642147439922447, 0.929513360340170, 0.453960364754247, 0.866372406365446, 0.152986160128552, 0.185592876356594, 0.796375844589117, 0.655854156271104, 0.446447684984274, 0.945199022961801, -0.238901889293820, 0.825183569063870, -0.518003593677444, -0.084255317947907, -0.794272472616391, 0.388879872871714, -1.013860311186466, -0.148384208478873, -0.828456810155784, 0.702352922914718, 0.836021506522337, 0.678470616502368, -0.582843880596754, 0.105499985939536, -0.295656152107775, -0.475337694422376, -0.102737105977611, 0.202345033780090, 0.307139717159627, 0.665673823488061, -0.795487111105383, 0.245830698091384, 0.197952739046590, -0.633081647851397, -0.090921527153059, 0.814026902575627, 0.157990423249130, 0.700274757807251, 0.284895238372445, -0.170888407833892, 0.770950094391312, -0.211203846361003, -0.799425544693807, -0.863943381874242, -1.053618073248006, -0.654338916917876, -1.112531573008113, 0.798083962599548, 0.881450621651853, 0.874614395390702, 0.661844083532084, -0.868410664592993, -0.070553833205262, -1.024361106182952, 0.691965562825625, -0.207647382147407, -0.546971338697883, 0.815386414546470, -0.869925159796351, 0.448849800466573, -0.020267430609004, -0.193307379337931, 0.408151405415044, -0.386858928006315, -0.414599968624908, 0.595981248555311, -0.147943888508536, 0.285611488930733, -0.866363808897077, -0.388489490954376, -0.050720457709300, 0.041128482933867, 0.371878708358880, -0.732416281963585, 0.166592801868435, -0.914305962469111, -0.190970004401203, -0.775014554882474, 0.722795486932693, 0.560187566361576, -0.421461881447391, -0.241961750744938, 0.710126797988777, 0.068711611842857, 0.184449854385234, 1.318527323130015, 0.150507736888488, 0.051402082335854, 0.697533999643817, -1.052664990932710, 1.002514904804249, 0.220246886820864, -0.394949178884052, 0.470042942632367, 0.644747374034499, -0.250377621704687, 0.418340099105729, 0.168933596463124, 0.601016827966582, 1.216623309050880, -0.032475770438667, 0.287573333676120, 0.402194802837572, 1.024805300260328, 0.313038831657964, -0.303617877194216, -0.748210420390459, 0.242701590497663, 0.962951691315256, -0.905772825103050, 0.250504887586333, 0.240870081633644, -0.050715951048166, 1.616953004228105, -0.258396139528046, -0.336499304282243, -0.600744797131938, -0.484170974379729, -0.329071326077824, 0.698388757701816, 0.208804349317145, -0.554643727418957, 0.839047976425841, 0.566912340615564, 0.014420697736391, -0.228379609865031, -0.562178086165567, -0.903079356748617, -0.342375044681686, -0.180638418549955, -0.960215253532632, 0.465304076439990, 0.071748893755647, -0.030200987663024, -0.635329711239561, 0.851279798598792, 0.515675358927688, 0.864180154950456, 0.230244152630608, -0.294474094944679, 0.737457035157900, -0.007931383153848, 0.251005071913143, -0.631506204899022, 0.912379064916839, 0.267451779341911, -0.150384561603059, -1.060894456167042, -0.092628894484042, -0.221026755943174, -0.673933265539293, 0.732664779254920, 0.855272703833566, 0.944244455143217, -0.162446177698950, -0.259843936418143, 0.783181236787852, -0.949183541405538, -0.900078719317925, 0.956197984074628, 1.148368313896617, -0.003430082444992, -0.113899242169750, -0.754329318847477, -0.391537559106072, -0.577802550174866, -0.879058926232043, 0.978850626295973, -0.114682845966031, 0.604052548793962, -0.348560162499630, -0.830493263579629, -0.153648149806069, -0.617142147124010, 1.015099727822129, -0.107621273575152, 0.940123937414226, -0.916082150789958, 0.384704652222884, 1.097414623305638, -0.072711613556738, 0.658120911227729, -0.228660690720983, 0.526028164848311, 0.310015261466877, 0.388706103287886, 0.642558257013459, 1.040433670000365, -0.603256628924869, -0.181050553699943, -0.199472736287913, -0.377199251373953, 0.917131906385952, -0.603927873921325, -1.062719299164616, 0.583294900581612, 0.401147408822420, -1.008896023252971, -0.644708724058082, 0.012009154883756, -0.762826642185988, -0.907826878736954, 0.937686673119771, -0.714041436375655, 0.060360839822655, 0.768936455301208, 0.482902009576444, 0.237841732848381, -0.368443901707517, -0.259462177663643, -0.248176949657194, -0.525496254562638, 0.396916763289041, -1.344205550834148, 0.239675203349202, 0.013926717522954, 0.273594024661459, 0.626548918267005, -0.145788496091269, -1.192262696838025, 0.229801234638486, -0.319283657777768, -0.629955724137370, -0.385587451649216, -0.538802948896567, -0.626815741207226, 0.843500962441764, 0.039337674743083, -0.682152868658628, -0.079498913606784, -0.223417276019578, 0.163105534519940, 0.567175314274596, 0.397902996360957, 0.765719076128119, 0.607325043290838, 0.284549108559575, -0.340968547096068, 0.458525392419612, -0.216035743855199, 0.084105109840358, 0.069453776720142, -0.663795351119221, -0.106185623975672, 0.329390303907919, -0.801615982746997, 0.907741226729735, -0.833852426760902, 1.044085108400773, 0.799862678251845, 0.230708031234675, 0.970747497861309, 0.800243075951764, 0.051074130164544, -0.245319201466720, 1.132599711318256, -0.624881467621938, 0.159813546508004, 0.365542253855543, -0.467532864093649, -1.220861149323843, -0.159122066450256, -0.252869326586862, 0.341311638347831, 1.148240067486380, 0.752535617943571, -0.589313315672306, -0.195418410462694, 0.818501611424033, -0.254897529409507, 0.543551865339985, 1.479968542050635, 0.907195641342730, -1.215834389095491, -0.308693835516547, -0.381499649311152, -0.921279723621384, 0.009682954563458, 0.463992165687665, -0.033106125279483, 0.995090926517281, -0.071043222504117, 1.089586955079144, -0.311560194213633, 0.244813934850297, 0.426141912032804, 0.391013563300930, 0.558964293384983, -0.377309310515632, 0.228351552324019, -0.683087093566366, 0.610006293076858, 0.776535464557628, 0.015693496193519, -0.176537997834571, 0.645124436491023, 0.462528819154621, -0.181170841807507, 0.543039482530961, -0.201022702272624, -0.667655747630739, 0.596296939783510, 1.096439197972118, -0.115497444817746, -0.150725579599033, 0.381333079258261, -0.081658771964706, -0.893573512353865, -1.071406713381061, 0.222312359857979, 0.152218697337167, 0.341437028852734, -0.715433716121614, 0.184788741933942, 1.136082359913315, 0.789619253655029, 0.323266695888053, -0.971671579524351, 0.985541470190300, 0.028236864947344, -0.943497859304800, 0.701869420800072, -0.218294282609182, -0.825425128517247, 0.474488627149655, -0.486195647603588, 0.086348214099717, -1.045551196355429, -0.967321525773042, -1.037963118956783, -0.387875002666763, -0.524700673788452, 0.159989565233692, 0.578016484764080, 0.033166376196101, -0.697617778017948, 0.544246040314117, 0.654442166672126, -0.093583936570245, 0.306517814210836, -0.816828920294211, 0.965664492248223, 0.621494725093039, -0.903854732899338, 0.464990132010182, -0.684820321197258, 0.749665257536869, -1.162806957736853, -0.806583862831321, -0.848147930299046, -0.766404084788794, 0.670889650263856, -0.093407135341158, -0.905041555646870, -1.148781615342152, -0.770802564628358, 0.735342375573159, -0.061534668511858, -0.708857964602439, 0.974560102393195, 0.498519261504570, -0.044291881460143, -0.095286975406962, -0.077912006829279, 0.090874008592411, 0.930337558692654, -0.160121349966884, 0.045900809690995, 0.497388605482091, -1.143842262921511, 0.569085166684616, -0.028910894966832, 0.201861698680311, -0.994921284245746, -0.865505891543428, -0.029541964586752, -0.186546477604065, -0.232791399383012, -0.726203103634714, 0.570583537727171, -0.049498384077967, -0.678461555779103, -0.997891201541257, -0.894700127591972, 0.423010125742236, 0.359593878253177, 0.595510758311328, -1.061165027515975, -1.550429611914971, -0.135250694300730, -0.613456788007359, 0.789013720535360, -0.469341783780126, -0.280191511797377, -0.300090417396049, 0.903638079420485, 0.113501212661747, -0.016482551084274, 0.008692898854223, -0.241499670462799, 0.803069354942270, 0.581938668378028, 0.145893710541170, 0.365483897528091, -0.214401459926242, 0.489158258544916, -0.142021379199772, -0.584271763407013, 0.184734998122242, 0.050277027313361, 1.072596837665243, -0.224147840688698, 0.743775821876295, -0.771590609309297, 0.280246039853073, 0.109871708220210, 0.484736335969373, 1.304929153802035, 1.130648456873986, -0.093503509697626, 0.584607976105910, 0.169796262199985, -0.160271767198589, 0.948331562901963, 1.387835551307989, 0.940571804936918, 0.162776214357146, 0.246050688762701, 0.009977297718006, 0.468174418201792, 0.314305197179317, -0.978033248726621, -0.127002501431152, 0.266842222280761, 0.248635980380038, 0.726928976183125, 0.067119201623003, -0.557266101030581, -0.066474704671599, 0.188391730113510, -0.310567205548419, -0.550623071423364, -0.203847715336525, -0.635133130539583, 1.046338243086325, 0.289774882364058, -1.012777409018890, 0.188009582859621, -1.034355586474391, -0.076401155437419, -0.416565825485559, -0.046975964127156, 0.001101578759549, -1.014365711794021, 0.881118728922315, -0.196263978378167, -0.121351574431583, -0.497657704545937, -0.846477833226001, 0.956926530363360, 0.485156554415055, 0.627460241414873, 0.804415008596720, 0.410198229747717, 0.589130578843599, -1.144026560212524, 0.574014087556261, 0.213539279697942, 0.447204572630300, 0.967178941429385, 0.582459037061334, -0.534079325364864, 0.938167581060950, -0.810892538899333, -1.139757241945878, -1.037125551681345, 0.409945674305305, -0.730114296714073, -0.849827665342571, -0.303835033297538, -0.907984249368692, 0.089347906403407, 0.675783822950509, 0.326271905546968, 0.899926121498161, 0.266294596328367, 0.144743390792175, 1.029573359637881, -0.590783726023121, -1.174971402864203, -0.655574794019970, -0.567025414844293, 0.704577052864470, -0.174766993534785, -0.486419612690613, 0.107424536292370, 0.452740426372822, 0.872323155188004, -0.808092179148051, -1.076686268583049, 0.719627457586096, -0.591308946982336, 0.711475827690477, 0.457434340986396, -0.505015749009388, -0.484143822809066, -0.668002781985830, -0.141820492959566, -0.657175256808785, 0.135009468981897, 0.737519996546881, -0.874676136579836, 0.842176846760521, -0.288753424381521, 0.375487289838967, 0.078742815674510, 0.605242938160323, -0.222508003275489, 0.557135476832816, -0.628582556547855, -0.176857584120081, 0.625101577037021, -1.252288381910314, -1.112300690267742, -1.005638009165637, -1.093847270389071, 0.654219694964703, 0.470311153046157, -0.186554218807002, -0.078317430188971, -0.457588978976288, 0.424118672353527, -0.296244007810979, 0.769830229852082, -0.701652908172054, 0.215360834318267, -0.393394393436433, -0.606418233255584, -0.150641208520066, 0.416507022187174, 0.505827000218308, -1.083617993471058, 0.241883036218677, 0.474901158372395, 0.188846482304455, -0.246346585038933, 0.167141443789740, 0.411199274882159, 0.073295529490739, -0.709107349985454, -0.327416388056300, -0.774634328094983, -0.896203638369439, -1.377110438083443, 0.107074234454425, -0.648729196089730, -0.007781833317359, 0.191251374002205, 0.259875278045888, -0.490140579151395, 0.851763063782158, 0.072791947531726, 0.574836771939779, 0.193332966651008, -0.177407891185850, 0.110553587183552, -0.665991722330840, -0.552718384224229, -0.670439038456152, 0.852141400809051, 0.746746465574712, -0.319369565905933, -0.351802939345944, -0.026436908358648, -0.092766856563976, -0.411807354625887, -0.577278713004621, 0.322763146590008, 0.751887487344858, -0.472527195191601, 0.977773294649525, 0.134076051590927, -0.491971510029958, -0.117595413974666, -0.184152598760899, 0.433656060745730, 0.296966458095272, 1.272872169393510, -0.794573733756915, 0.729501829080830, 0.906341562172403, 0.695077703336151, 0.765883101566285, -0.749478209824814, -0.676619037941151, 0.627759597652703, -0.697963699754722, 0.680622752381704, 0.177824759557684, -0.188556134981928, 0.276130713394962, -0.924700782112340, 0.257260537320219, 0.292228230324777, 0.701183473561562, 0.764639163545473, -0.666863089901671, -0.922748240272909, -0.308989392722101, 0.573920012468593, 0.209195303551150, 1.109073094544060, 0.291985204463093, 0.219404557616004, 0.657845657034203, -0.221131336861402, -0.050625460873355, 1.014637923909888, 0.765462392584447, 1.087789883976845, -0.458405128181943, 1.060416421841124, -0.412948258093974, 0.202298676396363, -0.147195425828690, 0.386429273074584, 0.280263079558968, -0.297963210946957, -0.970096197477368, -0.591124548837169, -0.469022718989944, -0.590782900944917, 1.184381579408801, 1.279834894278602, 0.028959527008558, 0.343868544379225, 1.128710398696467, -0.171164620025875, 0.433330952017320, -0.944928411059145, 0.799857715700568, -0.861443976933237, 0.651409710737737, -0.160729254020060, -1.066899405580304, -0.742583522043987, -0.552566888158843, -0.713730764259115, -0.397521494935891, 1.425808969713141, -0.488150071742502, 0.017920422931589, -1.006638381143975, -0.700581325659992, 0.641524581697464, -0.812109821970305, 0.247523604215222, 0.846541269273329, 0.173444941529099, -0.157614335056213, 0.066428790019312, -0.645129798755325, -1.206734731070188, -0.574630714554072, -0.104760279364741, -0.021984548086048, -0.242722417836983, 1.075127883982708, -0.237716648410470, 0.031219711582451, 0.185062135008526, 0.000553628606582, 0.126657872235498, 0.534123913459142, 0.675390985898170, -1.092011007522473, -0.762310920742853, -0.720974730526220, -0.259839116894125, 0.388692647661697, -0.400136093013988, -0.252661922839412, -0.139461428918064, -0.178204014092243, 0.024117454171856, 0.205223371177175, -0.602198953233611, 0.068403909970390, -0.906370535494951, -0.665976226911776, -0.730664390381084, 0.089831499953923, -0.762430956801026, -0.905631673738996, -1.759739805844631, -1.124545892377831, 0.444804825643123, -0.117988398916235, 0.166402378578929, 0.387198344948208, 0.971964023227837, -0.270478424461317, 0.253938708912866, 0.317775018351051, 0.618295029883490, -0.162781900915606, -0.567376180060253, -0.971865929786302, -0.451170594417656, -0.232796156636006, 0.041853272717471, 0.227652819483241, -0.455109431263686, 0.535288623073467, 0.990821720678227, -0.336923991446587, -0.314513399749599, -0.558230326474446, 0.184048673334726, -0.667650337168626, -0.632914606156714, -0.665670197196285, -0.286352075894805, -0.611142634606547, 0.806957339833174, -0.689581902688654, -0.454536825048045, -0.877517191580183, 0.211700125800179, -0.208066177157401, 0.646516816039385, -0.471803650821510, -0.627516301933003, 0.325795098871089, 0.187086408705689, 0.540338933261947, -0.717712030327105, -1.147144019463170, 0.294050234539087, -0.523135683384693, 0.026204353646723, 1.402916680090849, -0.011435291559895, -0.840678534948751, -0.291719502542070, -0.795490119628312, 0.260736280657080, 0.343336842926588, -1.052738227112103, 0.766298016106062, -0.770752987941940, -0.458737408315601, -0.024857459881146, -0.981908816805933, 0.425115337206081, 0.045197189482278, -0.710423996201920, 0.123997067359299, 0.465891322893658, 0.159900105143221, 0.785287031701945, -0.423131062644073, -0.331241181201326, 0.363721684031468, 0.571429319980034, -0.589612591163153, 0.651525945020558, -0.699002265889671, 0.831277780060154, 0.194154886131784, 0.835369393054762, -0.334283472627943, 0.253352901302852, 1.587717002174758, -0.124682765108226, 0.546009406092446, 0.374456864616717, 0.501446478593379, -0.611517849195273, -1.204506620467554, 0.823163013494969, -0.990853079701350, -0.173894820967195, -0.573050365517701, -0.787226746182492, 1.136418462533442, -0.906659541964243, 0.441920825556758, -0.345250922406059, -0.429435886092473, 0.493001767982425, -0.018194612474813, 1.064934994272381, -0.352132103617388, -0.470892605917543, 0.374593301961890, 0.458100402213756, -0.462624934352713, -0.584021101401363, -0.775995637454008, -0.058568561703436, -0.146239535938477, 0.402002766334960, 1.426108300537406, 0.708864880545228, 0.469192283594381, 1.244823585826406, 0.801530176361256, 0.749479875053769, 0.077302267995608, -0.677890710753956, -0.838555618928956, 0.537262179132487, -0.770701598257128, 0.683705462456870, -0.626864097204824, 0.725229896140181, 0.030687502508225, -0.327726828110913, -0.710216665153409, 0.323719192841682, -0.218401987261189, 1.206856458375434, 0.145325721519263, 0.354005336952185, -0.484795139861906, 1.020716456939382, -0.227260037911312, -0.729333231885275, -0.498140106875190, -0.100257188960014, 0.550931601745219, 0.999004357871957, 0.976054438745859, 0.532290242299727, -0.084683102591088, 0.821386641593341, -0.202931096759775, -0.756416363679113, 0.368842329804262, -1.195382894218503, -1.083593698377407, 0.075924870443341, -0.782763168891890, -0.663498496357418, -0.252448399167212, 0.728337735961776, -0.867526558105846, 0.327024879496906, -0.760288576756513, -0.140033945407164, 0.535990886900185, -0.235859480911119, -0.490684523027049, -0.587335065582878, 0.894411337525800, -0.953091280961701, -0.378288183960069, -0.389681868026746, -0.121080540317335, -0.228260821485883, -1.115139548958004, 0.417783053261046, 0.459090598725402, -0.614692349181019, -0.304722325075429, -0.781551776321291, -0.368695251831027, 0.252815141556307, 0.403172771657834, -0.290526104565080, -0.751312724711955, -0.343280307940624, 0.804684004620725, -0.199831161201260, -0.057892742296940, 0.479022461584968, 0.302295370526894, 0.303416972913243, -0.682539265985736, -0.841437990724259, -0.319754599910756, -0.828908597770158, 0.439978578006907, 0.821965108055748, -0.190017371303529, -0.422756672512020, -0.441043745152011, 0.748477710148227, -0.401894522740563, -0.220358561288216, 0.703644259604968, 0.625296064340780, -0.360881656419674, 1.075844664754070, -0.499125358091046, -0.892501425905553, 0.559508695016124, 0.731035317504602, 0.581281633064235, -0.362730459163509, -0.656180969982717, 0.126351058081578, -0.776489745401645, -0.601279421486861, 0.235065062000461, 0.674368942990604, -0.760026943877846, 0.097442893439748, -1.008258294321801, 0.890318210073480, -0.841075600450585, 0.658839876733348, -0.220445914340915, 0.565233195446651, -0.628392897175519, -0.697785704737985, -0.819018851560570, 0.409063895653280, -0.047757277028503, -0.249117984071557, 0.202294544349483, -0.821732937729143, -0.292141266572046, 0.179307182100491, 0.530971697214309, -0.356930165883245, -0.540427212836521, -0.659620076446478, -0.832154563790175, 0.251432356407484, 0.502472697679128, 1.010165226660488, 0.414910706130135, -0.155344846573782, -0.068157000702355, -1.082581940007681, 0.298535691572860, -0.094564683950857, -1.131135159692019, 0.670041914669626, 0.935173322525183, -0.862590433231239, 0.557313057130368, -0.238155451900142, -0.591817862367938, -0.267267245279900, 1.081131676245927, -0.202777118799205, -0.642114154682192, 0.857800307058845, -0.712611944443205, 0.635898359022300, 0.786435827076581, 0.125767635170912, 0.129108269104645, 0.321292553273414, -0.447637636999987, 0.941393341769040, -0.510582736013506, -1.066994461837707, -0.625538342666470, -0.361691813736712, -0.721915044963063, 0.794368305478506, 1.065162731653238, -0.615459041687098, 0.502275891243256, -0.719511309924640, 0.885076144331175, -0.507941530800679, -0.816860964446798, -0.287558954160262, -0.922494280171010, -0.596534055339533, 0.904913702527148, -0.522732493607351, -0.290893930471916, -0.073024018900346, 0.437713176654546, -0.379112927158665, 0.112649291612858, 0.907878971231868, -0.447777109026684, -0.823107909640850, 0.997580301269447, 0.045701683569294, -0.257972710593459, -0.182152215059655, -0.622996542940102, -0.898663795066389, -0.842244172273222, 0.871785353989981, -0.034524796559918, 0.323539415443509, -0.079070610020965, 0.204940393107379, -0.959399397185948, -0.091300218580361, -0.647136074431659, 0.395119780425795, 0.156524267408605, 0.844348909893890, -0.291346749217722, -0.686436391408639, -0.019156453403254, 0.128694689072868, 0.540295665233935, 0.775331818785817, -0.073790441607018, -0.152355480742110, 0.242843088824089, 0.136396458769881, 0.405054871305828, -0.324825858692677, 0.218924638579596, 0.444398582211304, 0.802777851899667, -0.717846859666004, -1.078974430741673, -0.265335254163436, -0.346063728894337, 0.497122375654649, -0.411673026381732, 0.260822999741831, 0.817727180473498, -0.138462108584958, 0.251061919373920, -0.537709212586144, -0.603954234854758, -0.913263770121256, 0.651077003713527, -0.452852757109008, 0.004769915283001, -0.955410923513942, -0.955439511156293, -0.249986110132282, 0.062628072532684, 0.697329125941099, -0.782605112057681, -1.111474242591389, -0.241696311506964, -1.045155021703270, 0.123646098473476, 0.200890311955791, 0.817011779335266, 0.703395987831034, 0.180178010690388, 0.661675077210221, -0.073594878659519, 0.805205233279388, -0.621725392670233, -1.108652088883400, 0.611037805025935, 0.175020195121766, -0.656968474444459, 0.307554705220070, 0.698508142158051, -0.672690406556213, -1.006310865767903, -0.215762978986398, 0.659773572172723, 0.162318176411482, 0.686847329695475, 0.085051183709255, 0.411504565535866, -0.375861034087904, -0.109912076009103, 0.116448866093724, -0.310685231739559, 0.400099776755934, 0.292505102782859, -0.974682383105858, 0.038683407437614, -0.978742002281636, -0.385417465646701, -0.560893681310832, 0.408119468612795, 0.792283702555187, -0.224467220910699, 0.262890726174965, 0.766442444336923, 0.321547928673418, -0.459457428381102, -0.509763873804907, -0.065502324166662, 0.813369692134988, 0.067450269334673, -0.469210733374271, 0.538038490672800, -1.313880766335291, 2.913874628597778, -2.924855156663338, -0.514296845810416, -1.893476704582616, 3.681213488799183, -2.875872295700198, 1.642001975503036, -1.643097133723174, -7.852351148102707, 0.475643306200488, -3.017309496789834, -4.402422120206563, 3.310912516579411, -0.603578655450141, -0.727866975141536, -1.248192389779344, 3.760421989222080, 8.161553067194008, -2.363764504260367};
	double * mw = mainWeights;
	double spaceWeights[] = {0.100133558020368, -0.843559791996334, -0.863457860174685, -0.661551995785683, 0.417968015120412, -0.174424455608818, 0.513467472547901, 0.012804508210162, -0.381031471602464, 0.816466564840147, -0.538010567567920, 0.274644891520162, -0.324171830262950, -0.449290971328294, -0.258151213444359, -0.189591140454244, 0.427484879852777, 0.388101633098110, -0.648917395415414, -0.546983126650214, 0.444604714310473, -0.186599602963083, 0.806891276471162, -0.123374098352122, -0.219083661463814, -1.172120848350993, -0.719438448104000, -0.257106634024975, -0.028810993877744, -0.062608628628381, 0.334142264178627, 0.550742643340318, 0.557141686741107, 0.111669554602292, -0.775571632606661, -1.001423506208970, -0.015259659227862, 0.106633055104805, 0.290480368788374, -0.604798422848552, -0.525090716695424, -1.148122354561720, -0.028220875433311, 0.757103624142879, 0.384880775656865, 0.248120474223471, -0.159008036343155, -0.392002117981234, 1.702892785929690, -0.612237306568619, 0.643565053457064, -0.532639178686026, -0.616648499197685, -0.834768500227085, -0.483873870593292, 0.167077889740773, -0.004721561264398, 0.359380794247612, 0.843199243125057, 0.953942197719278, 0.242251020597858, -0.149222802367917, 0.399983362552057, 0.272490291590617, -0.252710213352808, 0.168549565215021, -0.262435828411294, 0.319292183157173, -0.132457510900479, -0.100010261904816, -0.802198699194003, 0.756123744923638, 0.975364890127261, -0.644949243235285, 0.701990019207531, -0.739022474779932, 0.176501210546272, -0.597814402813046, -0.428400778924730, -0.533876147429246, 1.223580990003304, -0.839224796177002, -0.268787397428159, 0.423568730554824, 0.272889128616088, -0.527722547551708, -0.293807394713321, -0.461064587259223, -0.759651259754704, -0.184124221724663, 0.065630079013174, -0.830381914942600, -0.805593899505290, -0.945154818561469, -0.674549098623376, 0.779364866611422, 0.227120034120987, 0.247174694700552, 0.586051683183744, -0.696956230379076, -0.167431214987886, 0.550396387263947, 0.251608608030040, 0.417210048646605, -0.490096610916490, -0.786106204221658, 0.094425751247248, 0.231630556628388, -1.074099836422613, 0.106699977604463, 0.250134201560299, -0.510724252815633, 0.787772603018944, 0.707507804725892, 0.049588040000240, -0.384649919002272, -0.060757854071364, 0.759172400252824, -0.305993580510788, -0.978940471745971, 0.096737856289866, -0.556284023329681, 0.094601624825408, -0.118364839000524, -0.041049453744984, -1.416531409909885, -0.606303009337171, 0.756337023878520, 0.341641490457371, -0.548418297896490, 0.533945711405466, 0.194609449511983, 0.418264911678383, 0.865397109371575, -0.026243975994689, 0.034228372218435, 0.756007460858328, -0.802700799372436, -0.087108786352430, -0.698376836491877, -0.318385225845627, 0.507290163483364, 0.529630279043554, -0.487145904009492, 0.962757093953194, -0.543010204262596, 0.042492097719637, 0.420386563097054, 0.493581254041924, -0.229696737801550, -0.080464434158769, 0.961056294549838, 0.114349220258813, 0.286730271657280, -0.173764070569776, 0.449710624176202, -0.325590086575223, 0.847613491517535, -0.599029377733586, 0.964695815892767, 0.042607295065684, -0.448279970510573, 0.552701232233299, 0.406800223547558, -0.721428843955851, 1.295625085098376, 0.771345996528399, -0.794186420586101, -0.100744743475394, 0.110721962061569, 0.033652437243511, -0.143215525836063, -0.436417682027387, 0.166472797960934, 0.716571754197272, 0.734602253838017, -0.746593299129654, 0.764348101333165, -0.775593680698676, -0.010701167473080, 0.471532784133087, 0.027859533905740, 0.423220226212618, -1.009866960072747, -0.532211656788555, 0.514500078056907, 0.190570969556534, -0.570103266983948, 0.701033069659186, 0.428878156458383, -0.625785935348897, -0.266803177210432, 0.203661473149133, -0.484457162296057, 0.796283134237094, -0.193963361421978, 0.687624165106140, 0.447721507091969, 0.853787806728428, 0.428841840318972, -0.946590256794325, 0.107377407032765, -0.728783703886321, -0.242205559892906, 0.022894404477281, 0.565375508860314, 0.751609921154802, -0.896184402929357, -0.369555636788171, 0.680507900463267, 0.120553706474379, 0.762235624504266, 0.642142820495868, 0.982782507511022, 0.961250113714918, 0.457999242380258, 0.311975946517901, 0.751723203039336, 0.391880474341147, 1.230746364220490, 0.899566705811975, 1.185217444471747, -0.820546410585895, -0.356940397169227, 0.403192357680665, 0.249624471428543, 0.850830360820845, 0.981086756494649, 0.382075030154763, 0.796855884108153, 1.153746979727572, 0.205452329778599, 0.909545687610024, 0.453814361785600, 0.354568565814138, 1.395825469756728, -0.163183147061725, -0.562203207317053, -0.724482337677393, -0.555103013252647, -0.948091294725133, -0.288578643698614, 0.296354643334268, -0.558175420143396, 0.331972575386493, 0.956224841345222, -0.179858776055663, 1.112120163036269, 1.752520835645976, 1.498384163535598, 0.350306747949794, 0.791999230605542, -1.141667782138813, 0.754377200483813, -0.045152699491418, 0.554771588870218, 0.723054052156082, 0.861894527082288, -0.023203284740534, 0.899493330756717, -0.752433423761828, 0.283967407988489, -0.023809301374730, -0.321830224172875, -0.791318599362199, 0.221995896517210, 0.399384543082880, 0.651022781515749, 0.477757594528654, -1.407187724653689, 0.790661889409238, 0.918280003008660, 0.750533806988279, 0.712946190324155, 0.148818609173589, 0.199366045398040, -0.941247759630626, 0.255070979452095, -0.258307916863600, 0.386218958486176, -0.248687212151357, -0.602433354445008, -0.895263495139245, -0.145436626027169, 0.923042000814222, -0.064892620957395, 0.052611995272048, -0.598858818461547, 0.780004030715291, -0.359318312412425, -0.724335521442142, 0.404268134959533, -0.469588473905414, -0.440624154007418, 0.199098269630793, 0.352158438779906, 1.064656989928525, -0.374809591456694, -0.080782723003443, 0.987145787165400, -0.223815182278945, 0.244195651367619, -0.162358455202356, -0.347705962092101, 0.392243506936540, 0.761415758435281, 0.947303752040833, 0.517295637833151, 0.997245442460320, -0.810359035783576, -1.058281716540863, 0.864396765223552, -0.277575804609294, 0.917716335595236, 0.069759910255666, -0.779304703578487, 0.564107663804038, -0.791544840680990, -1.174567322030976, -0.775891226109333, -0.507235669519462, 0.424859610983633, -0.734403339839779, -0.300426251076617, -0.707583713913345, -0.609886339146066, 0.237375606696611, -0.725396101184493, -0.803601516426409, -1.040144945449610, -0.736960886342819, 0.300812275800469, 0.122901536767277, 1.057513592579989, 0.838549315143015, 0.683233589110110, -0.723841265728361, 1.083332552650176, -0.697216531383631, 0.266979839047818, 0.471936635690278, -0.736752292701937, -1.409150366867196, -0.782958273333613, -0.260569005359737, 0.109472578007733, 0.836447746072033, 0.431453373014536, -0.307043132608350, 0.474960010424782, -0.940192262697766, -1.162637026688329, 0.145471145937090, 0.810641403302434, -0.743238562239501, -0.689041469916722, -0.777247823820893, 0.460373049232424, -0.814386832888846, -1.220807033043451, -0.520352012333517, 0.881593819375354, 0.974621002213306, 0.053576886989325, -0.336833259793174, -0.226076224924946, 0.273848291049834, 0.663253196825743, 0.930297287818638, -0.923846503657264, 0.719599608335589, -0.615137002586800, 0.303169489367220, -0.106889640397348, -0.774939759632068, -0.767605143329999, -0.101428659235712, 0.495778934597709, -0.413278259736086, 0.837914905110251, 0.849305343991315, -0.638251320691914, -0.541940225208778, 0.645209468123493, -0.680831465293854, 0.670330949888408, 0.926659426703043, 0.513646971471175, -0.419255620640732, 0.326699397961268, 0.971946465456543, -0.933820606095355, 0.044010102214824, -0.265938253434850, 0.199988511360467, 0.022986487591508, 0.115027696269428, 0.555951848850654, -0.010383075967139, 0.002526325559984, 0.093213271056131, 0.160600596640741, -0.977014521367699, 0.898380658096830, -0.436421032516131, -0.830759864108403, -0.640759720478002, 0.971331856573907, 0.709556380561411, -0.214737722749883, -1.816038522167988, -0.430390708792330, 0.477097082898414, -0.935276270095406, -0.339426833603578, -0.577239671823192, 0.116520302400901, -0.656388635837156, 0.244667398775168, 0.125510461298446, 0.842401095341389, 0.391608024068367, -0.547225853213562, -0.271586656325686, -0.362346859999582, -0.289039780839145, -0.573596294657164, -0.888725299838881, -0.478514972000281, -1.171523315977280, 0.543799614916899, -0.195831453666754, -0.811759438625072, 0.645334348111434, 0.302841522624223, 0.891715823595734, 0.707301958654417, -0.989958261663786, -0.099873922552102, -0.120521143087919, 0.940802943320709, 0.320015563132066, 0.525513248207092, -0.620810556244201, -0.917945588054518, 0.250388983649600, 0.224382673501687, -0.140315942565428, -0.587701419731133, 0.116823927958915, -0.486996291269577, -0.245969409665091, 0.785342676289098, 0.704966665830015, 0.742656658827925, 0.049240374583949, -0.251454319979607, -0.432858409089800, 0.393610750050552, 0.173779558514530, 0.083702413601994, 0.185420539365157, 0.532260397360735, 0.416479088352378, -0.259049866601656, 1.018044632780321, -0.884422924415195, 0.232055477275169, 0.635223209411810, -0.755886867172270, -0.373295509072999, -0.771291463737889, -0.190332152305028, 0.460393253146144, 0.582209326318774, -0.737596429499243, -0.607500512501602, -0.640975410350070, 0.886215950951053, 0.269175595359301, -0.623076026632884, 1.111535497367967, -0.582262218692442, 0.201338578669141, 0.137749851142742, 0.462580179716422, 0.624944632402349, -0.235089866752278, -0.474676109795824, 0.457588535143561, 0.353811011607187, -0.384200657522382, 0.154476599150836, -0.563868264331012, 0.458208222098014, 0.885932905904403, -0.051998946717986, 0.678667020630095, 0.079052808486602, 0.971319692402347, -0.190996917514034, 0.412061075426922, 0.725103061324705, -0.034836561184981, 1.329865773052023, 0.659983862867045, -0.089576714850440, 0.181024116694218, -0.429888749285426, 0.127694970976714, 0.560458251607816, 0.281195282058531, 1.181156538307673, 0.142410257264100, 0.283440246384043, 0.516235436666831, 0.696782938726830, -0.720093307404573, -0.841092305012988, 0.078852722436304, 0.058243285182555, -0.482747982336507, -0.386714869198020, 0.135072748531812, 0.335342327766641, 1.090524806343956, 0.627573727393704, 0.316984553717167, 0.227301618054809, -0.325267415581293, -1.050050961748075, 0.597306515118916, -0.784502512048988, 0.663562950186628, 0.586235082997712, 0.162669642590616, -0.637156229185649, -0.097589959004923, 0.584087939665843, 1.786442923825478, 1.293006690436640, 1.829413667814336, 1.650722302604933, 0.602927884048395, -1.289923920122346, -0.713861635030247, -0.135143477207450, 0.440000199995908, 0.819964360496886, 0.790942263985872, 0.752390669303556, 0.631561268290243, -0.179966056928627, 0.694230206396949, -0.843501475398618, 0.400624021822240, 0.252374133359662, 0.033565342934985, 0.308629684237810, -0.436116413583511, -0.145349597146151, 0.594685554673894, -0.847876355228428, -0.823666936144178, -0.288231230950446, 0.744584391294801, -0.351957155996649, -0.664944924412003, -0.213720378224741, 0.091711142951971, 1.059535646002879, 0.937811356537581, 0.477742719778101, 1.685967275140295, -0.047084615473959, -0.341661280078536, -0.758332739372023, -0.116699847761782, -0.816430609097001, 0.668437677784108, 0.023085497578021, -0.601252050857244, 0.916127285811278, -0.024504902647381, -0.683927806523161, -1.238846141487231, -0.612075691849038, -0.860077940572211, -0.272765501143864, 0.048477134626021, 0.663810029812694, 0.112531881992796, -0.847128900308823, 1.649106760233436, -0.346512418074548, 0.431793801947342, -0.792211691778563, -0.379120720970013, -0.260414818561696, 0.329747807781407, -0.550899985162239, -0.805694813050381, 0.618781674532450, -0.470759934605996, -0.359764572678409, 0.764303576177553, -0.307204848672005, 1.199431111234709, -0.786036776122870, 0.562459459440451, 1.034939990113852, 0.835764743484541, -0.600639498873022, 0.038042880570411, 1.022457699859496, 0.812340633764870, 1.444211942323047, 0.200912617704710, -0.038939738036895, 0.544643193838735, 1.026589937018312, 0.892285693406254, 0.163500885560268, 0.166212372270332, 0.797452363605658, 0.608220352619146, -0.269189422962013, -0.035168801972933, 0.193120683086347, -0.165778494648374, 0.234712119667802, -0.581124868348355, -1.323506266781112, 0.005608731757962, -0.358574706742744, 1.073706030200153, 0.892820498016375, 0.079614614637739, 0.484129445046524, 0.484814368698918, -0.152449843092500, -0.329920224907947, 0.779239037093389, -0.694297497056420, 0.443529791859492, -1.657851580613694, 0.529452751448515, -0.894056776877808, -0.721200249169009, -0.556685397546040, 0.301054821918346, 0.243187356656278, 0.907580111625720, -0.803384588477499, -0.453237070556623, 0.109217866362209, -0.233671366731086, 1.106999585708913, -0.355956708368536, 0.263488015725674, -0.459290001584180, 0.371051251575309, -0.149498674556138, 0.545034134774447, -0.638725597753557, -0.971704913897722, 0.467578986300190, -0.551976629312502, 0.317756112191325, -0.901913084631912, -0.752286761918286, -0.297283365570532, 0.627284369102125, -0.754343817140102, 0.386642794791408, 0.394871725607443, -0.644736708348665, 0.654608769789519, 0.512729161195458, -0.528249534036183, -0.030753542814373, 1.615248348476094, 1.346108481479244, -0.191332675263213, -0.325865598401222, -0.237116750570308, 0.272994540119262, 0.186916534413016, -0.480593992037702, 0.302040791507456, 0.288276536432206, -0.279027322407523, 0.143752493822016, -0.936281120211397, -0.095952913889147, 0.539802065257270, 0.114721181070092, -0.303841725875765, -0.288767126588311, -0.188140671044676, 0.373954124913688, 1.058752713879570, -1.701110969618399, -0.376172909301288, -0.823503176607837, 0.488958754323733, -0.434263398863321, 1.072873611988426, 0.229722682574387, -0.942171290794931, 0.302561658807098, -0.075051865363781, -0.037976207962129, 0.649655297732965, 0.042439843161451, 0.559665885108990, -0.677798717302915, 0.551853739583193, -1.226730905822764, -0.574276530430571, -0.749901963634973, 0.733207394625885, 0.363772605350224, -0.235694296593699, -0.837846972202939, -0.345381200888970, -0.873735190715421, 0.237924163253850, 0.581202731713301, 0.518544476705886, -0.433224568561118, -0.903405916401995, -0.423722651023714, 0.085300365962786, 0.295723356676275, -0.364919971785638, 0.615629261789523, 1.016208082478414, 0.725715040573784, 0.309905108544999, 0.336015385817535, -1.112419315048304, -0.685378134599087, 0.675450466236248, -1.045792561863983, -0.126580347520412, -1.041716323743654, -1.201941432788991, 0.125015838611004, 0.299322429969977, -0.090599557471298, -0.439723885781349, 0.407870967380062, 0.434030668133193, -0.025661674653714, 0.678679287809032, 0.522343198331549, 0.677873430881300, 0.373138200050219, -0.495848910217446, -0.467842158440574, 0.497185586799444, 0.174639134465162, -0.744173666878567, -0.797811408723392, -0.108459337571566, -0.632100020089508, 0.730953616161527, -0.520150818331651, -0.700428954809338, 0.863181390937634, -0.232647612230584, -0.937808292182953, -0.183879034087939, -0.398918600014239, 0.071356816511419, -0.792267817019631, 0.119844940381253, -0.470422237615420, -0.169140123702302, 0.139767882531033, 0.214970519512356, 0.183948761541056, 0.306802593373458, 0.522064192103903, -0.036591028375120, 0.538857606459770, -0.414157175800882, 1.084163360063970, -0.426183943462288, 0.281198674538512, 0.644405284017577, 0.555079748194237, 0.773116313636175, 1.054643775572186, 0.265918786619513, 0.152621309624799, -0.348994618381621, -0.138528123021505, 0.264428651832986, -0.444420064316435, -0.057225737997735, -1.404308929441851, -0.473503403886519, -0.107887945492716, -0.270487006860247, 0.856237267300082, -0.131062494881963, -0.074315801104131, 0.568496293159072, 0.683208175496807, -0.716523859180809, 1.000456943655242, -0.331250505557109, 0.786008006049924, -0.499360756192084, 0.238648638289066, -0.794340928356814, -0.490012250094562, -0.625673255068791, 0.288819004018824, -0.544221689051260, -0.926314180859891, -0.913215797425451, -0.786890950534707, -0.978898465715372, -0.084982988276326, 0.599304257679599, 0.648057240620926, -0.366432414111721, 1.375683648133983, -0.329801098396953, -0.322943825349088, 0.761893621080108, 0.124217539195771, -0.979588417531324, 0.600033729431746, -0.055067510430469, 0.868480111592890, -0.483003105739135, 0.463880857627631, -0.460290557945178, 0.957923413562905, -0.486109143050215, 0.512903729435864, -0.289754722885572, -0.088367034216746, 0.557938305453016, 0.109166670366432, 0.080960961156392, -0.045388047920849, -0.892711234315677, 0.656070845626815, -0.115133602307139, -0.024276853937607, -1.021136304305439, -0.103365052472553, -0.597248724113954, -0.316697807908955, -0.681544178460062, -1.087236657399101, 0.768855182957125, 0.819711684479621, -0.396787156004885, 0.601257464539790, 0.489063650985965, 1.172178930524498, 0.717723046434117, -0.732835949529374, 0.265885183151065, 0.143056005285021, -0.047705885232606, -0.603356896044268, -1.322830027826192, 0.639388282374736, 0.558296683844363, -1.062672124267624, 0.791087396380030, -0.539655496663204, 1.741703776714041, -0.734572075253486, 0.180237769915276, -0.023008958015426, -0.161879768008269, 0.654300175515955, 0.121863638189850, 0.156435850657131, -1.171923358352029, -0.297204844755999, -0.495738167812770, -0.873784751104268, -1.159047145576043, -0.329647894988753, 0.928318901918825, -1.289725629957887, 0.087532121228122, -0.649609544770701, -0.699073930830817, -0.086396073966451, 0.005087237937940, 0.682511844832461, -0.873565413329526, -0.798661658719399, -0.844058096830662, -0.726927346771402, -1.191373297493206, -0.058162729924336, -0.335217017927550, 0.956032463035354, -0.172578998842367, 0.107594901397422, -0.514110921883761, 0.221041052851420, -0.658715680242625, -0.253381059737693, 0.556720081311247, -0.898956418268183, -0.110353582651254, -0.067959778393504, 0.858059004303829, 1.033095637021412, -1.852238119173310, 0.193120735394080, 0.171861047128333, 0.857691493397524, -0.521115850843495, -1.035166151103647, -0.705369020639814, -0.307533388820166, 0.954895563300938, 0.369158659577926, 0.415084002803497, -0.189655021076042, 0.082218461148368, -0.021098477537765, 0.367170730988326, 0.069626260334586, -0.775408212080432, 0.724237606621799, 1.009753448143397, -0.207393401983675, -0.218071567889683, 0.275218045031839, 0.114883305360255, -0.377693713102442, -0.325255459917242, 1.088900407199511, -0.897370857415664, -0.664855996445358, 0.449210932480728, 0.848075317382673, -0.740335362419325, 0.070671647884298, -0.288590967023651, 2.060501244585801, -0.802694832820970, -0.125750720585404, -0.395149285463171, -0.314333638518151, -1.184306746394497, -0.939442647711429, -0.311607351206334, 0.166110988884651, -0.106043194582135, 0.410435494780592, -0.371089309210399, -0.408028664925379, 0.856878804564767, -0.732950780330702, -0.088974077485766, -0.576502899087166, 0.376330879498859, -0.511829743351996, -0.779503733343217, -0.375045932253689, 0.565958748785931, -0.568648159592276, -0.569576550321770, 0.520275595869968, -0.292650989493184, 0.182342412905174, 0.169945914697382, 0.066052134918405, -0.843157911777578, 0.135200936734592, 0.788821406097647, 1.037751648071918, 0.666706153923276, -0.386393517203708, 0.850699151757603, -0.318885438126197, 0.904683430915820, -0.510125531986505, 0.114062250124689, 0.553188101213298, -0.364826879091559, 1.594012820720985, 0.153263438850883, 0.440301246997159, 0.585180168054978, -0.428957297967912, 0.213027626032326, 0.940754074373649, -1.360027114418488, -0.798610526927725, -0.041669795650871, 0.138341338039500, -0.156133460165162, -0.771485897400475, 0.974176272912636, 0.771604359597563, 1.068237742332200, 0.153155193374751, 1.289615953781991, 0.202637198002978, -0.422906043622527, -0.982157888605758, 0.803981076573643, -0.089763503221482, -0.699438312005290, 0.154483920869025, 0.040736900947236, -0.085387044005885, -0.118729347285280, 0.369772721245108, 0.859648173711930, -0.027782265198118, 0.317050370581871, 0.554708320855674, -0.021175952956592, -0.378486661901531, 0.454885462874472, 0.395740734106162, 0.281790085866936, -0.119822926184537, -0.354506108827913, 0.078029508983944, 0.316252204665614, -0.747858014077825, -0.171870280786433, -1.269663837961399, 0.415080822283665, -0.247077998335146, -0.469252489550711, 0.738049625891281, 0.537504373005900, 0.421578486785879, 0.164133404470446, 0.709782968942675, -1.095339170676267, -0.061841211426992, 0.754865920163457, -0.669794481287244, -0.469529475205801, -1.750577946038012, -0.552064728241197, -0.435263522906709, -0.916457138835315, 0.664139447234290, -0.090576770319373, 1.026169523823281, -0.003841439574226, 0.071475621537632, -0.087539249745923, -1.190080271816864, -0.867254117070575, -0.144140581719356, -0.087019256826683, -0.432853563243196, -1.111243704859915, -0.329479727021627, -0.299408126445175, -0.144807357745158, 0.433498233689085, 1.553322028219659, 0.941489108166080, 0.909314096006149, 0.423013013436854, 0.710845797262523, 0.420204591998389, -0.687702667861033, 0.318638937650693, 0.659425107554405, -0.427348443900025, 0.444965591414650, -0.520216766042778, -0.264657913717392, -0.281788647994148, 0.301407738184149, 1.023776429900485, -0.276840468808228, 0.252641427403140, -0.448654686057133, -0.807789194156297, 0.572750203987974, 0.129107084113790, 0.039878412501980, -0.093183006228750, 1.410962546150571, 0.855191102739358, 1.012785532305325, -0.935806156843169, 0.490206241773580, -1.248245745944244, -0.199852329855392, -0.192519660007872, -0.743056626315441, 0.197969314283221, 0.598658368582910, 0.214160066912650, -0.674066560953456, -0.336052841951818, -0.032499750743772, -0.469661616937289, -0.145958523729427, -0.360292772964675, 0.263472292344713, -0.867616741230693, -0.701683294409495, 0.512732243762864, 0.002949688225788, 0.186255193854200, 0.171426242304158, -0.033556062827866, -0.481371358083573, 0.614743103249965, -0.935136277888504, -0.322548526859048, 0.164043319851747, 0.541620299325222, 0.783434495006705, 0.156369936811491, 0.417791396863910, 0.159466070783807, 0.408301022917470, -0.268844934824465, -0.848235770621352, -0.338903803320257, -0.396018452014195, -0.703800551590423, 0.671750318459157, 0.925220966637291, -0.184193185530092, -0.161282959828867, 0.440584822224087, 0.858293292195028, 0.138195995343971, 0.292205784505542, 0.302698655962218, 0.466891657212756, -0.172407396224740, -0.146088229306548, 0.654679752821348, 0.296238663504721, -0.413132124314494, 0.710790208282602, -0.618660478617006, -0.657745730222237, 0.444870901219251, 0.407006640807564, 0.308968288077234, 0.341507319747702, 0.962825403476823, -0.279864311136186, 0.130788960198923, -0.177421579423153, 0.451436946574550, 0.978944775949174, 0.510157651476979, -0.039621433768629, 0.046592152402826, 0.460665737488708, 0.177511550495837, -0.108234233933364, 0.521218463321914, -0.032444381126523, 1.121281104576665, 0.508831665624549, -0.707799171018809, 0.214064132044716, 0.865928037417409, 0.828003035694245, -0.691407565225975, 0.177720982871823, -0.720976100962504, 0.607372883955978, 0.131686414939204, -0.124515661656092, 0.489948675800960, 0.886829105013862, 1.079483006325856, 0.291786544670010, -0.504434937151086, -0.145767900880972, 0.640850424041207, 0.284392361037228, -0.747396336217064, -0.271491742890503, -0.425237152418076, 0.681116910611456, 0.638798959996900, -0.406154796759483, 0.126141385713543, -0.982853177203324, 0.686392402228555, 0.990653598544118, -0.924543419356976, -0.921147326906841, 0.581489854756509, -0.064075032581163, -0.453469408717619, -0.457212842173960, 0.986862343508524, 0.782364366201824, -0.474031711601016, -0.053669723941336, 1.564203534349115, 1.148738353023439, 0.620340874836306, -0.274264591229762, 0.314279011217753, 0.702645503717210, -0.608127297511835, 0.513065335891945, 0.584966094022800, -0.387056192616440, -1.102137129749591, -0.948605142945010, -0.809103260604520, -0.455789071838744, 0.025068191754301, -0.201598390903415, 0.503592374595746, -0.484678655556842, 0.545234465552829, -0.998318582444893, 0.315164239982389, -0.709504551811538, 0.591500941683617, 0.965071572489748, -1.060162150028783, -0.875429390451350, -0.076775491909513, 0.405070151561035, -0.771976523173860, 0.252769612352436, -0.329959044875357, -1.617853979825245, 0.168693406665179, -0.983536649022419, -0.579658859983914, 0.827412142817252, 0.149489274447743, 0.176632596815921, 1.051610771806587, 0.181846419879827, 0.304885584556727, -0.218221223240082, -0.491953198028913, -0.843180592918991, -0.473202047967909, 0.100153407229993, 0.090219150094477, -0.007725926709120, 0.585125760585397, -0.021771437679182, 0.319097980131367, 0.475524462241738, 0.174202201082374, 0.146519965767878, 0.154182558389106, 0.928660570701646, -0.839203882688626, 0.112298756249429, -0.036232702871040, -0.349326693735079, 0.540104670188156, -1.155279421306508, 0.014844650006118, -0.752736628822933, 0.529824722490731, 0.408278893706398, -1.012532295546364, 0.834640374891189, -0.464630642079477, -0.458724003941780, -0.650441280469928, -0.803522124001530, 0.163564912439256, -0.582153453953031, -0.228780054291504, 0.507199540929606, -0.562047331447652, -0.673906499295476, -0.983093478108149, 0.002248313686387, -0.005712967699490, -0.176133374174926, 0.237089321005253, 0.838551016988011, -0.412455499934342, 0.436087588706974, -0.820529776163197, -0.824012507819719, 0.718915901841774, 0.802033271333133, 0.103235952367906, -0.317005808472627, -0.709594485465681, 0.450618038180727, -0.320366623475893, -0.636708689145356, -0.810401402984782, -0.977062003273183, -0.448345091772365, 0.795649715473887, 0.126309584286877, -0.206957264384518, 0.835565982935328, -0.515822009345187, 0.476198866866134, -0.098229089117513, -0.219879461423504, 0.181227153729806, 0.517275657671795, 0.118464154201012, 0.028205652422170, -0.340906709789974, -0.644919775056518, -0.813067843935139, -0.892074385479385, -0.437920059718540, 0.041680388250576, 0.259926125451279, -0.014589700233818, -0.882747292594503, 1.063728295571598, -0.269697378592341, 0.161145429627636, 0.403472976437784, 0.181297277831166, -0.539713140878495, -0.045167349122465, 0.490405377614154, -0.748688279539033, -0.169456348380470, -1.660386870144389, -0.218435334698826, 0.527825485265100, -0.572842368731855, 0.859960873839826, -0.590899490248964, -0.705088976914742, 0.963838117456189, -1.093274031804897, -0.621124635001170, 0.525563501946222, 0.718058594614562, 0.265338767661983, -0.089646105334465, 0.646350169491106, -0.459055140812523, -0.112404113121739, -0.644084729007809, -0.288005607636624, -0.230534181567149, -0.511233179905934, -1.050099632036867, -0.872203083325468, 0.803101484849220, -0.558818749001390, 0.567238751782254, 0.381969546409853, 0.491017122499221, 0.692599224811474, 0.893199597605686, 0.691950069289117, 0.652148836850345, 0.303998150795358, -0.128953553399663, -0.701781858315297, -0.835291651025507, -0.680285236007780, -0.893633000016094, -0.215573423828793, -0.376132573863496, 0.825833247961251, -1.244989421605740, 0.542512504199507, 0.986673086908908, 0.708198831661137, -0.090770072919884, -0.472849387490424, -0.324186039584683, -0.602222900008562, -0.547686976624149, -1.284234703419138, -0.278440579490947, -0.805252902031353, 0.883818756982428, -0.311302438306594, -0.309284148020830, 0.259345271322314, 0.241361368638797, 0.686086807583410, -0.755179250934077, 0.956412316609255, 0.518855337767685, 0.459434097189055, -0.932427352877206, -0.599431755245931, -0.400345384289280, -0.097255105301128, 0.279153191548886, -0.352891369655015, 0.280441585948166, -0.178095405244141, 0.270131059938284, -0.227213021322494, -0.795863335135208, -0.346782517134110, -1.090530409538016, 1.111438713239133, 1.189944339495914, 0.905372759822364, -0.407769219703411, 0.823190855849855, -0.645847527677104, 0.260746151353506, -0.203999998390295, -1.034207533961120, -0.280920414881076, 0.317102340428351, -0.496326400090895, 0.398121484746891, 0.608595747956581, 0.125092087666587, -0.731496179521682, 0.043461488334064, 0.012684310407271, 1.003456096504267, 0.101506016033992, -0.362438083028049, 0.022101895753875, 0.165146179341345, 0.151098013029584, -0.277433843641467, -0.728748976949140, 0.149794185349193, -0.319678930361576, -0.651134760455654, -0.527105342495659, 0.741827643611372, -0.537970552880391, -0.774377126434349, -0.053145519058966, 0.816975900344544, 0.665132893901069, 0.112130936171233, 0.161461273717953, 0.476234408886659, 0.066481386246521, 0.839326062528213, -0.495129428489232, 0.440673121497376, -0.616689146280306, -1.311869974335875, -0.722382728231316, 0.326402497113432, -0.356085841263903, -1.193412130439403, -0.166617228742851, -0.083934561645216, 0.088004127924510, 0.397213280868609, 0.725601454289125, 0.681094092492243, -0.043390717158995, -0.338549004753184, -0.241447593913662, 0.335033713605965, -0.250090807655472, -0.912373304773740, -0.647272669126211, 0.522202122823472, 0.747693363799367, -0.719701274881474, 0.382366538171921, -1.045137405292913, -0.697900254474383, -0.039302533846238, -0.301071811571045, 0.910465659594178, -0.769415876909886, -0.808491630312138, -0.199439368494265, -0.204946281066969, 0.113973419759556, 0.260101006138717, -0.319311811064242, -0.459946791797688, -0.006302777380623, -0.084176322410268, -0.693784283307109, -0.846080780869892, 0.822332463383153, -0.205881480255186, -0.826562109326638, -0.709881009682234, -0.445203421695979, 0.471124089359364, 0.533612857737677, -1.289212468238741, -0.135579156025099, -0.777301516497078, -0.805432519006444, 0.347020590745046, 0.429013988248622, -0.249851702712141, -0.971910527823889, 1.315354273498190, -0.592005160368417, -0.880547904255174, -1.533145495160687, -0.780031852333887, 0.376841058819029, -0.843069153710814, 0.545947033555919, 0.201154764137959, -0.248887251558405, 0.577626783566626, -1.042987334651858, -0.661215285562397, 0.016596450257404, 0.876051331750362, 0.190359215468430, 0.141910447617953, -0.295440641924979, -0.062292395058524, 0.171119488899386, -0.415869670611394, -0.241244645319300, -0.260806654681542, -0.718401185764618, -0.351812849938967, -0.840041916866963, 0.712418794669670, -0.006919623935926, -0.174447520026831, -0.372903398513785, 0.544512349648014, 0.578286140443769, 0.578653125697536, 0.478581506118596, 0.136553114764741, 0.517690405410711, -1.001646370740756, 1.011797604588445, -0.143778984340069, -0.634639160768208, -0.769708037009384, 0.372016801061800, -0.130352375923787, -0.420594427205910, 1.226449534544837, 0.690546952716824, 0.169460823602363, 0.128341443133151, 1.072687983495022, -0.351986661514031, 0.615268963330473, -0.534334868928055, 0.191275738895788, -1.002704660155136, -0.143622026908428, 0.517537410994320, -0.734450238169702, 0.922968477258839, 1.285631073295392, 0.544812719382183, 1.209492463342832, 0.618127854367818, 0.927023626651617, 0.342037592947263, 0.439189140742031, 0.178568796745973, -0.142198564058218, 1.113120764377027, 1.408001338789647, -0.253984123457158, 0.148821789803615, -0.652843784140223, -0.050411837498510, 0.896569490943414, -0.173238551799769, -0.193627842959613, 0.047520798254173, 0.610933287573787, 0.726087173923322, 0.185808143087701, -0.439732215609331, 0.164979853502150, 0.743856931769954, 1.183943931134714, 0.047693795451723, 0.180604746109856, 1.764771947747143, -0.021522694072823, -0.291433491545614, 0.762079151659369, -0.333511973584699, 1.460251280209608, 0.606863431841466, 0.372560441189186, 1.140128239420347, 0.829554323830226, -1.475314304795769, -1.150075002671617, -0.322302739236618, 0.133141779540929, 0.446009604820269, -0.017322571944488, 0.750278692289288, 0.872461928187727, 0.268202387088007, 0.515609050038816, 1.439406893911433, 0.522989240451495, 0.429502797801871, 0.152615522185887, 0.027842799440478, 1.276105897872457, -0.478411274082090, -1.664030952487134, 0.268163924151349, 0.452491539532855, -0.474297252437324, -0.282800349189311, -0.066348627983115, -0.225709298188746, -0.099890844685323, 0.522346911478453, -0.195050693874717, -0.507428629931178, -0.415747185329118, -0.023121989696797, 1.118155824580891, 0.311544667950256, -0.601490791917199, 0.721914773325511, 0.495468363400290, 0.598223301572151, -0.114107174705598, 0.155018995279406, 0.111753977117389, -0.146184985202115, 0.517567931739977, 0.013206682439691, 0.438766094300524, 0.113803321391022, 0.493591182461330, 1.108878077836199, 0.019645877146256, 0.148935379788599, -0.135771093627546, 1.786530093504702, 0.960539195693530, -1.645396928805612, 0.055954148937466, 0.003859576698217, 0.126445332557671, -0.117948066844145, -0.537808292054201, 0.691675394056108, -0.642409828205811, -1.727022779859388, -0.224959411848185, 0.004670068813904, 0.203579964175932, -0.652543294989787, 0.376900549621560, -0.017555704081988, 0.665635582741381, -1.041899415155257, -0.331804289658367, -1.086691287524203, 0.729393293512491, 0.618080849433974, 0.631768228641673, -0.436735194850620, 0.383333149314045, -1.504240860545987, -0.401538385535425, 0.330367038764925, 0.773269520419491, 0.283055969225731, 0.120552139522435, -1.034766221718860, -1.211147388860788, 0.570335343028545, -0.833840727293529, -0.897156314279037, 0.517410849535126, 0.859789023190602, 0.561797328182533, 0.893412810379226, -0.263806907362460, -1.017838574606613, 0.266797425353256, -0.036729838988260, -1.551293539404206, 0.793371894635824, -1.239183980962115, -0.914720782517147, 0.224442335249937, -0.207379522005468, -0.635693766085203, 0.787857412098176, 1.046404089833977, -0.046408932657104, -0.672948113228519, -0.292577805547198, -0.512694979112952, -0.375982301604909, -0.409627931559583, 0.092880890676894, -0.073799427893695, 0.982641489794237, -0.157853534087581, 0.458994698308160, -0.002620652846350, 0.212905660623025, -0.858028070410555, -0.186474913471612, 0.502976902544101, -0.324722704177220, 0.170390325570245, 1.273990624863570, -0.022555865349302, 0.078709003817467, 0.126335209154079, -0.561443277501996, -1.401099612614507, -0.295103633734718, -0.344693921063012, -0.400223935133317, -1.712514389116932, -0.331517241660145, -1.109594753069513, 0.105589642284673, -0.582577826404368, 0.120354055999991, 1.551842510227378, -0.011081613243726, -0.772601402500345, -0.881295784011110, -0.132963150453321, 0.345322573099990, -0.004667125893542, -0.372702952384368, -1.909527961821995, -0.877512435997001, -0.430025373383492, 0.583595839887672, 0.963030678149939, -0.965066737412953, 0.202061886034463, 0.593176883247007, 0.404783694122688, 0.531113943879066, -0.231199637904445, -0.913607741264464, 1.225836786854370, -0.626357674894840, 0.587472360314724, 0.820419212429111, -0.608910255550711, -0.453987160895939, -1.099115654682261, 0.073152945257625, -0.089663998146850, -0.051657303288453, 0.342042065814296, -0.344327173427993, -0.154610233330819, -0.545618477109452, -0.841205155311345, -1.585399460044423, -0.135292044215200, -0.177867034540096, -0.935333055516677, -0.384966678939960, 1.096079052884119, -0.690993442146438, 0.829819021427538, -1.017789579075378, 0.063609775515859, -1.859044749430615, -1.133431943063829, -0.363339065054743, 0.019424080792492, 0.221090391410146, -0.440045670101307, 0.715779479004509, -0.127698021296351, 0.853867360214372, 0.045276289644241, -0.487402507610102, 0.013597690681883, -0.963820186524484, -0.542746298859422, 0.621266149298854, 0.021805377708400, -0.367813537416660, -0.562809896025084, 0.624300941403930, -0.643296977903494, -0.160419555079318, 0.954975873342799, -0.438714044372261, 0.176987099684422, 0.457800553118230, -1.097466403358183, -0.416990246070204, 0.131197395753570, -1.575257362480696, -1.169450820504065, 0.623807288360148, -1.215535482802040, -1.323765800819627, 0.598259286794024, 0.380436181978794, -0.713569479800427, 0.780584001345995, 0.920426692660140, 0.229441563557718, -0.548367054813985, -1.352934701795950, -1.330301101523263, -1.180939723860974, -1.176779704029398, -0.842009515465687, -0.466496894636405, -1.252444227938278, -0.603531141404214, -0.565348957212858, -0.579251829754657, -0.451400070597558, 0.855385093834467, 0.612227784154374, 0.443677865909582, -0.209703665520190, -0.866825098224590, 0.185359761220104, -0.709300824507976, 0.330184707067857, -0.959928226092304, 0.875283517839981, 0.315573095497268, 0.166897851525682, -0.868765990302115, -1.004569710242535, -0.970224668838791, 0.251761031750229, 0.889114274096176, 0.868436897835141, 0.159651784431925, 0.492986612239158, -0.663029746292618, -0.128443863636792, 0.515966159873976, -0.207076801359700, -0.396156282536642, 0.774170994038114, -0.130244125599047, 0.694146770863159, -0.398163487192882, -0.756391141035475, 0.206816720119551, -0.149429802470122, 0.620905000652693, 0.483668564859145, -0.552047998417075, -0.335963232440928, 0.047579949926612, -0.104146146850934, -0.006970846321836, -0.599771776727457, 0.090410982030826, 0.975340684521635, 1.314136238429168, -0.881143012700093, -0.534052064856751, 0.562500879392986, 0.385312652026799, 0.035670079471968, 0.233936883701269, 0.528904492641639, -0.071699424408706, 1.344637026549781, -1.009320580549313, -1.503033193615431, 0.501929567612207, 0.733393051961972, 0.805349057933055, 1.328997106861457, 0.799103497892181, 0.419229045549691, 0.956883800005312, -1.058582603784097, -0.731372882182559, -0.240817164494763, 1.159099167849137, 0.326994904525258, -0.554714133650017, 0.102633916463168, -0.096620511370410, 0.223620908703680, -0.737415463950341, -0.232163670206609, 0.481714357209809, -0.256712464085731, 0.144673759010660, 0.363388751346895, -0.444730317127198, -0.723427433182112, -0.293617990830780, 0.265679781896764, 0.400394988521126, 0.272119119932506, -1.069972447556479, -0.594164591860317, -0.765066194134993, -0.673291563671904, -0.979545883466302, -0.420884862438783, 1.047193885450613, 0.844981241658506, -0.412721802938125, -0.394976778879686, -0.558125134607557, -0.002202549425682, -0.504359600503390, 0.326434727931547, -0.847594130698477, 0.733341247607959, 0.586588429631173, -0.080427953589400, -0.874058862515746, 0.218027108527270, -0.288861883253233, 0.732938108892300, 0.117631669391164, 0.852964992138528, -0.545913109303030, -0.551651718125130, 0.116736052066476, 0.467987643929615, -0.786482462268373, 1.002225593722715, 0.291013834685455, 0.026714771084788, -0.129252745190007, -0.263349925384172, -0.494934539834696, 0.831938591400094, 0.427192251260231, 2.494814689469657, 0.491131334358501, 0.226289885948271, -0.768966081032775, -1.032857442624599, -0.341298465925258, 0.230493824996268, -0.768672325889547, 0.118349295588540, 0.227407196382413, 0.604644608605797, 1.426048303544504, 0.422280539887166, -0.358831026069154, -0.021047480838008, 0.137505929887234, 1.006519762765485, -0.740903203033153, 0.251258529934126, -1.247192363128154, 0.041119959769154, 0.297566516350282, 0.801004987761966, 0.315729588395867, 0.970363133068141, -0.217592033114659, -0.329214320442812, -0.789824266785646, 0.987354518586891, -0.607178644243431, 1.145446479084550, 0.145951308512120, -1.047866603555204, -0.305884927095039, 0.105996432425573, -0.336068650973184, 0.439629834028252, -0.962097629780386, 0.934740895443603, 0.940873058998124, 0.183813385221543, 1.418676791122179, -0.068663468060301, 0.359611010248638, 0.462998564451666, 0.107081295641637, 0.091126258141432, 0.433481162721044, 1.653315012700397, 0.921883195492503, 0.740554567207037, -0.478284894248067, 0.392903067870982, -0.099078112267580, -0.234460161758920, 0.776245202168013, 0.592325500213692, 0.113028391105457, 0.130821759663065, 0.073026298950808, 0.434772341356872, 0.798510777550430, 0.911860839005496, -0.231172474738094, 0.978493749600389, 0.448088646693811, -0.410239743692729, -0.323518945134747, -0.061790905877745, 1.275623021572485, 1.198783624367596, -0.103687671269269, 1.034377646713333, 0.098090881934826, 0.578454316396228, 0.884429562447404, 0.516024809099431, -0.455067683050056, -0.301824615797677, -0.630872461790953, -0.644385413959819, -0.193516679754293, -1.034081167390246, -0.263799492540509, -0.240466374014791, 0.932610403570378, 1.069860663691381, -0.414500830555347, -0.064321304996537, -0.286952515442148, 0.602112702612624, 0.954296301965630, -0.832427113105486, -0.607990970155323, -0.325412601185380, 0.825081095861706, -0.382581615683095, 0.906670333274804, -0.909253478626509, 0.795803706986404, -0.267830974322797, 0.021485505200276, 0.608678165545301, -0.027830832627118, -0.435531476770427, 0.666266528791053, 0.612523978905568, -0.535338957210172, 0.775245195299208, -0.420557398742532, -0.504533387103411, -0.092110805405764, -0.803024756038364, -0.115060191812814, 0.669698918305334, -0.376185634575986, -0.698280343489424, 0.594239031243208, 0.365408849418755, -0.236625459505565, -0.034088670968374, 0.559525784858403, 0.181567642033303, 0.210576322838303, -0.907711095498162, 0.077830938111812, -0.229863890238231, -0.386052702126344, 0.275608091309776, 0.684923458774146, 0.092097758462958, 0.237088380667365, 0.834811369333245, 0.260133017036324, -0.479198044893520, -0.091239928602999, 0.114432590277117, 0.227185676069899, -0.086297417678601, -0.709706053869462, -0.149018911244828, 0.805560833042949, -0.903496130854073, 0.805381527585864, -0.853875339272862, -0.850138107929547, -0.615882331823658, -0.181284246306531, -0.983190105912793, -0.186771702251013, 0.192138218626794, -0.033608827801091, 0.578817714972390, -0.739670357990703, -1.102855865024116, -0.689760054522939, 0.755466227880397, 0.686915587000526, -0.343242915124595, 0.569377147424746, -0.030734329985462, 0.097615292808825, -1.705592612230123, -0.951006542437068, -0.785437855434870, 0.628664703882425, -1.067743684567025, -0.974274100385723, -0.504153433697193, -0.773196526550646, 0.199441227382052, -0.038290181895068, -0.247094314036927, 0.723883977509311, -1.256840314989541, -0.526438535966376, 0.102262414913999, -1.462116980627169, 0.439237834751828, 1.084816466942242, -0.137499538175808, -0.896052096999464, -0.760331133031719, -0.801898609200517, -0.810357329733829, -0.918456551821135, 0.163279150005076, -0.337866650446825, -0.975499578209335, 0.352152220589791, -1.178186335193558, -0.271094907193938, 0.099097667733270, -0.306483114797652, -0.595602804337049, 0.487021590921707, 0.088525073823160, -0.068447939842457, 0.245373356345339, -0.928437447636933, -0.806352652713294, -0.252870926654743, 0.534444719784835, -1.137546714938291, -0.911028696073609, -0.067370288553400, -0.488244007656658, 0.266677303874245, -0.723423919311400, -1.005915788071225, 1.098136808269212, 0.263101860278260, 0.686691126980926, -0.224567938570332, -0.922220685397246, -0.582728294847221, -0.464321335948496, -1.190482297683017, 0.691598964672799, 0.693094213509320, -0.766429944545675, -0.783748453856153, -0.536451659500168, 0.057643157238307, -0.306286815621204, -0.036640071053866, 0.573187321117047, 0.471726880201045, 0.024314684362486, -0.102310153759787, 0.101042700732208, -0.396097861211843, -0.727672106675937, -1.061298855636362, 0.164552205962459, -1.443889687239663, -0.026258375932372, -0.047339371524715, -0.245622357599635, 0.307971979994615, 0.395310711551368, -0.379113982569036, 1.080049272873216, 0.776735471030125, 0.554108783424872, 0.052085128006639, -0.226208404301036, -0.965816090545665, 0.368148432723046, 0.036261104065737, 0.250809800067037, 0.214179526949652, -0.744936894505133, -1.404387537713602, -0.537652473621325, 0.339541812504946, 0.543706626100902, 1.071866195406445, 1.046044190829392, -0.157653496366612, 0.597034492378938, 0.003374682056487, 0.872997253669751, -0.036729655750237, -0.974369042994529, 0.453713017516511, -1.245953477448594, -0.732605969981239, -0.378070529612115, -0.645292684457670, -1.294912251881176, -0.814010027584768, 0.188782442882856, 0.797185403741876, 1.040150101621446, 0.856946021832960, 0.360258418976200, -0.692117268008229, 0.351786895780450, -0.311861068664521, 0.280395554656753, -0.095953340583203, 0.554657025551332, 0.387603264986826, 0.670550061223290, -1.600600680538053, 0.105308186006857, -0.732415915358187, -0.069153827883062, 0.208231730187143, 0.267623355600164, 0.151752181506539, 0.690812063534249, -0.439209160359729, -1.076883714548467, 0.498707906140858, -0.487925029576371, -0.103613304330924, 0.837603018526811, -0.198092198511909, -0.112125632789663, -0.755499921125408, 0.288278209008570, 0.125883368815845, 1.292924796627966, 1.038053631406011, -0.611997502674245, 0.222520922004965, 0.287230153164700, 0.476409033238798, 0.869614569513792, 0.358061364176536, 0.509214530929839, -0.410675610743622, -0.201904332841507, -0.558706626820478, 0.336322037621883, -0.344741965980393, -0.890494710594235, 0.925794429095082, -1.354963907153853, -0.516768837195349, 0.409666969132655, 0.523110220991566, 0.157369983869913, 0.035925317367271, 0.795586746122066, 0.292259647522746, -0.023926107664036, 0.038317096922242, -0.314580689803720, -0.076597415137765, 0.467500299430867, -0.814915575460461, -0.446420009623870, 0.047448098237596, -0.735171137141620, -0.790389235906538, -0.200371877957077, 0.651934695669592, 0.417627470650056, -0.551324083707255, -0.394808552634755, -0.308328000038606, 0.330301566640121, -0.980067969600125};
	double * sw = spaceWeights;
	double mk[9];
	double *m = mk;
	double hiddenLayer1outputs[5];
	double hiddenLayer2outputs[3];
	int c;

	inputs[0] = inputs[0] / 1.000000000000000; /* WARNING: During the training this variable remain always constant */
	inputs[1] = inputs[1] / 1.000000000000000; /* WARNING: During the training this variable remain always constant */
	inputs[2] = -1.0 + (inputs[2] - 0.000000000000000) / 0.500000000000000;
	inputs[3] = -1.0 + (inputs[3] - 0.000000000000000) / 0.500000000000000;
	inputs[4] = -1.0 + (inputs[4] - 0.000000000000000) / 0.500000000000000;
	inputs[5] = -1.0 + (inputs[5] - 0.000000000000000) / 0.500000000000000;
	inputs[6] = -1.0 + (inputs[6] - 0.000000000000000) / 0.500000000000000;
	inputs[7] = -1.0 + (inputs[7] - 0.000000000000000) / 0.500000000000000;
	inputs[8] = -1.0 + (inputs[8] - 0.000000000000000) / 0.500000000000000;
	inputs[9] = -1.0 + (inputs[9] - 0.000000000000000) / 0.500000000000000;
	inputs[10] = -1.0 + (inputs[10] - 0.000000000000000) / 0.500000000000000;
	inputs[11] = -1.0 + (inputs[11] - 0.000000000000000) / 0.500000000000000;
	inputs[12] = -1.0 + (inputs[12] - 0.000000000000000) / 0.500000000000000;
	inputs[13] = -1.0 + (inputs[13] - 0.000000000000000) / 0.500000000000000;
	inputs[14] = -1.0 + (inputs[14] - 0.000000000000000) / 0.500000000000000;
	inputs[15] = -1.0 + (inputs[15] - 0.000000000000000) / 0.500000000000000;
	inputs[16] = -1.0 + (inputs[16] - 0.000000000000000) / 0.500000000000000;
	inputs[17] = -1.0 + (inputs[17] - 0.000000000000000) / 0.500000000000000;
	inputs[18] = -1.0 + (inputs[18] - 0.000000000000000) / 0.500000000000000;
	inputs[19] = -1.0 + (inputs[19] - 0.000000000000000) / 0.500000000000000;
	inputs[20] = -1.0 + (inputs[20] - 0.000000000000000) / 0.500000000000000;
	inputs[21] = -1.0 + (inputs[21] - 0.000000000000000) / 0.500000000000000;
	inputs[22] = -1.0 + (inputs[22] - 0.000000000000000) / 0.500000000000000;
	inputs[23] = -1.0 + (inputs[23] - 0.000000000000000) / 0.500000000000000;
	inputs[24] = -1.0 + (inputs[24] - 0.000000000000000) / 0.500000000000000;
	inputs[25] = -1.0 + (inputs[25] - 0.000000000000000) / 0.500000000000000;
	inputs[26] = -1.0 + (inputs[26] - 0.000000000000000) / 0.500000000000000;
	inputs[27] = -1.0 + (inputs[27] - 0.000000000000000) / 0.500000000000000;
	inputs[28] = -1.0 + (inputs[28] - 0.000000000000000) / 0.500000000000000;
	inputs[29] = -1.0 + (inputs[29] - 0.000000000000000) / 0.500000000000000;
	inputs[30] = -1.0 + (inputs[30] - 0.000000000000000) / 0.500000000000000;
	inputs[31] = -1.0 + (inputs[31] - 0.000000000000000) / 0.500000000000000;
	inputs[32] = inputs[32] / 1.000000000000000; /* WARNING: During the training this variable remain always constant */
	inputs[33] = -1.0 + (inputs[33] - 0.000000000000000) / 0.500000000000000;
	inputs[34] = -1.0 + (inputs[34] - 0.000000000000000) / 0.500000000000000;
	inputs[35] = -1.0 + (inputs[35] - 0.000000000000000) / 0.500000000000000;
	inputs[36] = -1.0 + (inputs[36] - 0.000000000000000) / 0.500000000000000;
	inputs[37] = -1.0 + (inputs[37] - 0.000000000000000) / 0.500000000000000;
	inputs[38] = -1.0 + (inputs[38] - 0.000000000000000) / 0.500000000000000;
	inputs[39] = -1.0 + (inputs[39] - 0.000000000000000) / 0.500000000000000;
	inputs[40] = -1.0 + (inputs[40] - 0.000000000000000) / 0.500000000000000;
	inputs[41] = -1.0 + (inputs[41] - 0.000000000000000) / 0.500000000000000;
	inputs[42] = -1.0 + (inputs[42] - 0.000000000000000) / 0.500000000000000;
	inputs[43] = -1.0 + (inputs[43] - 0.000000000000000) / 0.500000000000000;
	inputs[44] = -1.0 + (inputs[44] - 0.000000000000000) / 0.500000000000000;
	inputs[45] = -1.0 + (inputs[45] - 0.000000000000000) / 0.500000000000000;
	inputs[46] = -1.0 + (inputs[46] - 0.000000000000000) / 0.500000000000000;
	inputs[47] = -1.0 + (inputs[47] - 0.000000000000000) / 0.500000000000000;
	inputs[48] = -1.0 + (inputs[48] - 0.000000000000000) / 0.500000000000000;
	inputs[49] = -1.0 + (inputs[49] - 0.000000000000000) / 0.500000000000000;
	inputs[50] = -1.0 + (inputs[50] - 0.000000000000000) / 0.500000000000000;
	inputs[51] = -1.0 + (inputs[51] - 0.000000000000000) / 0.500000000000000;
	inputs[52] = -1.0 + (inputs[52] - 0.000000000000000) / 0.500000000000000;
	inputs[53] = -1.0 + (inputs[53] - 0.000000000000000) / 0.500000000000000;
	inputs[54] = -1.0 + (inputs[54] - 0.000000000000000) / 0.500000000000000;
	inputs[55] = -1.0 + (inputs[55] - 0.000000000000000) / 0.500000000000000;
	inputs[56] = -1.0 + (inputs[56] - 0.000000000000000) / 0.500000000000000;
	inputs[57] = -1.0 + (inputs[57] - 0.000000000000000) / 0.500000000000000;
	inputs[58] = -1.0 + (inputs[58] - 0.000000000000000) / 0.500000000000000;
	inputs[59] = -1.0 + (inputs[59] - 0.000000000000000) / 0.500000000000000;
	inputs[60] = -1.0 + (inputs[60] - 0.000000000000000) / 0.500000000000000;
	inputs[61] = -1.0 + (inputs[61] - 0.000000000000000) / 0.500000000000000;
	inputs[62] = -1.0 + (inputs[62] - 0.000000000000000) / 0.500000000000000;
	inputs[63] = -1.0 + (inputs[63] - 0.000000000000000) / 0.500000000000000;
	inputs[64] = -1.0 + (inputs[64] - 0.000000000000000) / 0.500000000000000;
	inputs[65] = -1.0 + (inputs[65] - 0.000000000000000) / 0.500000000000000;
	inputs[66] = -1.0 + (inputs[66] - 0.000000000000000) / 0.500000000000000;
	inputs[67] = -1.0 + (inputs[67] - 0.000000000000000) / 0.500000000000000;
	inputs[68] = -1.0 + (inputs[68] - 0.000000000000000) / 0.500000000000000;
	inputs[69] = -1.0 + (inputs[69] - 0.000000000000000) / 0.500000000000000;
	inputs[70] = -1.0 + (inputs[70] - 0.000000000000000) / 0.500000000000000;
	inputs[71] = -1.0 + (inputs[71] - 0.000000000000000) / 0.500000000000000;
	inputs[72] = -1.0 + (inputs[72] - 0.000000000000000) / 0.500000000000000;
	inputs[73] = -1.0 + (inputs[73] - 0.000000000000000) / 0.500000000000000;
	inputs[74] = -1.0 + (inputs[74] - 0.000000000000000) / 0.500000000000000;
	inputs[75] = -1.0 + (inputs[75] - 0.000000000000000) / 0.500000000000000;
	inputs[76] = -1.0 + (inputs[76] - 0.000000000000000) / 0.500000000000000;
	inputs[77] = -1.0 + (inputs[77] - 0.000000000000000) / 0.500000000000000;
	inputs[78] = -1.0 + (inputs[78] - 0.000000000000000) / 0.500000000000000;
	inputs[79] = -1.0 + (inputs[79] - 0.000000000000000) / 0.500000000000000;
	inputs[80] = -1.0 + (inputs[80] - 0.000000000000000) / 0.500000000000000;
	inputs[81] = -1.0 + (inputs[81] - 0.000000000000000) / 0.500000000000000;
	inputs[82] = -1.0 + (inputs[82] - 0.000000000000000) / 0.500000000000000;
	inputs[83] = -1.0 + (inputs[83] - 0.000000000000000) / 0.500000000000000;
	inputs[84] = -1.0 + (inputs[84] - 0.000000000000000) / 0.500000000000000;
	inputs[85] = -1.0 + (inputs[85] - 0.000000000000000) / 0.500000000000000;
	inputs[86] = -1.0 + (inputs[86] - 0.000000000000000) / 0.500000000000000;
	inputs[87] = -1.0 + (inputs[87] - 0.000000000000000) / 0.500000000000000;
	inputs[88] = -1.0 + (inputs[88] - 0.000000000000000) / 0.500000000000000;
	inputs[89] = -1.0 + (inputs[89] - 0.000000000000000) / 0.500000000000000;
	inputs[90] = -1.0 + (inputs[90] - 0.000000000000000) / 0.500000000000000;
	inputs[91] = -1.0 + (inputs[91] - 0.000000000000000) / 0.500000000000000;
	inputs[92] = -1.0 + (inputs[92] - 0.000000000000000) / 0.500000000000000;
	inputs[93] = -1.0 + (inputs[93] - 0.000000000000000) / 0.500000000000000;
	inputs[94] = -1.0 + (inputs[94] - 0.000000000000000) / 0.500000000000000;
	inputs[95] = -1.0 + (inputs[95] - 0.000000000000000) / 0.500000000000000;
	inputs[96] = -1.0 + (inputs[96] - 0.000000000000000) / 0.500000000000000;
	inputs[97] = -1.0 + (inputs[97] - 0.000000000000000) / 0.500000000000000;
	inputs[98] = -1.0 + (inputs[98] - 0.000000000000000) / 0.500000000000000;
	inputs[99] = -1.0 + (inputs[99] - 0.000000000000000) / 0.500000000000000;
	inputs[100] = -1.0 + (inputs[100] - 0.000000000000000) / 0.500000000000000;
	inputs[101] = -1.0 + (inputs[101] - 0.000000000000000) / 0.500000000000000;
	inputs[102] = -1.0 + (inputs[102] - 0.000000000000000) / 0.500000000000000;
	inputs[103] = -1.0 + (inputs[103] - 0.000000000000000) / 0.500000000000000;
	inputs[104] = -1.0 + (inputs[104] - 0.000000000000000) / 0.500000000000000;
	inputs[105] = -1.0 + (inputs[105] - 0.000000000000000) / 0.500000000000000;
	inputs[106] = -1.0 + (inputs[106] - 0.000000000000000) / 0.500000000000000;
	inputs[107] = -1.0 + (inputs[107] - 0.000000000000000) / 0.500000000000000;
	inputs[108] = -1.0 + (inputs[108] - 0.000000000000000) / 0.500000000000000;
	inputs[109] = -1.0 + (inputs[109] - 0.000000000000000) / 0.500000000000000;
	inputs[110] = -1.0 + (inputs[110] - 0.000000000000000) / 0.500000000000000;
	inputs[111] = -1.0 + (inputs[111] - 0.000000000000000) / 0.500000000000000;
	inputs[112] = -1.0 + (inputs[112] - 0.000000000000000) / 0.500000000000000;
	inputs[113] = -1.0 + (inputs[113] - 0.000000000000000) / 0.500000000000000;
	inputs[114] = -1.0 + (inputs[114] - 0.000000000000000) / 0.500000000000000;
	inputs[115] = -1.0 + (inputs[115] - 0.000000000000000) / 0.500000000000000;
	inputs[116] = -1.0 + (inputs[116] - 0.000000000000000) / 0.500000000000000;
	inputs[117] = -1.0 + (inputs[117] - 0.000000000000000) / 0.500000000000000;
	inputs[118] = -1.0 + (inputs[118] - 0.000000000000000) / 0.500000000000000;
	inputs[119] = -1.0 + (inputs[119] - 0.000000000000000) / 0.500000000000000;
	inputs[120] = -1.0 + (inputs[120] - 0.000000000000000) / 0.500000000000000;
	inputs[121] = -1.0 + (inputs[121] - 0.000000000000000) / 0.500000000000000;
	inputs[122] = -1.0 + (inputs[122] - 0.000000000000000) / 0.500000000000000;
	inputs[123] = -1.0 + (inputs[123] - 0.000000000000000) / 0.500000000000000;
	inputs[124] = -1.0 + (inputs[124] - 0.000000000000000) / 0.500000000000000;
	inputs[125] = -1.0 + (inputs[125] - 0.000000000000000) / 0.500000000000000;
	inputs[126] = -1.0 + (inputs[126] - 0.000000000000000) / 0.500000000000000;
	inputs[127] = -1.0 + (inputs[127] - 0.000000000000000) / 0.500000000000000;
	inputs[128] = -1.0 + (inputs[128] - 0.000000000000000) / 0.500000000000000;
	inputs[129] = -1.0 + (inputs[129] - 0.000000000000000) / 0.500000000000000;
	inputs[130] = -1.0 + (inputs[130] - 0.000000000000000) / 0.500000000000000;
	inputs[131] = -1.0 + (inputs[131] - 0.000000000000000) / 0.500000000000000;
	inputs[132] = -1.0 + (inputs[132] - 0.000000000000000) / 0.500000000000000;
	inputs[133] = -1.0 + (inputs[133] - 0.000000000000000) / 0.500000000000000;
	inputs[134] = -1.0 + (inputs[134] - 0.000000000000000) / 0.500000000000000;
	inputs[135] = -1.0 + (inputs[135] - 0.000000000000000) / 0.500000000000000;
	inputs[136] = -1.0 + (inputs[136] - 0.000000000000000) / 0.500000000000000;
	inputs[137] = -1.0 + (inputs[137] - 0.000000000000000) / 0.500000000000000;
	inputs[138] = -1.0 + (inputs[138] - 0.000000000000000) / 0.500000000000000;
	inputs[139] = -1.0 + (inputs[139] - 0.000000000000000) / 0.500000000000000;
	inputs[140] = -1.0 + (inputs[140] - 0.000000000000000) / 0.500000000000000;
	inputs[141] = -1.0 + (inputs[141] - 0.000000000000000) / 0.500000000000000;
	inputs[142] = -1.0 + (inputs[142] - 0.000000000000000) / 0.500000000000000;
	inputs[143] = -1.0 + (inputs[143] - 0.000000000000000) / 0.500000000000000;
	inputs[144] = -1.0 + (inputs[144] - 0.000000000000000) / 0.500000000000000;
	inputs[145] = -1.0 + (inputs[145] - 0.000000000000000) / 0.500000000000000;
	inputs[146] = -1.0 + (inputs[146] - 0.000000000000000) / 0.500000000000000;
	inputs[147] = -1.0 + (inputs[147] - 0.000000000000000) / 0.500000000000000;
	inputs[148] = -1.0 + (inputs[148] - 0.000000000000000) / 0.500000000000000;
	inputs[149] = -1.0 + (inputs[149] - 0.000000000000000) / 0.500000000000000;
	inputs[150] = -1.0 + (inputs[150] - 0.000000000000000) / 0.500000000000000;
	inputs[151] = -1.0 + (inputs[151] - 0.000000000000000) / 0.500000000000000;
	inputs[152] = -1.0 + (inputs[152] - 0.000000000000000) / 0.500000000000000;
	inputs[153] = -1.0 + (inputs[153] - 0.000000000000000) / 0.500000000000000;
	inputs[154] = -1.0 + (inputs[154] - 0.000000000000000) / 0.500000000000000;
	inputs[155] = -1.0 + (inputs[155] - 0.000000000000000) / 0.500000000000000;
	inputs[156] = -1.0 + (inputs[156] - 0.000000000000000) / 0.500000000000000;
	inputs[157] = -1.0 + (inputs[157] - 0.000000000000000) / 0.500000000000000;
	inputs[158] = -1.0 + (inputs[158] - 0.000000000000000) / 0.500000000000000;
	inputs[159] = -1.0 + (inputs[159] - 0.000000000000000) / 0.500000000000000;
	inputs[160] = -1.0 + (inputs[160] - 0.000000000000000) / 0.500000000000000;
	inputs[161] = -1.0 + (inputs[161] - 0.000000000000000) / 0.500000000000000;
	inputs[162] = -1.0 + (inputs[162] - 0.000000000000000) / 0.500000000000000;
	inputs[163] = -1.0 + (inputs[163] - 0.000000000000000) / 0.500000000000000;
	inputs[164] = -1.0 + (inputs[164] - 0.000000000000000) / 0.500000000000000;
	inputs[165] = -1.0 + (inputs[165] - 0.000000000000000) / 0.500000000000000;
	inputs[166] = -1.0 + (inputs[166] - 0.000000000000000) / 0.500000000000000;
	inputs[167] = -1.0 + (inputs[167] - 0.000000000000000) / 0.500000000000000;
	inputs[168] = -1.0 + (inputs[168] - 0.000000000000000) / 0.500000000000000;
	inputs[169] = -1.0 + (inputs[169] - 0.000000000000000) / 0.500000000000000;
	inputs[170] = -1.0 + (inputs[170] - 0.000000000000000) / 0.500000000000000;
	inputs[171] = -1.0 + (inputs[171] - 0.000000000000000) / 0.500000000000000;
	inputs[172] = -1.0 + (inputs[172] - 0.000000000000000) / 0.500000000000000;
	inputs[173] = -1.0 + (inputs[173] - 0.000000000000000) / 0.500000000000000;
	inputs[174] = -1.0 + (inputs[174] - 0.000000000000000) / 0.500000000000000;
	inputs[175] = -1.0 + (inputs[175] - 0.000000000000000) / 0.500000000000000;
	inputs[176] = -1.0 + (inputs[176] - 0.000000000000000) / 0.500000000000000;
	inputs[177] = -1.0 + (inputs[177] - 0.000000000000000) / 0.500000000000000;
	inputs[178] = -1.0 + (inputs[178] - 0.000000000000000) / 0.500000000000000;
	inputs[179] = -1.0 + (inputs[179] - 0.000000000000000) / 0.500000000000000;
	inputs[180] = -1.0 + (inputs[180] - 0.000000000000000) / 0.500000000000000;
	inputs[181] = -1.0 + (inputs[181] - 0.000000000000000) / 0.500000000000000;
	inputs[182] = -1.0 + (inputs[182] - 0.000000000000000) / 0.500000000000000;
	inputs[183] = -1.0 + (inputs[183] - 0.000000000000000) / 0.500000000000000;
	inputs[184] = -1.0 + (inputs[184] - 0.000000000000000) / 0.500000000000000;
	inputs[185] = -1.0 + (inputs[185] - 0.000000000000000) / 0.500000000000000;
	inputs[186] = -1.0 + (inputs[186] - 0.000000000000000) / 0.500000000000000;
	inputs[187] = -1.0 + (inputs[187] - 0.000000000000000) / 0.500000000000000;
	inputs[188] = -1.0 + (inputs[188] - 0.000000000000000) / 0.500000000000000;
	inputs[189] = -1.0 + (inputs[189] - 0.000000000000000) / 0.500000000000000;
	inputs[190] = -1.0 + (inputs[190] - 0.000000000000000) / 0.500000000000000;
	inputs[191] = -1.0 + (inputs[191] - 0.000000000000000) / 0.500000000000000;
	inputs[192] = -1.0 + (inputs[192] - 0.000000000000000) / 0.500000000000000;
	inputs[193] = -1.0 + (inputs[193] - 0.000000000000000) / 0.500000000000000;
	inputs[194] = -1.0 + (inputs[194] - 0.000000000000000) / 0.500000000000000;
	inputs[195] = -1.0 + (inputs[195] - 0.000000000000000) / 0.500000000000000;
	inputs[196] = -1.0 + (inputs[196] - 0.000000000000000) / 0.500000000000000;
	inputs[197] = -1.0 + (inputs[197] - 0.000000000000000) / 0.500000000000000;
	inputs[198] = -1.0 + (inputs[198] - 0.000000000000000) / 0.500000000000000;
	inputs[199] = -1.0 + (inputs[199] - 0.000000000000000) / 0.500000000000000;
	inputs[200] = -1.0 + (inputs[200] - 0.000000000000000) / 0.500000000000000;
	inputs[201] = -1.0 + (inputs[201] - 0.000000000000000) / 0.500000000000000;
	inputs[202] = -1.0 + (inputs[202] - 0.000000000000000) / 0.500000000000000;
	inputs[203] = -1.0 + (inputs[203] - 0.000000000000000) / 0.500000000000000;
	inputs[204] = -1.0 + (inputs[204] - 0.000000000000000) / 0.500000000000000;
	inputs[205] = -1.0 + (inputs[205] - 0.000000000000000) / 0.500000000000000;
	inputs[206] = -1.0 + (inputs[206] - 0.000000000000000) / 0.500000000000000;
	inputs[207] = -1.0 + (inputs[207] - 0.000000000000000) / 0.500000000000000;
	inputs[208] = -1.0 + (inputs[208] - 0.000000000000000) / 0.500000000000000;
	inputs[209] = -1.0 + (inputs[209] - 0.000000000000000) / 0.500000000000000;
	inputs[210] = -1.0 + (inputs[210] - 0.000000000000000) / 0.500000000000000;
	inputs[211] = -1.0 + (inputs[211] - 0.000000000000000) / 0.500000000000000;
	inputs[212] = -1.0 + (inputs[212] - 0.000000000000000) / 0.500000000000000;
	inputs[213] = -1.0 + (inputs[213] - 0.000000000000000) / 0.500000000000000;
	inputs[214] = -1.0 + (inputs[214] - 0.000000000000000) / 0.500000000000000;
	inputs[215] = -1.0 + (inputs[215] - 0.000000000000000) / 0.500000000000000;
	inputs[216] = -1.0 + (inputs[216] - 0.000000000000000) / 0.500000000000000;
	inputs[217] = -1.0 + (inputs[217] - 0.000000000000000) / 0.500000000000000;
	inputs[218] = -1.0 + (inputs[218] - 0.000000000000000) / 0.500000000000000;
	inputs[219] = -1.0 + (inputs[219] - 0.000000000000000) / 0.500000000000000;
	inputs[220] = -1.0 + (inputs[220] - 0.000000000000000) / 0.500000000000000;
	inputs[221] = -1.0 + (inputs[221] - 0.000000000000000) / 0.500000000000000;
	inputs[222] = -1.0 + (inputs[222] - 0.000000000000000) / 0.500000000000000;
	inputs[223] = -1.0 + (inputs[223] - 0.000000000000000) / 0.500000000000000;
	inputs[224] = -1.0 + (inputs[224] - 0.000000000000000) / 0.500000000000000;
	inputs[225] = -1.0 + (inputs[225] - 0.000000000000000) / 0.500000000000000;
	inputs[226] = -1.0 + (inputs[226] - 0.000000000000000) / 0.500000000000000;
	inputs[227] = -1.0 + (inputs[227] - 0.000000000000000) / 0.500000000000000;
	inputs[228] = -1.0 + (inputs[228] - 0.000000000000000) / 0.500000000000000;
	inputs[229] = -1.0 + (inputs[229] - 0.000000000000000) / 0.500000000000000;
	inputs[230] = -1.0 + (inputs[230] - 0.000000000000000) / 0.500000000000000;
	inputs[231] = -1.0 + (inputs[231] - 0.000000000000000) / 0.500000000000000;
	inputs[232] = -1.0 + (inputs[232] - 0.000000000000000) / 0.500000000000000;
	inputs[233] = -1.0 + (inputs[233] - 0.000000000000000) / 0.500000000000000;
	inputs[234] = -1.0 + (inputs[234] - 0.000000000000000) / 0.500000000000000;
	inputs[235] = -1.0 + (inputs[235] - 0.000000000000000) / 0.500000000000000;
	inputs[236] = -1.0 + (inputs[236] - 0.000000000000000) / 0.500000000000000;
	inputs[237] = -1.0 + (inputs[237] - 0.000000000000000) / 0.500000000000000;
	inputs[238] = -1.0 + (inputs[238] - 0.000000000000000) / 0.500000000000000;
	inputs[239] = -1.0 + (inputs[239] - 0.000000000000000) / 0.500000000000000;
	inputs[240] = -1.0 + (inputs[240] - 0.000000000000000) / 0.500000000000000;
	inputs[241] = -1.0 + (inputs[241] - 0.000000000000000) / 0.500000000000000;
	inputs[242] = -1.0 + (inputs[242] - 0.000000000000000) / 0.500000000000000;
	inputs[243] = -1.0 + (inputs[243] - 0.000000000000000) / 0.500000000000000;
	inputs[244] = -1.0 + (inputs[244] - 0.000000000000000) / 0.500000000000000;
	inputs[245] = -1.0 + (inputs[245] - 0.000000000000000) / 0.500000000000000;
	inputs[246] = -1.0 + (inputs[246] - 0.000000000000000) / 0.500000000000000;
	inputs[247] = -1.0 + (inputs[247] - 0.000000000000000) / 0.500000000000000;
	inputs[248] = -1.0 + (inputs[248] - 0.000000000000000) / 0.500000000000000;
	inputs[249] = -1.0 + (inputs[249] - 0.000000000000000) / 0.500000000000000;
	inputs[250] = -1.0 + (inputs[250] - 0.000000000000000) / 0.500000000000000;
	inputs[251] = -1.0 + (inputs[251] - 0.000000000000000) / 0.500000000000000;
	inputs[252] = -1.0 + (inputs[252] - 0.000000000000000) / 0.500000000000000;
	inputs[253] = -1.0 + (inputs[253] - 0.000000000000000) / 0.500000000000000;
	inputs[254] = -1.0 + (inputs[254] - 0.000000000000000) / 0.500000000000000;
	inputs[255] = -1.0 + (inputs[255] - 0.000000000000000) / 0.500000000000000;

	mk[0] = *sw++;
	for(c = 0; c < 256; c++) mk[0] += *sw++ * inputs[c];
	mk[0] = 1.0 / (1.0 + exp(-mk[0]));
	mk[1] = *sw++;
	for(c = 0; c < 256; c++) mk[1] += *sw++ * inputs[c];
	mk[1] = 1.0 / (1.0 + exp(-mk[1]));
	mk[2] = *sw++;
	for(c = 0; c < 256; c++) mk[2] += *sw++ * inputs[c];
	mk[2] = 1.0 / (1.0 + exp(-mk[2]));
	mk[3] = *sw++;
	for(c = 0; c < 256; c++) mk[3] += *sw++ * inputs[c];
	mk[3] = 1.0 / (1.0 + exp(-mk[3]));
	mk[4] = *sw++;
	for(c = 0; c < 256; c++) mk[4] += *sw++ * inputs[c];
	mk[4] = 1.0 / (1.0 + exp(-mk[4]));
	mk[5] = *sw++;
	for(c = 0; c < 256; c++) mk[5] += *sw++ * inputs[c];
	mk[5] = 1.0 / (1.0 + exp(-mk[5]));
	mk[6] = *sw++;
	for(c = 0; c < 256; c++) mk[6] += *sw++ * inputs[c];
	mk[6] = 1.0 / (1.0 + exp(-mk[6]));
	mk[7] = *sw++;
	for(c = 0; c < 256; c++) mk[7] += *sw++ * inputs[c];
	mk[7] = 1.0 / (1.0 + exp(-mk[7]));
	mk[8] = *sw++;
	for(c = 0; c < 256; c++) mk[8] += *sw++ * inputs[c];
	mk[8] = 1.0 / (1.0 + exp(-mk[8]));
	hiddenLayer1outputs[0] = *mw++;
	for(c = 0; c < 256; c++) hiddenLayer1outputs[0] += *mw++ * inputs[c];
	hiddenLayer1outputs[0] = 1.0 / (1.0 + exp(-hiddenLayer1outputs[0]));
	hiddenLayer1outputs[0] *= *m++;
	hiddenLayer1outputs[1] = *mw++;
	for(c = 0; c < 256; c++) hiddenLayer1outputs[1] += *mw++ * inputs[c];
	hiddenLayer1outputs[1] = 1.0 / (1.0 + exp(-hiddenLayer1outputs[1]));
	hiddenLayer1outputs[1] *= *m++;
	hiddenLayer1outputs[2] = *mw++;
	for(c = 0; c < 256; c++) hiddenLayer1outputs[2] += *mw++ * inputs[c];
	hiddenLayer1outputs[2] = 1.0 / (1.0 + exp(-hiddenLayer1outputs[2]));
	hiddenLayer1outputs[2] *= *m++;
	hiddenLayer1outputs[3] = *mw++;
	for(c = 0; c < 256; c++) hiddenLayer1outputs[3] += *mw++ * inputs[c];
	hiddenLayer1outputs[3] = 1.0 / (1.0 + exp(-hiddenLayer1outputs[3]));
	hiddenLayer1outputs[3] *= *m++;
	hiddenLayer1outputs[4] = *mw++;
	for(c = 0; c < 256; c++) hiddenLayer1outputs[4] += *mw++ * inputs[c];
	hiddenLayer1outputs[4] = 1.0 / (1.0 + exp(-hiddenLayer1outputs[4]));
	hiddenLayer1outputs[4] *= *m++;
	hiddenLayer2outputs[0] = *mw++;
	for(c = 0; c < 5; c++) hiddenLayer2outputs[0] += *mw++ * hiddenLayer1outputs[c];
	hiddenLayer2outputs[0] = 1.0 / (1.0 + exp(-hiddenLayer2outputs[0]));
	hiddenLayer2outputs[0] *= *m++;
	hiddenLayer2outputs[1] = *mw++;
	for(c = 0; c < 5; c++) hiddenLayer2outputs[1] += *mw++ * hiddenLayer1outputs[c];
	hiddenLayer2outputs[1] = 1.0 / (1.0 + exp(-hiddenLayer2outputs[1]));
	hiddenLayer2outputs[1] *= *m++;
	hiddenLayer2outputs[2] = *mw++;
	for(c = 0; c < 5; c++) hiddenLayer2outputs[2] += *mw++ * hiddenLayer1outputs[c];
	hiddenLayer2outputs[2] = 1.0 / (1.0 + exp(-hiddenLayer2outputs[2]));
	hiddenLayer2outputs[2] *= *m++;
	outputs[0] = *mw++;
	for(c = 0; c < 3; c++) outputs[0] += *mw++ * hiddenLayer2outputs[c];
	outputs[0] = 1.0 / (1.0 + exp(-outputs[0]));
	outputs[0] *= *m++;
	outputs[0] = 0.000000000000000 + (outputs[0] - 0.000000) * 0.900000000000000;
}
